svm_type one_class
kernel_type rbf
gamma 0.5
nr_class 2
total_sv 14063
rho 10029.2
SV
1 1:-0.340153 2:0.562815 
1 1:0.544876 2:-0.474807 
1 1:-0.340153 2:0.562815 
1 1:0.544876 2:-0.474807 
1 1:-0.340153 2:0.562815 
1 1:0.544876 2:-0.474807 
1 1:-0.340153 2:0.562815 
1 1:0.544876 2:-0.474807 
1 1:-0.340153 2:0.562815 
1 1:0.544876 2:-0.474807 
1 1:-0.340153 2:0.562815 
1 1:0.544876 2:-0.474807 
1 1:-0.340153 2:0.562815 
1 1:0.544876 2:-0.474807 
1 1:-0.340153 2:0.562815 
1 1:0.544876 2:-0.474807 
1 1:-0.340153 2:0.562815 
1 1:0.544876 2:-0.474807 
1 1:-0.340153 2:0.562815 
1 1:0.544876 2:-0.474807 
1 1:-0.340153 2:0.562815 
1 1:0.544876 2:-0.474807 
1 1:-0.340153 2:0.562815 
1 1:0.544876 2:-0.474807 
1 1:-0.340153 2:0.562815 
1 1:0.544876 2:-0.474807 
1 1:-0.340153 2:0.562815 
1 1:0.544876 2:-0.474807 
1 1:-0.340153 2:0.562815 
1 1:0.544876 2:-0.474807 
1 1:-0.340153 2:0.562815 
1 1:0.544876 2:-0.474807 
1 1:-0.340153 2:0.562815 
1 1:0.544876 2:-0.474807 
1 1:-0.340153 2:0.562815 
1 1:0.544876 2:-0.474807 
1 1:-0.340153 2:0.562815 
1 1:0.544876 2:-0.474807 
1 1:-0.340153 2:0.562815 
1 1:0.544876 2:-0.474807 
1 1:-0.340153 2:0.562815 
1 1:0.544876 2:-0.474807 
1 1:-0.340153 2:0.562815 
1 1:0.544876 2:-0.474807 
1 1:-0.340153 2:0.562815 
1 1:0.544876 2:-0.474807 
1 1:-0.340153 2:0.562815 
1 1:0.544876 2:-0.474807 
1 1:-0.340153 2:0.562815 
1 1:0.544876 2:-0.474807 
1 1:-0.340153 2:0.562815 
1 1:0.544876 2:-0.474807 
1 1:-0.340153 2:0.562815 
1 1:0.544876 2:-0.474807 
1 1:-0.340153 2:0.562815 
1 1:0.544876 2:-0.474807 
1 1:-0.340153 2:0.562815 
1 1:0.544876 2:-0.474807 
1 1:-0.340153 2:0.562815 
1 1:0.544876 2:-0.474807 
1 1:-0.340153 2:0.562815 
1 1:0.544876 2:-0.474807 
1 1:-0.340153 2:0.562815 
1 1:0.544876 2:-0.474807 
1 1:-0.340153 2:0.562815 
1 1:0.544876 2:-0.474807 
1 1:-0.340153 2:0.562815 
1 1:0.544876 2:-0.474807 
1 1:-0.340153 2:0.562815 
1 1:0.544876 2:-0.474807 
1 1:-0.340153 2:0.562815 
1 1:0.544876 2:-0.474807 
1 1:-0.340153 2:0.562815 
1 1:0.544876 2:-0.474807 
1 1:-0.340153 2:0.562815 
1 1:0.544876 2:-0.474807 
1 1:-0.340153 2:0.562815 
1 1:0.544876 2:-0.474807 
1 1:-0.340153 2:0.562815 
1 1:0.544876 2:-0.474807 
1 1:-0.340153 2:0.562815 
1 1:0.544876 2:-0.474807 
1 1:-0.340153 2:0.562815 
1 1:0.544876 2:-0.474807 
1 1:-0.340153 2:0.562815 
1 1:0.544876 2:-0.474807 
1 1:-0.340153 2:0.562815 
1 1:0.544876 2:-0.474807 
1 1:-0.340153 2:0.562815 
1 1:0.544876 2:-0.474807 
1 1:-0.340153 2:0.562815 
1 1:0.544876 2:-0.474807 
1 1:-0.340153 2:0.562815 
1 1:0.544876 2:-0.474807 
1 1:-0.340153 2:0.562815 
1 1:0.544876 2:-0.474807 
1 1:-0.340153 2:0.562815 
1 1:0.544876 2:-0.474807 
1 1:-0.340153 2:0.562815 
1 1:0.544876 2:-0.474807 
1 1:-0.340153 2:0.562815 
1 1:0.544876 2:-0.474807 
1 1:-0.340153 2:0.562815 
1 1:0.544876 2:-0.474807 
1 1:-0.340153 2:0.562815 
1 1:0.544876 2:-0.474807 
1 1:-0.340153 2:0.562815 
1 1:0.544876 2:-0.474807 
1 1:-0.340153 2:0.562815 
1 1:0.544876 2:-0.474807 
1 1:-0.340153 2:0.562815 
1 1:0.544876 2:-0.474807 
1 1:-0.340153 2:0.562815 
1 1:0.544876 2:-0.474807 
1 1:-0.340153 2:0.562815 
1 1:0.544876 2:-0.474807 
1 1:-0.340153 2:0.562815 
1 1:0.544876 2:-0.474807 
1 1:-0.340153 2:0.562815 
1 1:0.544876 2:-0.474807 
1 1:-0.340153 2:0.562815 
1 1:0.544876 2:-0.474807 
1 1:-0.340153 2:0.562815 
1 1:0.544876 2:-0.474807 
1 1:-0.340153 2:0.562815 
1 1:0.544876 2:-0.474807 
1 1:-0.340153 2:0.562815 
1 1:0.544876 2:-0.474807 
1 1:0.7591 2:-0.601005 
1 1:0.116262 2:-0.688539 
1 1:-0.233624 2:-0.796383 
1 1:0.425089 2:-0.623425 
1 1:0.506645 2:-0.549026 
1 1:0.7591 2:-0.601005 
1 1:0.116262 2:-0.688539 
1 1:-0.233624 2:-0.796383 
1 1:0.425089 2:-0.623425 
1 1:0.506645 2:-0.549026 
1 1:0.7591 2:-0.601005 
1 1:0.116262 2:-0.688539 
1 1:-0.233624 2:-0.796383 
1 1:0.425089 2:-0.623425 
1 1:0.506645 2:-0.549026 
1 1:0.7591 2:-0.601005 
1 1:0.116262 2:-0.688539 
1 1:-0.233624 2:-0.796383 
1 1:0.425089 2:-0.623425 
1 1:0.506645 2:-0.549026 
1 1:0.7591 2:-0.601005 
1 1:0.116262 2:-0.688539 
1 1:-0.233624 2:-0.796383 
1 1:0.425089 2:-0.623425 
1 1:0.506645 2:-0.549026 
1 1:0.7591 2:-0.601005 
1 1:0.116262 2:-0.688539 
1 1:-0.233624 2:-0.796383 
1 1:0.425089 2:-0.623425 
1 1:0.506645 2:-0.549026 
1 1:0.7591 2:-0.601005 
1 1:0.116262 2:-0.688539 
1 1:-0.233624 2:-0.796383 
1 1:0.425089 2:-0.623425 
1 1:0.506645 2:-0.549026 
1 1:0.7591 2:-0.601005 
1 1:0.116262 2:-0.688539 
1 1:-0.233624 2:-0.796383 
1 1:0.425089 2:-0.623425 
1 1:0.506645 2:-0.549026 
1 1:0.7591 2:-0.601005 
1 1:0.116262 2:-0.688539 
1 1:-0.233624 2:-0.796383 
1 1:0.425089 2:-0.623425 
1 1:0.506645 2:-0.549026 
1 1:0.7591 2:-0.601005 
1 1:0.116262 2:-0.688539 
1 1:-0.233624 2:-0.796383 
1 1:0.425089 2:-0.623425 
1 1:0.506645 2:-0.549026 
1 1:0.7591 2:-0.601005 
1 1:0.116262 2:-0.688539 
1 1:-0.233624 2:-0.796383 
1 1:0.425089 2:-0.623425 
1 1:0.506645 2:-0.549026 
1 1:0.7591 2:-0.601005 
1 1:0.116262 2:-0.688539 
1 1:-0.233624 2:-0.796383 
1 1:0.425089 2:-0.623425 
1 1:0.506645 2:-0.549026 
1 1:0.7591 2:-0.601005 
1 1:0.116262 2:-0.688539 
1 1:-0.233624 2:-0.796383 
1 1:0.425089 2:-0.623425 
1 1:0.506645 2:-0.549026 
1 1:0.7591 2:-0.601005 
1 1:0.116262 2:-0.688539 
1 1:-0.233624 2:-0.796383 
1 1:0.425089 2:-0.623425 
1 1:0.506645 2:-0.549026 
1 1:0.7591 2:-0.601005 
1 1:0.116262 2:-0.688539 
1 1:-0.233624 2:-0.796383 
1 1:0.425089 2:-0.623425 
1 1:0.506645 2:-0.549026 
1 1:0.7591 2:-0.601005 
1 1:0.116262 2:-0.688539 
1 1:-0.233624 2:-0.796383 
1 1:0.425089 2:-0.623425 
1 1:0.506645 2:-0.549026 
1 1:0.7591 2:-0.601005 
1 1:0.116262 2:-0.688539 
1 1:-0.233624 2:-0.796383 
1 1:0.425089 2:-0.623425 
1 1:0.506645 2:-0.549026 
1 1:0.7591 2:-0.601005 
1 1:0.116262 2:-0.688539 
1 1:-0.233624 2:-0.796383 
1 1:0.425089 2:-0.623425 
1 1:0.506645 2:-0.549026 
1 1:0.7591 2:-0.601005 
1 1:0.116262 2:-0.688539 
1 1:-0.233624 2:-0.796383 
1 1:0.425089 2:-0.623425 
1 1:0.506645 2:-0.549026 
1 1:0.7591 2:-0.601005 
1 1:0.116262 2:-0.688539 
1 1:-0.233624 2:-0.796383 
1 1:0.425089 2:-0.623425 
1 1:0.506645 2:-0.549026 
1 1:0.7591 2:-0.601005 
1 1:0.116262 2:-0.688539 
1 1:-0.233624 2:-0.796383 
1 1:0.425089 2:-0.623425 
1 1:0.506645 2:-0.549026 
1 1:0.7591 2:-0.601005 
1 1:0.116262 2:-0.688539 
1 1:-0.233624 2:-0.796383 
1 1:0.425089 2:-0.623425 
1 1:0.506645 2:-0.549026 
1 1:0.7591 2:-0.601005 
1 1:0.116262 2:-0.688539 
1 1:-0.233624 2:-0.796383 
1 1:0.425089 2:-0.623425 
1 1:0.506645 2:-0.549026 
1 1:0.7591 2:-0.601005 
1 1:0.116262 2:-0.688539 
1 1:-0.233624 2:-0.796383 
1 1:0.425089 2:-0.623425 
1 1:0.506645 2:-0.549026 
1 1:0.7591 2:-0.601005 
1 1:0.116262 2:-0.688539 
1 1:-0.233624 2:-0.796383 
1 1:0.425089 2:-0.623425 
1 1:0.506645 2:-0.549026 
1 1:0.7591 2:-0.601005 
1 1:0.116262 2:-0.688539 
1 1:-0.233624 2:-0.796383 
1 1:0.425089 2:-0.623425 
1 1:0.506645 2:-0.549026 
1 1:0.7591 2:-0.601005 
1 1:0.116262 2:-0.688539 
1 1:-0.233624 2:-0.796383 
1 1:0.425089 2:-0.623425 
1 1:0.506645 2:-0.549026 
1 1:0.7591 2:-0.601005 
1 1:0.116262 2:-0.688539 
1 1:-0.233624 2:-0.796383 
1 1:0.425089 2:-0.623425 
1 1:0.506645 2:-0.549026 
1 1:0.7591 2:-0.601005 
1 1:0.116262 2:-0.688539 
1 1:-0.233624 2:-0.796383 
1 1:0.425089 2:-0.623425 
1 1:0.506645 2:-0.549026 
1 1:0.7591 2:-0.601005 
1 1:0.116262 2:-0.688539 
1 1:-0.233624 2:-0.796383 
1 1:0.425089 2:-0.623425 
1 1:0.506645 2:-0.549026 
1 1:0.7591 2:-0.601005 
1 1:0.116262 2:-0.688539 
1 1:-0.233624 2:-0.796383 
1 1:0.425089 2:-0.623425 
1 1:0.506645 2:-0.549026 
1 1:0.7591 2:-0.601005 
1 1:0.116262 2:-0.688539 
1 1:-0.233624 2:-0.796383 
1 1:0.425089 2:-0.623425 
1 1:0.506645 2:-0.549026 
1 1:0.7591 2:-0.601005 
1 1:0.116262 2:-0.688539 
1 1:-0.233624 2:-0.796383 
1 1:0.425089 2:-0.623425 
1 1:0.506645 2:-0.549026 
1 1:0.7591 2:-0.601005 
1 1:0.116262 2:-0.688539 
1 1:-0.233624 2:-0.796383 
1 1:0.425089 2:-0.623425 
1 1:0.506645 2:-0.549026 
1 1:0.7591 2:-0.601005 
1 1:0.116262 2:-0.688539 
1 1:-0.233624 2:-0.796383 
1 1:0.425089 2:-0.623425 
1 1:0.506645 2:-0.549026 
1 1:0.7591 2:-0.601005 
1 1:0.116262 2:-0.688539 
1 1:-0.233624 2:-0.796383 
1 1:0.425089 2:-0.623425 
1 1:0.506645 2:-0.549026 
1 1:0.7591 2:-0.601005 
1 1:0.116262 2:-0.688539 
1 1:-0.233624 2:-0.796383 
1 1:0.425089 2:-0.623425 
1 1:0.506645 2:-0.549026 
1 1:0.7591 2:-0.601005 
1 1:0.116262 2:-0.688539 
1 1:-0.233624 2:-0.796383 
1 1:0.425089 2:-0.623425 
1 1:0.506645 2:-0.549026 
1 1:0.7591 2:-0.601005 
1 1:0.116262 2:-0.688539 
1 1:-0.233624 2:-0.796383 
1 1:0.425089 2:-0.623425 
1 1:0.506645 2:-0.549026 
1 1:0.7591 2:-0.601005 
1 1:0.116262 2:-0.688539 
1 1:-0.233624 2:-0.796383 
1 1:0.425089 2:-0.623425 
1 1:0.506645 2:-0.549026 
1 1:0.7591 2:-0.601005 
1 1:0.116262 2:-0.688539 
1 1:-0.233624 2:-0.796383 
1 1:0.425089 2:-0.623425 
1 1:0.506645 2:-0.549026 
1 1:0.7591 2:-0.601005 
1 1:0.116262 2:-0.688539 
1 1:-0.233624 2:-0.796383 
1 1:0.425089 2:-0.623425 
1 1:0.506645 2:-0.549026 
1 1:0.7591 2:-0.601005 
1 1:0.116262 2:-0.688539 
1 1:-0.233624 2:-0.796383 
1 1:0.425089 2:-0.623425 
1 1:0.506645 2:-0.549026 
1 1:0.7591 2:-0.601005 
1 1:0.116262 2:-0.688539 
1 1:-0.233624 2:-0.796383 
1 1:0.425089 2:-0.623425 
1 1:0.506645 2:-0.549026 
1 1:0.7591 2:-0.601005 
1 1:0.116262 2:-0.688539 
1 1:-0.233624 2:-0.796383 
1 1:0.425089 2:-0.623425 
1 1:0.506645 2:-0.549026 
1 1:0.7591 2:-0.601005 
1 1:0.116262 2:-0.688539 
1 1:-0.233624 2:-0.796383 
1 1:0.425089 2:-0.623425 
1 1:0.506645 2:-0.549026 
1 1:0.7591 2:-0.601005 
1 1:0.116262 2:-0.688539 
1 1:-0.233624 2:-0.796383 
1 1:0.425089 2:-0.623425 
1 1:0.506645 2:-0.549026 
1 1:0.7591 2:-0.601005 
1 1:0.116262 2:-0.688539 
1 1:-0.233624 2:-0.796383 
1 1:0.425089 2:-0.623425 
1 1:0.506645 2:-0.549026 
1 1:0.7591 2:-0.601005 
1 1:0.116262 2:-0.688539 
1 1:-0.233624 2:-0.796383 
1 1:0.425089 2:-0.623425 
1 1:0.506645 2:-0.549026 
1 1:0.7591 2:-0.601005 
1 1:0.116262 2:-0.688539 
1 1:-0.233624 2:-0.796383 
1 1:0.425089 2:-0.623425 
1 1:0.506645 2:-0.549026 
1 1:0.7591 2:-0.601005 
1 1:0.116262 2:-0.688539 
1 1:-0.233624 2:-0.796383 
1 1:0.425089 2:-0.623425 
1 1:0.506645 2:-0.549026 
1 1:0.7591 2:-0.601005 
1 1:0.116262 2:-0.688539 
1 1:-0.233624 2:-0.796383 
1 1:0.425089 2:-0.623425 
1 1:0.506645 2:-0.549026 
1 1:0.7591 2:-0.601005 
1 1:0.116262 2:-0.688539 
1 1:-0.233624 2:-0.796383 
1 1:0.425089 2:-0.623425 
1 1:0.506645 2:-0.549026 
1 1:0.7591 2:-0.601005 
1 1:0.116262 2:-0.688539 
1 1:-0.233624 2:-0.796383 
1 1:0.425089 2:-0.623425 
1 1:0.506645 2:-0.549026 
1 1:0.7591 2:-0.601005 
1 1:0.116262 2:-0.688539 
1 1:-0.233624 2:-0.796383 
1 1:0.425089 2:-0.623425 
1 1:0.506645 2:-0.549026 
1 1:0.7591 2:-0.601005 
1 1:0.116262 2:-0.688539 
1 1:-0.233624 2:-0.796383 
1 1:0.425089 2:-0.623425 
1 1:0.506645 2:-0.549026 
1 1:0.7591 2:-0.601005 
1 1:0.116262 2:-0.688539 
1 1:-0.233624 2:-0.796383 
1 1:0.425089 2:-0.623425 
1 1:0.506645 2:-0.549026 
1 1:0.7591 2:-0.601005 
1 1:0.116262 2:-0.688539 
1 1:-0.233624 2:-0.796383 
1 1:0.425089 2:-0.623425 
1 1:0.506645 2:-0.549026 
1 1:0.7591 2:-0.601005 
1 1:0.116262 2:-0.688539 
1 1:-0.233624 2:-0.796383 
1 1:0.425089 2:-0.623425 
1 1:0.506645 2:-0.549026 
1 1:0.7591 2:-0.601005 
1 1:0.116262 2:-0.688539 
1 1:-0.233624 2:-0.796383 
1 1:0.425089 2:-0.623425 
1 1:0.506645 2:-0.549026 
1 1:0.7591 2:-0.601005 
1 1:0.116262 2:-0.688539 
1 1:-0.233624 2:-0.796383 
1 1:0.425089 2:-0.623425 
1 1:0.506645 2:-0.549026 
1 1:0.7591 2:-0.601005 
1 1:0.116262 2:-0.688539 
1 1:-0.233624 2:-0.796383 
1 1:0.425089 2:-0.623425 
1 1:0.506645 2:-0.549026 
1 1:0.7591 2:-0.601005 
1 1:0.116262 2:-0.688539 
1 1:-0.233624 2:-0.796383 
1 1:0.425089 2:-0.623425 
1 1:0.506645 2:-0.549026 
1 1:0.7591 2:-0.601005 
1 1:0.116262 2:-0.688539 
1 1:-0.233624 2:-0.796383 
1 1:0.425089 2:-0.623425 
1 1:0.506645 2:-0.549026 
1 1:0.7591 2:-0.601005 
1 1:0.116262 2:-0.688539 
1 1:-0.233624 2:-0.796383 
1 1:0.425089 2:-0.623425 
1 1:0.506645 2:-0.549026 
1 1:0.7591 2:-0.601005 
1 1:0.116262 2:-0.688539 
1 1:-0.233624 2:-0.796383 
1 1:0.425089 2:-0.623425 
1 1:0.506645 2:-0.549026 
1 1:0.7591 2:-0.601005 
1 1:0.116262 2:-0.688539 
1 1:-0.233624 2:-0.796383 
1 1:0.425089 2:-0.623425 
1 1:0.506645 2:-0.549026 
1 1:0.7591 2:-0.601005 
1 1:0.116262 2:-0.688539 
1 1:-0.233624 2:-0.796383 
1 1:0.425089 2:-0.623425 
1 1:0.506645 2:-0.549026 
1 1:0.7591 2:-0.601005 
1 1:0.116262 2:-0.688539 
1 1:-0.233624 2:-0.796383 
1 1:0.425089 2:-0.623425 
1 1:0.506645 2:-0.549026 
1 1:0.7591 2:-0.601005 
1 1:0.116262 2:-0.688539 
1 1:-0.233624 2:-0.796383 
1 1:0.425089 2:-0.623425 
1 1:0.506645 2:-0.549026 
1 1:0.7591 2:-0.601005 
1 1:0.116262 2:-0.688539 
1 1:-0.233624 2:-0.796383 
1 1:0.425089 2:-0.623425 
1 1:0.506645 2:-0.549026 
1 1:0.7591 2:-0.601005 
1 1:0.116262 2:-0.688539 
1 1:-0.233624 2:-0.796383 
1 1:0.425089 2:-0.623425 
1 1:0.506645 2:-0.549026 
1 1:0.7591 2:-0.601005 
1 1:0.116262 2:-0.688539 
1 1:-0.233624 2:-0.796383 
1 1:0.425089 2:-0.623425 
1 1:0.506645 2:-0.549026 
1 1:0.7591 2:-0.601005 
1 1:0.116262 2:-0.688539 
1 1:-0.233624 2:-0.796383 
1 1:0.425089 2:-0.623425 
1 1:0.506645 2:-0.549026 
1 1:0.7591 2:-0.601005 
1 1:0.116262 2:-0.688539 
1 1:-0.233624 2:-0.796383 
1 1:0.425089 2:-0.623425 
1 1:0.506645 2:-0.549026 
1 1:0.7591 2:-0.601005 
1 1:0.116262 2:-0.688539 
1 1:-0.233624 2:-0.796383 
1 1:0.425089 2:-0.623425 
1 1:0.506645 2:-0.549026 
1 1:0.7591 2:-0.601005 
1 1:0.116262 2:-0.688539 
1 1:-0.233624 2:-0.796383 
1 1:0.425089 2:-0.623425 
1 1:0.506645 2:-0.549026 
1 1:0.7591 2:-0.601005 
1 1:0.116262 2:-0.688539 
1 1:-0.233624 2:-0.796383 
1 1:0.425089 2:-0.623425 
1 1:0.506645 2:-0.549026 
1 1:0.7591 2:-0.601005 
1 1:0.116262 2:-0.688539 
1 1:-0.233624 2:-0.796383 
1 1:0.425089 2:-0.623425 
1 1:0.506645 2:-0.549026 
1 1:0.7591 2:-0.601005 
1 1:0.116262 2:-0.688539 
1 1:-0.233624 2:-0.796383 
1 1:0.425089 2:-0.623425 
1 1:0.506645 2:-0.549026 
1 1:0.7591 2:-0.601005 
1 1:0.116262 2:-0.688539 
1 1:-0.233624 2:-0.796383 
1 1:0.425089 2:-0.623425 
1 1:0.506645 2:-0.549026 
1 1:0.7591 2:-0.601005 
1 1:0.116262 2:-0.688539 
1 1:-0.233624 2:-0.796383 
1 1:0.425089 2:-0.623425 
1 1:0.506645 2:-0.549026 
1 1:0.7591 2:-0.601005 
1 1:0.116262 2:-0.688539 
1 1:-0.233624 2:-0.796383 
1 1:0.425089 2:-0.623425 
1 1:0.506645 2:-0.549026 
1 1:0.7591 2:-0.601005 
1 1:0.116262 2:-0.688539 
1 1:-0.233624 2:-0.796383 
1 1:0.425089 2:-0.623425 
1 1:0.506645 2:-0.549026 
1 1:0.7591 2:-0.601005 
1 1:0.116262 2:-0.688539 
1 1:-0.233624 2:-0.796383 
1 1:0.425089 2:-0.623425 
1 1:0.506645 2:-0.549026 
1 1:0.7591 2:-0.601005 
1 1:0.116262 2:-0.688539 
1 1:-0.233624 2:-0.796383 
1 1:0.425089 2:-0.623425 
1 1:0.506645 2:-0.549026 
1 1:0.7591 2:-0.601005 
1 1:0.116262 2:-0.688539 
1 1:-0.233624 2:-0.796383 
1 1:0.425089 2:-0.623425 
1 1:0.506645 2:-0.549026 
1 1:0.7591 2:-0.601005 
1 1:0.116262 2:-0.688539 
1 1:-0.233624 2:-0.796383 
1 1:0.425089 2:-0.623425 
1 1:0.506645 2:-0.549026 
1 1:0.7591 2:-0.601005 
1 1:0.116262 2:-0.688539 
1 1:-0.233624 2:-0.796383 
1 1:0.425089 2:-0.623425 
1 1:0.506645 2:-0.549026 
1 1:0.7591 2:-0.601005 
1 1:0.116262 2:-0.688539 
1 1:-0.233624 2:-0.796383 
1 1:0.425089 2:-0.623425 
1 1:0.506645 2:-0.549026 
1 1:0.7591 2:-0.601005 
1 1:0.116262 2:-0.688539 
1 1:-0.233624 2:-0.796383 
1 1:0.425089 2:-0.623425 
1 1:0.506645 2:-0.549026 
1 1:0.7591 2:-0.601005 
1 1:0.116262 2:-0.688539 
1 1:-0.233624 2:-0.796383 
1 1:0.425089 2:-0.623425 
1 1:0.506645 2:-0.549026 
1 1:0.7591 2:-0.601005 
1 1:0.116262 2:-0.688539 
1 1:-0.233624 2:-0.796383 
1 1:0.425089 2:-0.623425 
1 1:0.506645 2:-0.549026 
1 1:0.7591 2:-0.601005 
1 1:0.116262 2:-0.688539 
1 1:-0.233624 2:-0.796383 
1 1:0.425089 2:-0.623425 
1 1:0.506645 2:-0.549026 
1 1:0.7591 2:-0.601005 
1 1:0.116262 2:-0.688539 
1 1:-0.233624 2:-0.796383 
1 1:0.425089 2:-0.623425 
1 1:0.506645 2:-0.549026 
1 1:0.7591 2:-0.601005 
1 1:0.116262 2:-0.688539 
1 1:-0.233624 2:-0.796383 
1 1:0.425089 2:-0.623425 
1 1:0.506645 2:-0.549026 
1 1:-0.0834467 2:-0.00169882 
1 1:-0.215529 2:0.275053 
1 1:-0.00132291 2:0.0708374 
1 1:-0.0834467 2:-0.00169882 
1 1:-0.215529 2:0.275053 
1 1:-0.00132291 2:0.0708374 
1 1:-0.0834467 2:-0.00169882 
1 1:-0.215529 2:0.275053 
1 1:-0.00132291 2:0.0708374 
1 1:-0.0834467 2:-0.00169882 
1 1:-0.215529 2:0.275053 
1 1:-0.00132291 2:0.0708374 
1 1:-0.0834467 2:-0.00169882 
1 1:-0.215529 2:0.275053 
1 1:-0.00132291 2:0.0708374 
1 1:-0.0834467 2:-0.00169882 
1 1:-0.215529 2:0.275053 
1 1:-0.00132291 2:0.0708374 
1 1:-0.0834467 2:-0.00169882 
1 1:-0.215529 2:0.275053 
1 1:-0.00132291 2:0.0708374 
1 1:-0.0834467 2:-0.00169882 
1 1:-0.215529 2:0.275053 
1 1:-0.00132291 2:0.0708374 
1 1:-0.0834467 2:-0.00169882 
1 1:-0.215529 2:0.275053 
1 1:-0.00132291 2:0.0708374 
1 1:-0.0834467 2:-0.00169882 
1 1:-0.215529 2:0.275053 
1 1:-0.00132291 2:0.0708374 
1 1:-0.0834467 2:-0.00169882 
1 1:-0.215529 2:0.275053 
1 1:-0.00132291 2:0.0708374 
1 1:-0.0834467 2:-0.00169882 
1 1:-0.215529 2:0.275053 
1 1:-0.00132291 2:0.0708374 
1 1:-0.0834467 2:-0.00169882 
1 1:-0.215529 2:0.275053 
1 1:-0.00132291 2:0.0708374 
1 1:-0.0834467 2:-0.00169882 
1 1:-0.215529 2:0.275053 
1 1:-0.00132291 2:0.0708374 
1 1:-0.0834467 2:-0.00169882 
1 1:-0.215529 2:0.275053 
1 1:-0.00132291 2:0.0708374 
1 1:-0.0834467 2:-0.00169882 
1 1:-0.215529 2:0.275053 
1 1:-0.00132291 2:0.0708374 
1 1:-0.0834467 2:-0.00169882 
1 1:-0.215529 2:0.275053 
1 1:-0.00132291 2:0.0708374 
1 1:-0.0834467 2:-0.00169882 
1 1:-0.215529 2:0.275053 
1 1:-0.00132291 2:0.0708374 
1 1:-0.0834467 2:-0.00169882 
1 1:-0.215529 2:0.275053 
1 1:-0.00132291 2:0.0708374 
1 1:-0.0834467 2:-0.00169882 
1 1:-0.215529 2:0.275053 
1 1:-0.00132291 2:0.0708374 
1 1:-0.0834467 2:-0.00169882 
1 1:-0.215529 2:0.275053 
1 1:-0.00132291 2:0.0708374 
1 1:-0.0834467 2:-0.00169882 
1 1:-0.215529 2:0.275053 
1 1:-0.00132291 2:0.0708374 
1 1:-0.0834467 2:-0.00169882 
1 1:-0.215529 2:0.275053 
1 1:-0.00132291 2:0.0708374 
1 1:-0.0834467 2:-0.00169882 
1 1:-0.215529 2:0.275053 
1 1:-0.00132291 2:0.0708374 
1 1:-0.0834467 2:-0.00169882 
1 1:-0.215529 2:0.275053 
1 1:-0.00132291 2:0.0708374 
1 1:-0.0834467 2:-0.00169882 
1 1:-0.215529 2:0.275053 
1 1:-0.00132291 2:0.0708374 
1 1:-0.0834467 2:-0.00169882 
1 1:-0.215529 2:0.275053 
1 1:-0.00132291 2:0.0708374 
1 1:-0.0834467 2:-0.00169882 
1 1:-0.215529 2:0.275053 
1 1:-0.00132291 2:0.0708374 
1 1:-0.0834467 2:-0.00169882 
1 1:-0.215529 2:0.275053 
1 1:-0.00132291 2:0.0708374 
1 1:-0.0834467 2:-0.00169882 
1 1:-0.215529 2:0.275053 
1 1:-0.00132291 2:0.0708374 
1 1:-0.0834467 2:-0.00169882 
1 1:-0.215529 2:0.275053 
1 1:-0.00132291 2:0.0708374 
1 1:-0.0834467 2:-0.00169882 
1 1:-0.215529 2:0.275053 
1 1:-0.00132291 2:0.0708374 
1 1:-0.0834467 2:-0.00169882 
1 1:-0.215529 2:0.275053 
1 1:-0.00132291 2:0.0708374 
1 1:-0.0834467 2:-0.00169882 
1 1:-0.215529 2:0.275053 
1 1:-0.00132291 2:0.0708374 
1 1:-0.0834467 2:-0.00169882 
1 1:-0.215529 2:0.275053 
1 1:-0.00132291 2:0.0708374 
1 1:-0.0834467 2:-0.00169882 
1 1:-0.215529 2:0.275053 
1 1:-0.00132291 2:0.0708374 
1 1:-0.0834467 2:-0.00169882 
1 1:-0.215529 2:0.275053 
1 1:-0.00132291 2:0.0708374 
1 1:-0.0834467 2:-0.00169882 
1 1:-0.215529 2:0.275053 
1 1:-0.00132291 2:0.0708374 
1 1:-0.0834467 2:-0.00169882 
1 1:-0.215529 2:0.275053 
1 1:-0.00132291 2:0.0708374 
1 1:-0.0834467 2:-0.00169882 
1 1:-0.215529 2:0.275053 
1 1:-0.00132291 2:0.0708374 
1 1:-0.0834467 2:-0.00169882 
1 1:-0.215529 2:0.275053 
1 1:-0.00132291 2:0.0708374 
1 1:-0.0834467 2:-0.00169882 
1 1:-0.215529 2:0.275053 
1 1:-0.00132291 2:0.0708374 
1 1:-0.0834467 2:-0.00169882 
1 1:-0.215529 2:0.275053 
1 1:-0.00132291 2:0.0708374 
1 1:-0.0834467 2:-0.00169882 
1 1:-0.215529 2:0.275053 
1 1:-0.00132291 2:0.0708374 
1 1:-0.0834467 2:-0.00169882 
1 1:-0.215529 2:0.275053 
1 1:-0.00132291 2:0.0708374 
1 1:-0.0834467 2:-0.00169882 
1 1:-0.215529 2:0.275053 
1 1:-0.00132291 2:0.0708374 
1 1:-0.0834467 2:-0.00169882 
1 1:-0.215529 2:0.275053 
1 1:-0.00132291 2:0.0708374 
1 1:-0.0834467 2:-0.00169882 
1 1:-0.215529 2:0.275053 
1 1:-0.00132291 2:0.0708374 
1 1:-0.0834467 2:-0.00169882 
1 1:-0.215529 2:0.275053 
1 1:-0.00132291 2:0.0708374 
1 1:-0.0834467 2:-0.00169882 
1 1:-0.215529 2:0.275053 
1 1:-0.00132291 2:0.0708374 
1 1:-0.0834467 2:-0.00169882 
1 1:-0.215529 2:0.275053 
1 1:-0.00132291 2:0.0708374 
1 1:-0.0834467 2:-0.00169882 
1 1:-0.215529 2:0.275053 
1 1:-0.00132291 2:0.0708374 
1 1:-0.0834467 2:-0.00169882 
1 1:-0.215529 2:0.275053 
1 1:-0.00132291 2:0.0708374 
1 1:-0.0834467 2:-0.00169882 
1 1:-0.215529 2:0.275053 
1 1:-0.00132291 2:0.0708374 
1 1:-0.0834467 2:-0.00169882 
1 1:-0.215529 2:0.275053 
1 1:-0.00132291 2:0.0708374 
1 1:-0.0834467 2:-0.00169882 
1 1:-0.215529 2:0.275053 
1 1:-0.00132291 2:0.0708374 
1 1:-0.0834467 2:-0.00169882 
1 1:-0.215529 2:0.275053 
1 1:-0.00132291 2:0.0708374 
1 1:-0.0834467 2:-0.00169882 
1 1:-0.215529 2:0.275053 
1 1:-0.00132291 2:0.0708374 
1 1:-0.0834467 2:-0.00169882 
1 1:-0.215529 2:0.275053 
1 1:-0.00132291 2:0.0708374 
1 1:-0.0834467 2:-0.00169882 
1 1:-0.215529 2:0.275053 
1 1:-0.00132291 2:0.0708374 
1 1:-0.0834467 2:-0.00169882 
1 1:-0.215529 2:0.275053 
1 1:-0.00132291 2:0.0708374 
1 1:-0.0834467 2:-0.00169882 
1 1:-0.215529 2:0.275053 
1 1:-0.00132291 2:0.0708374 
1 1:-0.0834467 2:-0.00169882 
1 1:-0.215529 2:0.275053 
1 1:-0.00132291 2:0.0708374 
1 1:-0.0834467 2:-0.00169882 
1 1:-0.215529 2:0.275053 
1 1:-0.00132291 2:0.0708374 
1 1:-0.0834467 2:-0.00169882 
1 1:-0.215529 2:0.275053 
1 1:-0.00132291 2:0.0708374 
1 1:-0.0834467 2:-0.00169882 
1 1:-0.215529 2:0.275053 
1 1:-0.00132291 2:0.0708374 
1 1:-0.0834467 2:-0.00169882 
1 1:-0.215529 2:0.275053 
1 1:-0.00132291 2:0.0708374 
1 1:-0.0834467 2:-0.00169882 
1 1:-0.215529 2:0.275053 
1 1:-0.00132291 2:0.0708374 
1 1:-0.0834467 2:-0.00169882 
1 1:-0.215529 2:0.275053 
1 1:-0.00132291 2:0.0708374 
1 1:-0.0834467 2:-0.00169882 
1 1:-0.215529 2:0.275053 
1 1:-0.00132291 2:0.0708374 
1 1:-0.0834467 2:-0.00169882 
1 1:-0.215529 2:0.275053 
1 1:-0.00132291 2:0.0708374 
1 1:-0.0834467 2:-0.00169882 
1 1:-0.215529 2:0.275053 
1 1:-0.00132291 2:0.0708374 
1 1:-0.0834467 2:-0.00169882 
1 1:-0.215529 2:0.275053 
1 1:-0.00132291 2:0.0708374 
1 1:-0.0834467 2:-0.00169882 
1 1:-0.215529 2:0.275053 
1 1:-0.00132291 2:0.0708374 
1 1:-0.0834467 2:-0.00169882 
1 1:-0.215529 2:0.275053 
1 1:-0.00132291 2:0.0708374 
1 1:-0.0834467 2:-0.00169882 
1 1:-0.215529 2:0.275053 
1 1:-0.00132291 2:0.0708374 
1 1:-0.0834467 2:-0.00169882 
1 1:-0.215529 2:0.275053 
1 1:-0.00132291 2:0.0708374 
1 1:-0.0834467 2:-0.00169882 
1 1:-0.215529 2:0.275053 
1 1:-0.00132291 2:0.0708374 
1 1:-0.0834467 2:-0.00169882 
1 1:-0.215529 2:0.275053 
1 1:-0.00132291 2:0.0708374 
1 1:-0.0834467 2:-0.00169882 
1 1:-0.215529 2:0.275053 
1 1:-0.00132291 2:0.0708374 
1 1:-0.0834467 2:-0.00169882 
1 1:-0.215529 2:0.275053 
1 1:-0.00132291 2:0.0708374 
1 1:-0.0834467 2:-0.00169882 
1 1:-0.215529 2:0.275053 
1 1:-0.00132291 2:0.0708374 
1 1:-0.0834467 2:-0.00169882 
1 1:-0.215529 2:0.275053 
1 1:-0.00132291 2:0.0708374 
1 1:-0.0834467 2:-0.00169882 
1 1:-0.215529 2:0.275053 
1 1:-0.00132291 2:0.0708374 
1 1:-0.0834467 2:-0.00169882 
1 1:-0.215529 2:0.275053 
1 1:-0.00132291 2:0.0708374 
1 1:-0.0834467 2:-0.00169882 
1 1:-0.215529 2:0.275053 
1 1:-0.00132291 2:0.0708374 
1 1:-0.0834467 2:-0.00169882 
1 1:-0.215529 2:0.275053 
1 1:-0.00132291 2:0.0708374 
1 1:-0.0834467 2:-0.00169882 
1 1:-0.215529 2:0.275053 
1 1:-0.00132291 2:0.0708374 
1 1:-0.0834467 2:-0.00169882 
1 1:-0.215529 2:0.275053 
1 1:-0.00132291 2:0.0708374 
1 1:-0.0834467 2:-0.00169882 
1 1:-0.215529 2:0.275053 
1 1:-0.00132291 2:0.0708374 
1 1:-0.0834467 2:-0.00169882 
1 1:-0.215529 2:0.275053 
1 1:-0.00132291 2:0.0708374 
1 1:-0.0834467 2:-0.00169882 
1 1:-0.215529 2:0.275053 
1 1:-0.00132291 2:0.0708374 
1 1:-0.0834467 2:-0.00169882 
1 1:-0.215529 2:0.275053 
1 1:-0.00132291 2:0.0708374 
1 1:-0.0834467 2:-0.00169882 
1 1:-0.215529 2:0.275053 
1 1:-0.00132291 2:0.0708374 
1 1:-0.0834467 2:-0.00169882 
1 1:-0.215529 2:0.275053 
1 1:-0.00132291 2:0.0708374 
1 1:-0.0834467 2:-0.00169882 
1 1:-0.456972 2:0.298166 
1 1:0.0851775 2:-0.185478 
1 1:-0.456972 2:0.298166 
1 1:0.0851775 2:-0.185478 
1 1:-0.456972 2:0.298166 
1 1:0.0851775 2:-0.185478 
1 1:-0.456972 2:0.298166 
1 1:0.0851775 2:-0.185478 
1 1:-0.456972 2:0.298166 
1 1:0.0851775 2:-0.185478 
1 1:-0.456972 2:0.298166 
1 1:0.0851775 2:-0.185478 
1 1:-0.456972 2:0.298166 
1 1:0.0851775 2:-0.185478 
1 1:-0.456972 2:0.298166 
1 1:0.0851775 2:-0.185478 
1 1:-0.456972 2:0.298166 
1 1:0.0851775 2:-0.185478 
1 1:-0.456972 2:0.298166 
1 1:0.0851775 2:-0.185478 
1 1:-0.456972 2:0.298166 
1 1:0.0851775 2:-0.185478 
1 1:-0.456972 2:0.298166 
1 1:0.0851775 2:-0.185478 
1 1:-0.456972 2:0.298166 
1 1:0.0851775 2:-0.185478 
1 1:-0.456972 2:0.298166 
1 1:0.0851775 2:-0.185478 
1 1:-0.456972 2:0.298166 
1 1:0.0851775 2:-0.185478 
1 1:-0.456972 2:0.298166 
1 1:0.0851775 2:-0.185478 
1 1:-0.456972 2:0.298166 
1 1:0.0851775 2:-0.185478 
1 1:-0.456972 2:0.298166 
1 1:0.0851775 2:-0.185478 
1 1:-0.456972 2:0.298166 
1 1:0.0851775 2:-0.185478 
1 1:-0.456972 2:0.298166 
1 1:0.0851775 2:-0.185478 
1 1:-0.456972 2:0.298166 
1 1:0.0851775 2:-0.185478 
1 1:-0.456972 2:0.298166 
1 1:0.0851775 2:-0.185478 
1 1:-0.456972 2:0.298166 
1 1:0.0851775 2:-0.185478 
1 1:-0.456972 2:0.298166 
1 1:0.0851775 2:-0.185478 
1 1:-0.456972 2:0.298166 
1 1:0.0851775 2:-0.185478 
1 1:-0.456972 2:0.298166 
1 1:0.0851775 2:-0.185478 
1 1:-0.456972 2:0.298166 
1 1:0.0851775 2:-0.185478 
1 1:-0.456972 2:0.298166 
1 1:0.0851775 2:-0.185478 
1 1:-0.456972 2:0.298166 
1 1:0.0851775 2:-0.185478 
1 1:-0.456972 2:0.298166 
1 1:0.0851775 2:-0.185478 
1 1:-0.456972 2:0.298166 
1 1:0.0851775 2:-0.185478 
1 1:-0.456972 2:0.298166 
1 1:0.0851775 2:-0.185478 
1 1:-0.456972 2:0.298166 
1 1:0.0851775 2:-0.185478 
1 1:-0.456972 2:0.298166 
1 1:0.0851775 2:-0.185478 
1 1:-0.456972 2:0.298166 
1 1:0.0851775 2:-0.185478 
1 1:-0.456972 2:0.298166 
1 1:0.0851775 2:-0.185478 
1 1:-0.456972 2:0.298166 
1 1:0.0851775 2:-0.185478 
1 1:-0.456972 2:0.298166 
1 1:0.0851775 2:-0.185478 
1 1:-0.456972 2:0.298166 
1 1:0.0851775 2:-0.185478 
1 1:-0.456972 2:0.298166 
1 1:0.0851775 2:-0.185478 
1 1:-0.456972 2:0.298166 
1 1:0.0851775 2:-0.185478 
1 1:-0.456972 2:0.298166 
1 1:0.0851775 2:-0.185478 
1 1:-0.456972 2:0.298166 
1 1:0.0851775 2:-0.185478 
1 1:-0.456972 2:0.298166 
1 1:0.0851775 2:-0.185478 
1 1:-0.456972 2:0.298166 
1 1:0.0851775 2:-0.185478 
1 1:-0.456972 2:0.298166 
1 1:0.0851775 2:-0.185478 
1 1:-0.456972 2:0.298166 
1 1:0.0851775 2:-0.185478 
1 1:-0.456972 2:0.298166 
1 1:0.0851775 2:-0.185478 
1 1:-0.456972 2:0.298166 
1 1:0.0851775 2:-0.185478 
1 1:-0.456972 2:0.298166 
1 1:0.0851775 2:-0.185478 
1 1:-0.456972 2:0.298166 
1 1:0.0851775 2:-0.185478 
1 1:-0.456972 2:0.298166 
1 1:0.0851775 2:-0.185478 
1 1:-0.456972 2:0.298166 
1 1:0.0851775 2:-0.185478 
1 1:-0.456972 2:0.298166 
1 1:0.0851775 2:-0.185478 
1 1:-0.456972 2:0.298166 
1 1:0.0851775 2:-0.185478 
1 1:-0.456972 2:0.298166 
1 1:0.0851775 2:-0.185478 
1 1:-0.456972 2:0.298166 
1 1:0.0851775 2:-0.185478 
1 1:-0.456972 2:0.298166 
1 1:0.0851775 2:-0.185478 
1 1:-0.456972 2:0.298166 
1 1:0.0851775 2:-0.185478 
1 1:-0.456972 2:0.298166 
1 1:0.0851775 2:-0.185478 
1 1:-0.456972 2:0.298166 
1 1:0.0851775 2:-0.185478 
1 1:-0.456972 2:0.298166 
1 1:0.0851775 2:-0.185478 
1 1:-0.456972 2:0.298166 
1 1:0.0851775 2:-0.185478 
1 1:-0.456972 2:0.298166 
1 1:0.0851775 2:-0.185478 
1 1:-0.456972 2:0.298166 
1 1:0.0851775 2:-0.185478 
1 1:-0.456972 2:0.298166 
1 1:0.0851775 2:-0.185478 
1 1:-0.456972 2:0.298166 
1 1:0.0851775 2:-0.185478 
1 1:-0.456972 2:0.298166 
1 1:0.0851775 2:-0.185478 
1 1:-0.456972 2:0.298166 
1 1:0.0851775 2:-0.185478 
1 1:-0.456972 2:0.298166 
1 1:0.0851775 2:-0.185478 
1 1:-0.456972 2:0.298166 
1 1:0.0851775 2:-0.185478 
1 1:-0.456972 2:0.298166 
1 1:0.0851775 2:-0.185478 
1 1:-0.456972 2:0.298166 
1 1:0.0851775 2:-0.185478 
1 1:-0.456972 2:0.298166 
1 1:0.0851775 2:-0.185478 
1 1:-0.456972 2:0.298166 
1 1:0.0851775 2:-0.185478 
1 1:-0.456972 2:0.298166 
1 1:0.0851775 2:-0.185478 
1 1:-0.456972 2:0.298166 
1 1:0.0851775 2:-0.185478 
1 1:-0.456972 2:0.298166 
1 1:0.0851775 2:-0.185478 
1 1:-0.456972 2:0.298166 
1 1:0.0851775 2:-0.185478 
1 1:-0.456972 2:0.298166 
1 1:0.0851775 2:-0.185478 
1 1:-0.456972 2:0.298166 
1 1:0.0851775 2:-0.185478 
1 1:-0.456972 2:0.298166 
1 1:0.0851775 2:-0.185478 
1 1:-0.456972 2:0.298166 
1 1:0.0851775 2:-0.185478 
1 1:-0.456972 2:0.298166 
1 1:0.0851775 2:-0.185478 
1 1:-0.456972 2:0.298166 
1 1:0.0851775 2:-0.185478 
1 1:-0.456972 2:0.298166 
1 1:0.0851775 2:-0.185478 
1 1:-0.456972 2:0.298166 
1 1:0.0851775 2:-0.185478 
1 1:-0.456972 2:0.298166 
1 1:0.0851775 2:-0.185478 
1 1:-0.456972 2:0.298166 
1 1:0.0851775 2:-0.185478 
1 1:-0.456972 2:0.298166 
1 1:0.0851775 2:-0.185478 
1 1:-0.456972 2:0.298166 
1 1:0.0851775 2:-0.185478 
1 1:-0.456972 2:0.298166 
1 1:0.0851775 2:-0.185478 
1 1:-0.456972 2:0.298166 
1 1:0.0851775 2:-0.185478 
1 1:-0.456972 2:0.298166 
1 1:0.0851775 2:-0.185478 
1 1:-0.456972 2:0.298166 
1 1:0.0851775 2:-0.185478 
1 1:-0.456972 2:0.298166 
1 1:0.0851775 2:-0.185478 
1 1:-0.456972 2:0.298166 
1 1:0.0851775 2:-0.185478 
1 1:-0.456972 2:0.298166 
1 1:0.384797 2:-0.301778 
1 1:-0.132213 2:-0.011005 
1 1:0.384797 2:-0.301778 
1 1:-0.132213 2:-0.011005 
1 1:0.384797 2:-0.301778 
1 1:-0.132213 2:-0.011005 
1 1:0.384797 2:-0.301778 
1 1:-0.132213 2:-0.011005 
1 1:0.384797 2:-0.301778 
1 1:-0.132213 2:-0.011005 
1 1:0.384797 2:-0.301778 
1 1:-0.132213 2:-0.011005 
1 1:0.384797 2:-0.301778 
1 1:-0.132213 2:-0.011005 
1 1:0.384797 2:-0.301778 
1 1:-0.132213 2:-0.011005 
1 1:0.384797 2:-0.301778 
1 1:-0.132213 2:-0.011005 
1 1:0.384797 2:-0.301778 
1 1:-0.132213 2:-0.011005 
1 1:0.384797 2:-0.301778 
1 1:-0.132213 2:-0.011005 
1 1:0.384797 2:-0.301778 
1 1:-0.132213 2:-0.011005 
1 1:0.384797 2:-0.301778 
1 1:-0.132213 2:-0.011005 
1 1:0.384797 2:-0.301778 
1 1:-0.132213 2:-0.011005 
1 1:0.384797 2:-0.301778 
1 1:-0.132213 2:-0.011005 
1 1:0.384797 2:-0.301778 
1 1:-0.132213 2:-0.011005 
1 1:0.384797 2:-0.301778 
1 1:-0.132213 2:-0.011005 
1 1:0.384797 2:-0.301778 
1 1:-0.132213 2:-0.011005 
1 1:0.384797 2:-0.301778 
1 1:-0.132213 2:-0.011005 
1 1:0.384797 2:-0.301778 
1 1:-0.132213 2:-0.011005 
1 1:0.384797 2:-0.301778 
1 1:-0.132213 2:-0.011005 
1 1:0.384797 2:-0.301778 
1 1:-0.132213 2:-0.011005 
1 1:0.384797 2:-0.301778 
1 1:-0.132213 2:-0.011005 
1 1:0.384797 2:-0.301778 
1 1:-0.132213 2:-0.011005 
1 1:0.384797 2:-0.301778 
1 1:-0.132213 2:-0.011005 
1 1:0.384797 2:-0.301778 
1 1:-0.132213 2:-0.011005 
1 1:0.384797 2:-0.301778 
1 1:-0.132213 2:-0.011005 
1 1:0.384797 2:-0.301778 
1 1:-0.132213 2:-0.011005 
1 1:0.384797 2:-0.301778 
1 1:-0.132213 2:-0.011005 
1 1:0.384797 2:-0.301778 
1 1:-0.132213 2:-0.011005 
1 1:0.384797 2:-0.301778 
1 1:-0.132213 2:-0.011005 
1 1:0.384797 2:-0.301778 
1 1:-0.132213 2:-0.011005 
1 1:0.384797 2:-0.301778 
1 1:-0.132213 2:-0.011005 
1 1:0.384797 2:-0.301778 
1 1:-0.132213 2:-0.011005 
1 1:0.384797 2:-0.301778 
1 1:-0.132213 2:-0.011005 
1 1:0.384797 2:-0.301778 
1 1:-0.132213 2:-0.011005 
1 1:0.384797 2:-0.301778 
1 1:-0.132213 2:-0.011005 
1 1:0.384797 2:-0.301778 
1 1:-0.132213 2:-0.011005 
1 1:0.384797 2:-0.301778 
1 1:-0.132213 2:-0.011005 
1 1:0.384797 2:-0.301778 
1 1:-0.132213 2:-0.011005 
1 1:0.384797 2:-0.301778 
1 1:-0.132213 2:-0.011005 
1 1:0.384797 2:-0.301778 
1 1:-0.132213 2:-0.011005 
1 1:0.384797 2:-0.301778 
1 1:-0.132213 2:-0.011005 
1 1:0.384797 2:-0.301778 
1 1:-0.132213 2:-0.011005 
1 1:0.384797 2:-0.301778 
1 1:-0.132213 2:-0.011005 
1 1:0.384797 2:-0.301778 
1 1:-0.132213 2:-0.011005 
1 1:0.384797 2:-0.301778 
1 1:-0.132213 2:-0.011005 
1 1:0.384797 2:-0.301778 
1 1:-0.132213 2:-0.011005 
1 1:0.384797 2:-0.301778 
1 1:-0.132213 2:-0.011005 
1 1:0.384797 2:-0.301778 
1 1:-0.132213 2:-0.011005 
1 1:0.384797 2:-0.301778 
1 1:-0.132213 2:-0.011005 
1 1:0.384797 2:-0.301778 
1 1:-0.132213 2:-0.011005 
1 1:0.384797 2:-0.301778 
1 1:-0.132213 2:-0.011005 
1 1:0.384797 2:-0.301778 
1 1:-0.132213 2:-0.011005 
1 1:0.384797 2:-0.301778 
1 1:-0.132213 2:-0.011005 
1 1:0.384797 2:-0.301778 
1 1:-0.132213 2:-0.011005 
1 1:0.384797 2:-0.301778 
1 1:-0.132213 2:-0.011005 
1 1:0.384797 2:-0.301778 
1 1:-0.132213 2:-0.011005 
1 1:0.384797 2:-0.301778 
1 1:-0.132213 2:-0.011005 
1 1:0.384797 2:-0.301778 
1 1:-0.132213 2:-0.011005 
1 1:0.384797 2:-0.301778 
1 1:-0.132213 2:-0.011005 
1 1:0.384797 2:-0.301778 
1 1:-0.132213 2:-0.011005 
1 1:0.384797 2:-0.301778 
1 1:-0.132213 2:-0.011005 
1 1:0.384797 2:-0.301778 
1 1:-0.132213 2:-0.011005 
1 1:0.384797 2:-0.301778 
1 1:-0.132213 2:-0.011005 
1 1:0.384797 2:-0.301778 
1 1:-0.132213 2:-0.011005 
1 1:0.384797 2:-0.301778 
1 1:-0.132213 2:-0.011005 
1 1:0.384797 2:-0.301778 
1 1:-0.132213 2:-0.011005 
1 1:0.384797 2:-0.301778 
1 1:-0.132213 2:-0.011005 
1 1:0.384797 2:-0.301778 
1 1:-0.132213 2:-0.011005 
1 1:0.384797 2:-0.301778 
1 1:-0.132213 2:-0.011005 
1 1:0.384797 2:-0.301778 
1 1:-0.132213 2:-0.011005 
1 1:0.384797 2:-0.301778 
1 1:-0.132213 2:-0.011005 
1 1:0.384797 2:-0.301778 
1 1:-0.132213 2:-0.011005 
1 1:0.384797 2:-0.301778 
1 1:-0.132213 2:-0.011005 
1 1:0.384797 2:-0.301778 
1 1:-0.132213 2:-0.011005 
1 1:0.384797 2:-0.301778 
1 1:-0.132213 2:-0.011005 
1 1:0.384797 2:-0.301778 
1 1:-0.132213 2:-0.011005 
1 1:0.384797 2:-0.301778 
1 1:-0.132213 2:-0.011005 
1 1:0.384797 2:-0.301778 
1 1:-0.132213 2:-0.011005 
1 1:0.384797 2:-0.301778 
1 1:-0.132213 2:-0.011005 
1 1:0.384797 2:-0.301778 
1 1:-0.132213 2:-0.011005 
1 1:0.384797 2:-0.301778 
1 1:-0.132213 2:-0.011005 
1 1:0.384797 2:-0.301778 
1 1:-0.132213 2:-0.011005 
1 1:0.384797 2:-0.301778 
1 1:-0.132213 2:-0.011005 
1 1:0.384797 2:-0.301778 
1 1:-0.132213 2:-0.011005 
1 1:0.384797 2:-0.301778 
1 1:-0.132213 2:-0.011005 
1 1:0.384797 2:-0.301778 
1 1:-0.132213 2:-0.011005 
1 1:0.384797 2:-0.301778 
1 1:-0.132213 2:-0.011005 
1 1:0.384797 2:-0.301778 
1 1:-0.132213 2:-0.011005 
1 1:0.384797 2:-0.301778 
1 1:-0.132213 2:-0.011005 
1 1:0.384797 2:-0.301778 
1 1:-0.132213 2:-0.011005 
1 1:0.384797 2:-0.301778 
1 1:-0.132213 2:-0.011005 
1 1:0.384797 2:-0.301778 
1 1:-0.132213 2:-0.011005 
1 1:0.384797 2:-0.301778 
1 1:-0.132213 2:-0.011005 
1 1:0.384797 2:-0.301778 
1 1:-0.132213 2:-0.011005 
1 1:0.384797 2:-0.301778 
1 1:-0.132213 2:-0.011005 
1 1:0.384797 2:-0.301778 
1 1:-0.132213 2:-0.011005 
1 1:0.434533 2:-0.00871467 
1 1:0.0584949 2:-0.0923456 
1 1:-0.131541 2:0.125408 
1 1:0.434533 2:-0.00871467 
1 1:0.0584949 2:-0.0923456 
1 1:-0.131541 2:0.125408 
1 1:0.434533 2:-0.00871467 
1 1:0.0584949 2:-0.0923456 
1 1:-0.131541 2:0.125408 
1 1:0.434533 2:-0.00871467 
1 1:0.0584949 2:-0.0923456 
1 1:-0.131541 2:0.125408 
1 1:0.434533 2:-0.00871467 
1 1:0.0584949 2:-0.0923456 
1 1:-0.131541 2:0.125408 
1 1:0.434533 2:-0.00871467 
1 1:0.0584949 2:-0.0923456 
1 1:-0.131541 2:0.125408 
1 1:0.434533 2:-0.00871467 
1 1:0.0584949 2:-0.0923456 
1 1:-0.131541 2:0.125408 
1 1:0.434533 2:-0.00871467 
1 1:0.0584949 2:-0.0923456 
1 1:-0.131541 2:0.125408 
1 1:0.434533 2:-0.00871467 
1 1:0.0584949 2:-0.0923456 
1 1:-0.131541 2:0.125408 
1 1:0.434533 2:-0.00871467 
1 1:0.0584949 2:-0.0923456 
1 1:-0.131541 2:0.125408 
1 1:0.434533 2:-0.00871467 
1 1:0.0584949 2:-0.0923456 
1 1:-0.131541 2:0.125408 
1 1:0.434533 2:-0.00871467 
1 1:0.0584949 2:-0.0923456 
1 1:-0.131541 2:0.125408 
1 1:0.434533 2:-0.00871467 
1 1:0.0584949 2:-0.0923456 
1 1:-0.131541 2:0.125408 
1 1:0.434533 2:-0.00871467 
1 1:0.0584949 2:-0.0923456 
1 1:-0.131541 2:0.125408 
1 1:0.434533 2:-0.00871467 
1 1:0.0584949 2:-0.0923456 
1 1:-0.131541 2:0.125408 
1 1:0.434533 2:-0.00871467 
1 1:0.0584949 2:-0.0923456 
1 1:-0.131541 2:0.125408 
1 1:0.434533 2:-0.00871467 
1 1:0.0584949 2:-0.0923456 
1 1:-0.131541 2:0.125408 
1 1:0.434533 2:-0.00871467 
1 1:0.0584949 2:-0.0923456 
1 1:-0.131541 2:0.125408 
1 1:0.434533 2:-0.00871467 
1 1:0.0584949 2:-0.0923456 
1 1:-0.131541 2:0.125408 
1 1:0.434533 2:-0.00871467 
1 1:0.0584949 2:-0.0923456 
1 1:-0.131541 2:0.125408 
1 1:0.434533 2:-0.00871467 
1 1:0.0584949 2:-0.0923456 
1 1:-0.131541 2:0.125408 
1 1:0.434533 2:-0.00871467 
1 1:0.0584949 2:-0.0923456 
1 1:-0.131541 2:0.125408 
1 1:0.434533 2:-0.00871467 
1 1:0.0584949 2:-0.0923456 
1 1:-0.131541 2:0.125408 
1 1:0.434533 2:-0.00871467 
1 1:0.0584949 2:-0.0923456 
1 1:-0.131541 2:0.125408 
1 1:0.434533 2:-0.00871467 
1 1:0.0584949 2:-0.0923456 
1 1:-0.131541 2:0.125408 
1 1:0.434533 2:-0.00871467 
1 1:0.0584949 2:-0.0923456 
1 1:-0.131541 2:0.125408 
1 1:0.434533 2:-0.00871467 
1 1:0.0584949 2:-0.0923456 
1 1:-0.131541 2:0.125408 
1 1:0.434533 2:-0.00871467 
1 1:0.0584949 2:-0.0923456 
1 1:-0.131541 2:0.125408 
1 1:0.434533 2:-0.00871467 
1 1:0.0584949 2:-0.0923456 
1 1:-0.131541 2:0.125408 
1 1:0.434533 2:-0.00871467 
1 1:0.0584949 2:-0.0923456 
1 1:-0.131541 2:0.125408 
1 1:0.434533 2:-0.00871467 
1 1:0.0584949 2:-0.0923456 
1 1:-0.131541 2:0.125408 
1 1:0.434533 2:-0.00871467 
1 1:0.0584949 2:-0.0923456 
1 1:-0.131541 2:0.125408 
1 1:0.434533 2:-0.00871467 
1 1:0.0584949 2:-0.0923456 
1 1:-0.131541 2:0.125408 
1 1:0.434533 2:-0.00871467 
1 1:0.0584949 2:-0.0923456 
1 1:-0.131541 2:0.125408 
1 1:0.434533 2:-0.00871467 
1 1:0.0584949 2:-0.0923456 
1 1:-0.131541 2:0.125408 
1 1:0.434533 2:-0.00871467 
1 1:0.0584949 2:-0.0923456 
1 1:-0.131541 2:0.125408 
1 1:0.434533 2:-0.00871467 
1 1:0.0584949 2:-0.0923456 
1 1:-0.131541 2:0.125408 
1 1:0.434533 2:-0.00871467 
1 1:0.0584949 2:-0.0923456 
1 1:-0.131541 2:0.125408 
1 1:0.434533 2:-0.00871467 
1 1:0.0584949 2:-0.0923456 
1 1:-0.131541 2:0.125408 
1 1:0.434533 2:-0.00871467 
1 1:0.0584949 2:-0.0923456 
1 1:-0.131541 2:0.125408 
1 1:0.434533 2:-0.00871467 
1 1:0.0584949 2:-0.0923456 
1 1:-0.131541 2:0.125408 
1 1:0.434533 2:-0.00871467 
1 1:0.0584949 2:-0.0923456 
1 1:-0.131541 2:0.125408 
1 1:0.434533 2:-0.00871467 
1 1:0.0584949 2:-0.0923456 
1 1:-0.131541 2:0.125408 
1 1:0.434533 2:-0.00871467 
1 1:0.0584949 2:-0.0923456 
1 1:-0.131541 2:0.125408 
1 1:0.434533 2:-0.00871467 
1 1:0.0584949 2:-0.0923456 
1 1:-0.131541 2:0.125408 
1 1:0.434533 2:-0.00871467 
1 1:0.0584949 2:-0.0923456 
1 1:-0.131541 2:0.125408 
1 1:0.434533 2:-0.00871467 
1 1:0.0584949 2:-0.0923456 
1 1:-0.131541 2:0.125408 
1 1:0.434533 2:-0.00871467 
1 1:0.0584949 2:-0.0923456 
1 1:-0.131541 2:0.125408 
1 1:0.434533 2:-0.00871467 
1 1:0.0584949 2:-0.0923456 
1 1:-0.131541 2:0.125408 
1 1:0.434533 2:-0.00871467 
1 1:0.0584949 2:-0.0923456 
1 1:-0.131541 2:0.125408 
1 1:0.434533 2:-0.00871467 
1 1:0.0584949 2:-0.0923456 
1 1:-0.131541 2:0.125408 
1 1:0.434533 2:-0.00871467 
1 1:0.0584949 2:-0.0923456 
1 1:-0.131541 2:0.125408 
1 1:0.434533 2:-0.00871467 
1 1:0.0584949 2:-0.0923456 
1 1:-0.131541 2:0.125408 
1 1:0.434533 2:-0.00871467 
1 1:0.0584949 2:-0.0923456 
1 1:-0.131541 2:0.125408 
1 1:0.434533 2:-0.00871467 
1 1:0.0584949 2:-0.0923456 
1 1:-0.131541 2:0.125408 
1 1:0.434533 2:-0.00871467 
1 1:0.0584949 2:-0.0923456 
1 1:-0.131541 2:0.125408 
1 1:0.434533 2:-0.00871467 
1 1:0.0584949 2:-0.0923456 
1 1:-0.131541 2:0.125408 
1 1:0.434533 2:-0.00871467 
1 1:0.0584949 2:-0.0923456 
1 1:-0.131541 2:0.125408 
1 1:0.434533 2:-0.00871467 
1 1:0.0584949 2:-0.0923456 
1 1:-0.131541 2:0.125408 
1 1:0.434533 2:-0.00871467 
1 1:0.0584949 2:-0.0923456 
1 1:-0.131541 2:0.125408 
1 1:0.434533 2:-0.00871467 
1 1:0.0584949 2:-0.0923456 
1 1:-0.131541 2:0.125408 
1 1:0.434533 2:-0.00871467 
1 1:0.0584949 2:-0.0923456 
1 1:-0.131541 2:0.125408 
1 1:0.434533 2:-0.00871467 
1 1:0.0584949 2:-0.0923456 
1 1:-0.131541 2:0.125408 
1 1:0.434533 2:-0.00871467 
1 1:0.0584949 2:-0.0923456 
1 1:-0.131541 2:0.125408 
1 1:0.434533 2:-0.00871467 
1 1:0.0584949 2:-0.0923456 
1 1:-0.131541 2:0.125408 
1 1:0.434533 2:-0.00871467 
1 1:0.0584949 2:-0.0923456 
1 1:-0.131541 2:0.125408 
1 1:0.434533 2:-0.00871467 
1 1:0.0584949 2:-0.0923456 
1 1:-0.131541 2:0.125408 
1 1:0.434533 2:-0.00871467 
1 1:0.0584949 2:-0.0923456 
1 1:-0.131541 2:0.125408 
1 1:0.434533 2:-0.00871467 
1 1:0.0584949 2:-0.0923456 
1 1:-0.131541 2:0.125408 
1 1:0.434533 2:-0.00871467 
1 1:0.0584949 2:-0.0923456 
1 1:-0.131541 2:0.125408 
1 1:0.434533 2:-0.00871467 
1 1:0.0584949 2:-0.0923456 
1 1:-0.131541 2:0.125408 
1 1:0.434533 2:-0.00871467 
1 1:0.0584949 2:-0.0923456 
1 1:-0.131541 2:0.125408 
1 1:0.434533 2:-0.00871467 
1 1:0.0584949 2:-0.0923456 
1 1:-0.131541 2:0.125408 
1 1:0.434533 2:-0.00871467 
1 1:0.0584949 2:-0.0923456 
1 1:-0.131541 2:0.125408 
1 1:0.434533 2:-0.00871467 
1 1:0.0584949 2:-0.0923456 
1 1:-0.131541 2:0.125408 
1 1:0.434533 2:-0.00871467 
1 1:0.0584949 2:-0.0923456 
1 1:-0.131541 2:0.125408 
1 1:0.434533 2:-0.00871467 
1 1:0.0584949 2:-0.0923456 
1 1:-0.131541 2:0.125408 
1 1:0.434533 2:-0.00871467 
1 1:0.0584949 2:-0.0923456 
1 1:-0.131541 2:0.125408 
1 1:0.434533 2:-0.00871467 
1 1:0.0584949 2:-0.0923456 
1 1:-0.131541 2:0.125408 
1 1:0.434533 2:-0.00871467 
1 1:0.0584949 2:-0.0923456 
1 1:-0.131541 2:0.125408 
1 1:0.434533 2:-0.00871467 
1 1:0.0584949 2:-0.0923456 
1 1:-0.131541 2:0.125408 
1 1:0.434533 2:-0.00871467 
1 1:0.0584949 2:-0.0923456 
1 1:-0.131541 2:0.125408 
1 1:0.434533 2:-0.00871467 
1 1:0.0584949 2:-0.0923456 
1 1:-0.131541 2:0.125408 
1 1:0.434533 2:-0.00871467 
1 1:0.0584949 2:-0.0923456 
1 1:-0.131541 2:0.125408 
1 1:0.434533 2:-0.00871467 
1 1:0.0584949 2:-0.0923456 
1 1:-0.131541 2:0.125408 
1 1:0.434533 2:-0.00871467 
1 1:0.0584949 2:-0.0923456 
1 1:-0.131541 2:0.125408 
1 1:0.434533 2:-0.00871467 
1 1:0.0584949 2:-0.0923456 
1 1:-0.131541 2:0.125408 
1 1:0.434533 2:-0.00871467 
1 1:0.0584949 2:-0.0923456 
1 1:-0.131541 2:0.125408 
1 1:0.434533 2:-0.00871467 
1 1:0.0584949 2:-0.0923456 
1 1:-0.131541 2:0.125408 
1 1:0.434533 2:-0.00871467 
1 1:0.0584949 2:-0.0923456 
1 1:-0.131541 2:0.125408 
1 1:0.434533 2:-0.00871467 
1 1:0.0584949 2:-0.0923456 
1 1:-0.131541 2:0.125408 
1 1:0.434533 2:-0.00871467 
1 1:0.0584949 2:-0.0923456 
1 1:-0.131541 2:0.125408 
1 1:0.434533 2:-0.00871467 
1 1:0.0584949 2:-0.0923456 
1 1:-0.131541 2:0.125408 
1 1:0.434533 2:-0.00871467 
1 1:0.0584949 2:-0.0923456 
1 1:-0.131541 2:0.125408 
1 1:0.434533 2:-0.00871467 
1 1:0.0584949 2:-0.0923456 
1 1:-0.131541 2:0.125408 
1 1:0.434533 2:-0.00871467 
1 1:0.0584949 2:-0.0923456 
1 1:-0.131541 2:0.125408 
1 1:0.434533 2:-0.00871467 
1 1:0.0584949 2:-0.0923456 
1 1:-0.131541 2:0.125408 
1 1:0.532031 2:0.323405 
1 1:0.0589271 2:0.157185 
1 1:0.00695463 2:0.0916377 
1 1:0.00906899 2:0.21369 
1 1:0.532031 2:0.323405 
1 1:0.0589271 2:0.157185 
1 1:0.00695463 2:0.0916377 
1 1:0.00906899 2:0.21369 
1 1:0.532031 2:0.323405 
1 1:0.0589271 2:0.157185 
1 1:0.00695463 2:0.0916377 
1 1:0.00906899 2:0.21369 
1 1:0.532031 2:0.323405 
1 1:0.0589271 2:0.157185 
1 1:0.00695463 2:0.0916377 
1 1:0.00906899 2:0.21369 
1 1:0.532031 2:0.323405 
1 1:0.0589271 2:0.157185 
1 1:0.00695463 2:0.0916377 
1 1:0.00906899 2:0.21369 
1 1:0.532031 2:0.323405 
1 1:0.0589271 2:0.157185 
1 1:0.00695463 2:0.0916377 
1 1:0.00906899 2:0.21369 
1 1:0.532031 2:0.323405 
1 1:0.0589271 2:0.157185 
1 1:0.00695463 2:0.0916377 
1 1:0.00906899 2:0.21369 
1 1:0.532031 2:0.323405 
1 1:0.0589271 2:0.157185 
1 1:0.00695463 2:0.0916377 
1 1:0.00906899 2:0.21369 
1 1:0.532031 2:0.323405 
1 1:0.0589271 2:0.157185 
1 1:0.00695463 2:0.0916377 
1 1:0.00906899 2:0.21369 
1 1:0.532031 2:0.323405 
1 1:0.0589271 2:0.157185 
1 1:0.00695463 2:0.0916377 
1 1:0.00906899 2:0.21369 
1 1:0.532031 2:0.323405 
1 1:0.0589271 2:0.157185 
1 1:0.00695463 2:0.0916377 
1 1:0.00906899 2:0.21369 
1 1:0.532031 2:0.323405 
1 1:0.0589271 2:0.157185 
1 1:0.00695463 2:0.0916377 
1 1:0.00906899 2:0.21369 
1 1:0.532031 2:0.323405 
1 1:0.0589271 2:0.157185 
1 1:0.00695463 2:0.0916377 
1 1:0.00906899 2:0.21369 
1 1:0.532031 2:0.323405 
1 1:0.0589271 2:0.157185 
1 1:0.00695463 2:0.0916377 
1 1:0.00906899 2:0.21369 
1 1:0.532031 2:0.323405 
1 1:0.0589271 2:0.157185 
1 1:0.00695463 2:0.0916377 
1 1:0.00906899 2:0.21369 
1 1:0.532031 2:0.323405 
1 1:0.0589271 2:0.157185 
1 1:0.00695463 2:0.0916377 
1 1:0.00906899 2:0.21369 
1 1:0.532031 2:0.323405 
1 1:0.0589271 2:0.157185 
1 1:0.00695463 2:0.0916377 
1 1:0.00906899 2:0.21369 
1 1:0.532031 2:0.323405 
1 1:0.0589271 2:0.157185 
1 1:0.00695463 2:0.0916377 
1 1:0.00906899 2:0.21369 
1 1:0.532031 2:0.323405 
1 1:0.0589271 2:0.157185 
1 1:0.00695463 2:0.0916377 
1 1:0.00906899 2:0.21369 
1 1:0.532031 2:0.323405 
1 1:0.0589271 2:0.157185 
1 1:0.00695463 2:0.0916377 
1 1:0.00906899 2:0.21369 
1 1:0.532031 2:0.323405 
1 1:0.0589271 2:0.157185 
1 1:0.00695463 2:0.0916377 
1 1:0.00906899 2:0.21369 
1 1:0.532031 2:0.323405 
1 1:0.0589271 2:0.157185 
1 1:0.00695463 2:0.0916377 
1 1:0.00906899 2:0.21369 
1 1:0.532031 2:0.323405 
1 1:0.0589271 2:0.157185 
1 1:0.00695463 2:0.0916377 
1 1:0.00906899 2:0.21369 
1 1:0.532031 2:0.323405 
1 1:0.0589271 2:0.157185 
1 1:0.00695463 2:0.0916377 
1 1:0.00906899 2:0.21369 
1 1:0.532031 2:0.323405 
1 1:0.0589271 2:0.157185 
1 1:0.00695463 2:0.0916377 
1 1:0.00906899 2:0.21369 
1 1:0.532031 2:0.323405 
1 1:0.0589271 2:0.157185 
1 1:0.00695463 2:0.0916377 
1 1:0.00906899 2:0.21369 
1 1:0.532031 2:0.323405 
1 1:0.0589271 2:0.157185 
1 1:0.00695463 2:0.0916377 
1 1:0.00906899 2:0.21369 
1 1:0.532031 2:0.323405 
1 1:0.0589271 2:0.157185 
1 1:0.00695463 2:0.0916377 
1 1:0.00906899 2:0.21369 
1 1:0.532031 2:0.323405 
1 1:0.0589271 2:0.157185 
1 1:0.00695463 2:0.0916377 
1 1:0.00906899 2:0.21369 
1 1:0.532031 2:0.323405 
1 1:0.0589271 2:0.157185 
1 1:0.00695463 2:0.0916377 
1 1:0.00906899 2:0.21369 
1 1:0.532031 2:0.323405 
1 1:0.0589271 2:0.157185 
1 1:0.00695463 2:0.0916377 
1 1:0.00906899 2:0.21369 
1 1:0.532031 2:0.323405 
1 1:0.0589271 2:0.157185 
1 1:0.00695463 2:0.0916377 
1 1:0.00906899 2:0.21369 
1 1:0.532031 2:0.323405 
1 1:0.0589271 2:0.157185 
1 1:0.00695463 2:0.0916377 
1 1:0.00906899 2:0.21369 
1 1:0.532031 2:0.323405 
1 1:0.0589271 2:0.157185 
1 1:0.00695463 2:0.0916377 
1 1:0.00906899 2:0.21369 
1 1:0.532031 2:0.323405 
1 1:0.0589271 2:0.157185 
1 1:0.00695463 2:0.0916377 
1 1:0.00906899 2:0.21369 
1 1:0.532031 2:0.323405 
1 1:0.0589271 2:0.157185 
1 1:0.00695463 2:0.0916377 
1 1:0.00906899 2:0.21369 
1 1:0.532031 2:0.323405 
1 1:0.0589271 2:0.157185 
1 1:0.00695463 2:0.0916377 
1 1:0.00906899 2:0.21369 
1 1:0.532031 2:0.323405 
1 1:0.0589271 2:0.157185 
1 1:0.00695463 2:0.0916377 
1 1:0.00906899 2:0.21369 
1 1:0.532031 2:0.323405 
1 1:0.0589271 2:0.157185 
1 1:0.00695463 2:0.0916377 
1 1:0.00906899 2:0.21369 
1 1:0.532031 2:0.323405 
1 1:0.0589271 2:0.157185 
1 1:0.00695463 2:0.0916377 
1 1:0.00906899 2:0.21369 
1 1:0.532031 2:0.323405 
1 1:0.0589271 2:0.157185 
1 1:0.00695463 2:0.0916377 
1 1:0.00906899 2:0.21369 
1 1:0.532031 2:0.323405 
1 1:0.0589271 2:0.157185 
1 1:0.00695463 2:0.0916377 
1 1:0.00906899 2:0.21369 
1 1:0.532031 2:0.323405 
1 1:0.0589271 2:0.157185 
1 1:0.00695463 2:0.0916377 
1 1:0.00906899 2:0.21369 
1 1:0.532031 2:0.323405 
1 1:0.0589271 2:0.157185 
1 1:0.00695463 2:0.0916377 
1 1:0.00906899 2:0.21369 
1 1:0.532031 2:0.323405 
1 1:0.0589271 2:0.157185 
1 1:0.00695463 2:0.0916377 
1 1:0.00906899 2:0.21369 
1 1:0.532031 2:0.323405 
1 1:0.0589271 2:0.157185 
1 1:0.00695463 2:0.0916377 
1 1:0.00906899 2:0.21369 
1 1:0.532031 2:0.323405 
1 1:0.0589271 2:0.157185 
1 1:0.00695463 2:0.0916377 
1 1:0.00906899 2:0.21369 
1 1:0.532031 2:0.323405 
1 1:0.0589271 2:0.157185 
1 1:0.00695463 2:0.0916377 
1 1:0.00906899 2:0.21369 
1 1:0.532031 2:0.323405 
1 1:0.0589271 2:0.157185 
1 1:0.00695463 2:0.0916377 
1 1:0.00906899 2:0.21369 
1 1:0.532031 2:0.323405 
1 1:0.0589271 2:0.157185 
1 1:0.00695463 2:0.0916377 
1 1:0.00906899 2:0.21369 
1 1:0.532031 2:0.323405 
1 1:0.0589271 2:0.157185 
1 1:0.00695463 2:0.0916377 
1 1:0.00906899 2:0.21369 
1 1:0.532031 2:0.323405 
1 1:0.0589271 2:0.157185 
1 1:0.00695463 2:0.0916377 
1 1:0.00906899 2:0.21369 
1 1:0.532031 2:0.323405 
1 1:0.0589271 2:0.157185 
1 1:0.00695463 2:0.0916377 
1 1:0.00906899 2:0.21369 
1 1:0.532031 2:0.323405 
1 1:0.0589271 2:0.157185 
1 1:0.00695463 2:0.0916377 
1 1:0.00906899 2:0.21369 
1 1:0.532031 2:0.323405 
1 1:0.0589271 2:0.157185 
1 1:0.00695463 2:0.0916377 
1 1:0.00906899 2:0.21369 
1 1:0.532031 2:0.323405 
1 1:0.0589271 2:0.157185 
1 1:0.00695463 2:0.0916377 
1 1:0.00906899 2:0.21369 
1 1:0.532031 2:0.323405 
1 1:0.0589271 2:0.157185 
1 1:0.00695463 2:0.0916377 
1 1:0.00906899 2:0.21369 
1 1:0.532031 2:0.323405 
1 1:0.0589271 2:0.157185 
1 1:0.00695463 2:0.0916377 
1 1:0.00906899 2:0.21369 
1 1:0.532031 2:0.323405 
1 1:0.0589271 2:0.157185 
1 1:0.00695463 2:0.0916377 
1 1:0.00906899 2:0.21369 
1 1:0.532031 2:0.323405 
1 1:0.0589271 2:0.157185 
1 1:0.00695463 2:0.0916377 
1 1:0.00906899 2:0.21369 
1 1:0.532031 2:0.323405 
1 1:0.0589271 2:0.157185 
1 1:0.00695463 2:0.0916377 
1 1:0.00906899 2:0.21369 
1 1:0.532031 2:0.323405 
1 1:0.0589271 2:0.157185 
1 1:0.00695463 2:0.0916377 
1 1:0.00906899 2:0.21369 
1 1:0.532031 2:0.323405 
1 1:0.0589271 2:0.157185 
1 1:0.00695463 2:0.0916377 
1 1:0.00906899 2:0.21369 
1 1:0.532031 2:0.323405 
1 1:0.0589271 2:0.157185 
1 1:0.00695463 2:0.0916377 
1 1:0.00906899 2:0.21369 
1 1:0.532031 2:0.323405 
1 1:0.0589271 2:0.157185 
1 1:0.00695463 2:0.0916377 
1 1:0.00906899 2:0.21369 
1 1:0.532031 2:0.323405 
1 1:0.0589271 2:0.157185 
1 1:0.00695463 2:0.0916377 
1 1:0.00906899 2:0.21369 
1 1:0.532031 2:0.323405 
1 1:0.0589271 2:0.157185 
1 1:0.00695463 2:0.0916377 
1 1:0.00906899 2:0.21369 
1 1:0.532031 2:0.323405 
1 1:0.0589271 2:0.157185 
1 1:0.00695463 2:0.0916377 
1 1:0.00906899 2:0.21369 
1 1:0.532031 2:0.323405 
1 1:0.0589271 2:0.157185 
1 1:0.00695463 2:0.0916377 
1 1:0.00906899 2:0.21369 
1 1:0.532031 2:0.323405 
1 1:0.0589271 2:0.157185 
1 1:0.00695463 2:0.0916377 
1 1:0.00906899 2:0.21369 
1 1:0.532031 2:0.323405 
1 1:0.0589271 2:0.157185 
1 1:0.00695463 2:0.0916377 
1 1:0.00906899 2:0.21369 
1 1:0.532031 2:0.323405 
1 1:0.0589271 2:0.157185 
1 1:0.00695463 2:0.0916377 
1 1:0.00906899 2:0.21369 
1 1:0.532031 2:0.323405 
1 1:0.0589271 2:0.157185 
1 1:0.00695463 2:0.0916377 
1 1:0.00906899 2:0.21369 
1 1:0.532031 2:0.323405 
1 1:0.0589271 2:0.157185 
1 1:0.00695463 2:0.0916377 
1 1:0.00906899 2:0.21369 
1 1:0.532031 2:0.323405 
1 1:0.0589271 2:0.157185 
1 1:0.00695463 2:0.0916377 
1 1:0.00906899 2:0.21369 
1 1:0.532031 2:0.323405 
1 1:0.0589271 2:0.157185 
1 1:0.00695463 2:0.0916377 
1 1:0.00906899 2:0.21369 
1 1:0.532031 2:0.323405 
1 1:0.0589271 2:0.157185 
1 1:0.00695463 2:0.0916377 
1 1:0.00906899 2:0.21369 
1 1:0.532031 2:0.323405 
1 1:0.0589271 2:0.157185 
1 1:0.00695463 2:0.0916377 
1 1:0.00906899 2:0.21369 
1 1:0.532031 2:0.323405 
1 1:0.0589271 2:0.157185 
1 1:0.00695463 2:0.0916377 
1 1:0.00906899 2:0.21369 
1 1:0.532031 2:0.323405 
1 1:0.0589271 2:0.157185 
1 1:0.00695463 2:0.0916377 
1 1:0.00906899 2:0.21369 
1 1:0.532031 2:0.323405 
1 1:0.0589271 2:0.157185 
1 1:0.00695463 2:0.0916377 
1 1:0.00906899 2:0.21369 
1 1:0.532031 2:0.323405 
1 1:0.0589271 2:0.157185 
1 1:0.00695463 2:0.0916377 
1 1:0.00906899 2:0.21369 
1 1:0.532031 2:0.323405 
1 1:0.0589271 2:0.157185 
1 1:0.00695463 2:0.0916377 
1 1:0.00906899 2:0.21369 
1 1:0.532031 2:0.323405 
1 1:0.0589271 2:0.157185 
1 1:0.00695463 2:0.0916377 
1 1:0.00906899 2:0.21369 
1 1:0.532031 2:0.323405 
1 1:0.0589271 2:0.157185 
1 1:0.00695463 2:0.0916377 
1 1:0.00906899 2:0.21369 
1 1:0.532031 2:0.323405 
1 1:0.0589271 2:0.157185 
1 1:0.00695463 2:0.0916377 
1 1:0.00906899 2:0.21369 
1 1:0.532031 2:0.323405 
1 1:0.0589271 2:0.157185 
1 1:0.00695463 2:0.0916377 
1 1:0.00906899 2:0.21369 
1 1:0.532031 2:0.323405 
1 1:0.0589271 2:0.157185 
1 1:0.00695463 2:0.0916377 
1 1:0.00906899 2:0.21369 
1 1:0.532031 2:0.323405 
1 1:0.0589271 2:0.157185 
1 1:0.00695463 2:0.0916377 
1 1:0.00906899 2:0.21369 
1 1:0.532031 2:0.323405 
1 1:0.0589271 2:0.157185 
1 1:0.00695463 2:0.0916377 
1 1:0.00906899 2:0.21369 
1 1:0.532031 2:0.323405 
1 1:0.0589271 2:0.157185 
1 1:0.00695463 2:0.0916377 
1 1:0.00906899 2:0.21369 
1 1:0.532031 2:0.323405 
1 1:0.0589271 2:0.157185 
1 1:0.00695463 2:0.0916377 
1 1:0.00906899 2:0.21369 
1 1:0.532031 2:0.323405 
1 1:0.0589271 2:0.157185 
1 1:0.00695463 2:0.0916377 
1 1:0.00906899 2:0.21369 
1 1:0.532031 2:0.323405 
1 1:0.0589271 2:0.157185 
1 1:0.00695463 2:0.0916377 
1 1:0.00906899 2:0.21369 
1 1:0.532031 2:0.323405 
1 1:0.0589271 2:0.157185 
1 1:0.00695463 2:0.0916377 
1 1:0.00906899 2:0.21369 
1 1:0.532031 2:0.323405 
1 1:0.0589271 2:0.157185 
1 1:0.00695463 2:0.0916377 
1 1:0.00906899 2:0.21369 
1 1:0.532031 2:0.323405 
1 1:0.0589271 2:0.157185 
1 1:0.00695463 2:0.0916377 
1 1:0.00906899 2:0.21369 
1 1:0.532031 2:0.323405 
1 1:0.0589271 2:0.157185 
1 1:0.00695463 2:0.0916377 
1 1:0.00906899 2:0.21369 
1 1:-0.716538 2:0.0793737 
1 1:-0.620302 2:0.174917 
1 1:-0.529335 2:0.0752216 
1 1:-0.716538 2:0.0793737 
1 1:-0.620302 2:0.174917 
1 1:-0.529335 2:0.0752216 
1 1:-0.716538 2:0.0793737 
1 1:-0.620302 2:0.174917 
1 1:-0.529335 2:0.0752216 
1 1:-0.716538 2:0.0793737 
1 1:-0.620302 2:0.174917 
1 1:-0.529335 2:0.0752216 
1 1:-0.716538 2:0.0793737 
1 1:-0.620302 2:0.174917 
1 1:-0.529335 2:0.0752216 
1 1:-0.716538 2:0.0793737 
1 1:-0.620302 2:0.174917 
1 1:-0.529335 2:0.0752216 
1 1:-0.716538 2:0.0793737 
1 1:-0.620302 2:0.174917 
1 1:-0.529335 2:0.0752216 
1 1:-0.716538 2:0.0793737 
1 1:-0.620302 2:0.174917 
1 1:-0.529335 2:0.0752216 
1 1:-0.716538 2:0.0793737 
1 1:-0.620302 2:0.174917 
1 1:-0.529335 2:0.0752216 
1 1:-0.716538 2:0.0793737 
1 1:-0.620302 2:0.174917 
1 1:-0.529335 2:0.0752216 
1 1:-0.716538 2:0.0793737 
1 1:-0.620302 2:0.174917 
1 1:-0.529335 2:0.0752216 
1 1:-0.716538 2:0.0793737 
1 1:-0.620302 2:0.174917 
1 1:-0.529335 2:0.0752216 
1 1:-0.716538 2:0.0793737 
1 1:-0.620302 2:0.174917 
1 1:-0.529335 2:0.0752216 
1 1:-0.716538 2:0.0793737 
1 1:-0.620302 2:0.174917 
1 1:-0.529335 2:0.0752216 
1 1:-0.716538 2:0.0793737 
1 1:-0.620302 2:0.174917 
1 1:-0.529335 2:0.0752216 
1 1:-0.716538 2:0.0793737 
1 1:-0.620302 2:0.174917 
1 1:-0.529335 2:0.0752216 
1 1:-0.716538 2:0.0793737 
1 1:-0.620302 2:0.174917 
1 1:-0.529335 2:0.0752216 
1 1:-0.716538 2:0.0793737 
1 1:-0.620302 2:0.174917 
1 1:-0.529335 2:0.0752216 
1 1:-0.716538 2:0.0793737 
1 1:-0.620302 2:0.174917 
1 1:-0.529335 2:0.0752216 
1 1:-0.716538 2:0.0793737 
1 1:-0.620302 2:0.174917 
1 1:-0.529335 2:0.0752216 
1 1:-0.716538 2:0.0793737 
1 1:-0.620302 2:0.174917 
1 1:-0.529335 2:0.0752216 
1 1:-0.716538 2:0.0793737 
1 1:-0.620302 2:0.174917 
1 1:-0.529335 2:0.0752216 
1 1:-0.716538 2:0.0793737 
1 1:-0.620302 2:0.174917 
1 1:-0.529335 2:0.0752216 
1 1:-0.716538 2:0.0793737 
1 1:-0.620302 2:0.174917 
1 1:-0.529335 2:0.0752216 
1 1:-0.716538 2:0.0793737 
1 1:-0.620302 2:0.174917 
1 1:-0.529335 2:0.0752216 
1 1:-0.716538 2:0.0793737 
1 1:-0.620302 2:0.174917 
1 1:-0.529335 2:0.0752216 
1 1:-0.716538 2:0.0793737 
1 1:-0.620302 2:0.174917 
1 1:-0.529335 2:0.0752216 
1 1:-0.716538 2:0.0793737 
1 1:-0.620302 2:0.174917 
1 1:-0.529335 2:0.0752216 
1 1:-0.716538 2:0.0793737 
1 1:-0.620302 2:0.174917 
1 1:-0.529335 2:0.0752216 
1 1:-0.716538 2:0.0793737 
1 1:-0.620302 2:0.174917 
1 1:-0.529335 2:0.0752216 
1 1:-0.716538 2:0.0793737 
1 1:-0.620302 2:0.174917 
1 1:-0.529335 2:0.0752216 
1 1:-0.716538 2:0.0793737 
1 1:-0.620302 2:0.174917 
1 1:-0.529335 2:0.0752216 
1 1:-0.716538 2:0.0793737 
1 1:-0.620302 2:0.174917 
1 1:-0.529335 2:0.0752216 
1 1:-0.716538 2:0.0793737 
1 1:-0.620302 2:0.174917 
1 1:-0.529335 2:0.0752216 
1 1:-0.716538 2:0.0793737 
1 1:-0.620302 2:0.174917 
1 1:-0.529335 2:0.0752216 
1 1:-0.716538 2:0.0793737 
1 1:-0.620302 2:0.174917 
1 1:-0.529335 2:0.0752216 
1 1:-0.716538 2:0.0793737 
1 1:-0.620302 2:0.174917 
1 1:-0.529335 2:0.0752216 
1 1:-0.716538 2:0.0793737 
1 1:-0.620302 2:0.174917 
1 1:-0.529335 2:0.0752216 
1 1:-0.716538 2:0.0793737 
1 1:-0.620302 2:0.174917 
1 1:-0.529335 2:0.0752216 
1 1:-0.716538 2:0.0793737 
1 1:-0.620302 2:0.174917 
1 1:-0.529335 2:0.0752216 
1 1:-0.716538 2:0.0793737 
1 1:-0.620302 2:0.174917 
1 1:-0.529335 2:0.0752216 
1 1:-0.716538 2:0.0793737 
1 1:-0.620302 2:0.174917 
1 1:-0.529335 2:0.0752216 
1 1:-0.716538 2:0.0793737 
1 1:-0.620302 2:0.174917 
1 1:-0.529335 2:0.0752216 
1 1:-0.716538 2:0.0793737 
1 1:-0.620302 2:0.174917 
1 1:-0.529335 2:0.0752216 
1 1:-0.716538 2:0.0793737 
1 1:-0.620302 2:0.174917 
1 1:-0.529335 2:0.0752216 
1 1:-0.716538 2:0.0793737 
1 1:-0.620302 2:0.174917 
1 1:-0.529335 2:0.0752216 
1 1:-0.716538 2:0.0793737 
1 1:-0.620302 2:0.174917 
1 1:-0.529335 2:0.0752216 
1 1:-0.716538 2:0.0793737 
1 1:-0.620302 2:0.174917 
1 1:-0.529335 2:0.0752216 
1 1:-0.716538 2:0.0793737 
1 1:-0.620302 2:0.174917 
1 1:-0.529335 2:0.0752216 
1 1:-0.716538 2:0.0793737 
1 1:-0.620302 2:0.174917 
1 1:-0.529335 2:0.0752216 
1 1:-0.716538 2:0.0793737 
1 1:-0.620302 2:0.174917 
1 1:-0.529335 2:0.0752216 
1 1:-0.716538 2:0.0793737 
1 1:-0.620302 2:0.174917 
1 1:-0.529335 2:0.0752216 
1 1:-0.716538 2:0.0793737 
1 1:-0.620302 2:0.174917 
1 1:-0.529335 2:0.0752216 
1 1:-0.716538 2:0.0793737 
1 1:-0.620302 2:0.174917 
1 1:-0.529335 2:0.0752216 
1 1:-0.716538 2:0.0793737 
1 1:-0.620302 2:0.174917 
1 1:-0.529335 2:0.0752216 
1 1:-0.716538 2:0.0793737 
1 1:-0.620302 2:0.174917 
1 1:-0.529335 2:0.0752216 
1 1:-0.716538 2:0.0793737 
1 1:-0.620302 2:0.174917 
1 1:-0.529335 2:0.0752216 
1 1:-0.716538 2:0.0793737 
1 1:-0.620302 2:0.174917 
1 1:-0.529335 2:0.0752216 
1 1:-0.716538 2:0.0793737 
1 1:-0.620302 2:0.174917 
1 1:-0.529335 2:0.0752216 
1 1:-0.716538 2:0.0793737 
1 1:-0.620302 2:0.174917 
1 1:-0.529335 2:0.0752216 
1 1:-0.716538 2:0.0793737 
1 1:-0.620302 2:0.174917 
1 1:-0.529335 2:0.0752216 
1 1:-0.716538 2:0.0793737 
1 1:-0.620302 2:0.174917 
1 1:-0.529335 2:0.0752216 
1 1:-0.716538 2:0.0793737 
1 1:-0.620302 2:0.174917 
1 1:-0.529335 2:0.0752216 
1 1:-0.716538 2:0.0793737 
1 1:-0.620302 2:0.174917 
1 1:-0.529335 2:0.0752216 
1 1:-0.716538 2:0.0793737 
1 1:-0.620302 2:0.174917 
1 1:-0.529335 2:0.0752216 
1 1:-0.716538 2:0.0793737 
1 1:-0.620302 2:0.174917 
1 1:-0.529335 2:0.0752216 
1 1:-0.716538 2:0.0793737 
1 1:-0.620302 2:0.174917 
1 1:-0.529335 2:0.0752216 
1 1:-0.716538 2:0.0793737 
1 1:-0.620302 2:0.174917 
1 1:-0.529335 2:0.0752216 
1 1:-0.716538 2:0.0793737 
1 1:-0.620302 2:0.174917 
1 1:-0.529335 2:0.0752216 
1 1:-0.716538 2:0.0793737 
1 1:-0.620302 2:0.174917 
1 1:-0.529335 2:0.0752216 
1 1:-0.716538 2:0.0793737 
1 1:-0.620302 2:0.174917 
1 1:-0.529335 2:0.0752216 
1 1:-0.716538 2:0.0793737 
1 1:-0.620302 2:0.174917 
1 1:-0.529335 2:0.0752216 
1 1:-0.716538 2:0.0793737 
1 1:-0.620302 2:0.174917 
1 1:-0.529335 2:0.0752216 
1 1:-0.716538 2:0.0793737 
1 1:-0.620302 2:0.174917 
1 1:-0.529335 2:0.0752216 
1 1:-0.716538 2:0.0793737 
1 1:-0.620302 2:0.174917 
1 1:-0.529335 2:0.0752216 
1 1:-0.716538 2:0.0793737 
1 1:-0.620302 2:0.174917 
1 1:-0.529335 2:0.0752216 
1 1:-0.716538 2:0.0793737 
1 1:-0.620302 2:0.174917 
1 1:-0.529335 2:0.0752216 
1 1:-0.716538 2:0.0793737 
1 1:-0.620302 2:0.174917 
1 1:-0.529335 2:0.0752216 
1 1:-0.716538 2:0.0793737 
1 1:-0.620302 2:0.174917 
1 1:-0.529335 2:0.0752216 
1 1:-0.716538 2:0.0793737 
1 1:-0.620302 2:0.174917 
1 1:-0.529335 2:0.0752216 
1 1:-0.716538 2:0.0793737 
1 1:-0.620302 2:0.174917 
1 1:-0.529335 2:0.0752216 
1 1:-0.716538 2:0.0793737 
1 1:-0.620302 2:0.174917 
1 1:-0.529335 2:0.0752216 
1 1:-0.716538 2:0.0793737 
1 1:-0.620302 2:0.174917 
1 1:-0.529335 2:0.0752216 
1 1:-0.716538 2:0.0793737 
1 1:-0.620302 2:0.174917 
1 1:-0.529335 2:0.0752216 
1 1:-0.716538 2:0.0793737 
1 1:-0.620302 2:0.174917 
1 1:-0.529335 2:0.0752216 
1 1:-0.716538 2:0.0793737 
1 1:-0.620302 2:0.174917 
1 1:-0.529335 2:0.0752216 
1 1:-0.716538 2:0.0793737 
1 1:-0.620302 2:0.174917 
1 1:-0.529335 2:0.0752216 
1 1:-0.716538 2:0.0793737 
1 1:-0.620302 2:0.174917 
1 1:-0.529335 2:0.0752216 
1 1:-0.716538 2:0.0793737 
1 1:-0.620302 2:0.174917 
1 1:-0.529335 2:0.0752216 
1 1:-0.716538 2:0.0793737 
1 1:-0.620302 2:0.174917 
1 1:-0.529335 2:0.0752216 
1 1:-0.716538 2:0.0793737 
1 1:-0.620302 2:0.174917 
1 1:-0.529335 2:0.0752216 
1 1:-0.716538 2:0.0793737 
1 1:-0.620302 2:0.174917 
1 1:-0.529335 2:0.0752216 
1 1:-0.716538 2:0.0793737 
1 1:-0.620302 2:0.174917 
1 1:-0.529335 2:0.0752216 
1 1:-0.716538 2:0.0793737 
1 1:-0.620302 2:0.174917 
1 1:-0.529335 2:0.0752216 
1 1:-0.716538 2:0.0793737 
1 1:-0.620302 2:0.174917 
1 1:-0.529335 2:0.0752216 
1 1:-0.251574 2:0.141039 
1 1:-0.251574 2:0.141039 
1 1:-0.251574 2:0.141039 
1 1:-0.251574 2:0.141039 
1 1:-0.251574 2:0.141039 
1 1:-0.251574 2:0.141039 
1 1:-0.251574 2:0.141039 
1 1:-0.251574 2:0.141039 
1 1:-0.251574 2:0.141039 
1 1:-0.251574 2:0.141039 
1 1:-0.251574 2:0.141039 
1 1:-0.251574 2:0.141039 
1 1:-0.251574 2:0.141039 
1 1:-0.251574 2:0.141039 
1 1:-0.251574 2:0.141039 
1 1:-0.251574 2:0.141039 
1 1:-0.251574 2:0.141039 
1 1:-0.251574 2:0.141039 
1 1:-0.251574 2:0.141039 
1 1:-0.251574 2:0.141039 
1 1:-0.251574 2:0.141039 
1 1:-0.251574 2:0.141039 
1 1:-0.251574 2:0.141039 
1 1:-0.251574 2:0.141039 
1 1:-0.251574 2:0.141039 
1 1:-0.251574 2:0.141039 
1 1:-0.251574 2:0.141039 
1 1:-0.251574 2:0.141039 
1 1:-0.251574 2:0.141039 
1 1:-0.251574 2:0.141039 
1 1:-0.251574 2:0.141039 
1 1:-0.251574 2:0.141039 
1 1:-0.251574 2:0.141039 
1 1:-0.251574 2:0.141039 
1 1:-0.251574 2:0.141039 
1 1:-0.251574 2:0.141039 
1 1:-0.251574 2:0.141039 
1 1:-0.251574 2:0.141039 
1 1:-0.251574 2:0.141039 
1 1:-0.251574 2:0.141039 
1 1:-0.251574 2:0.141039 
1 1:-0.251574 2:0.141039 
1 1:-0.251574 2:0.141039 
1 1:-0.251574 2:0.141039 
1 1:-0.251574 2:0.141039 
1 1:-0.251574 2:0.141039 
1 1:-0.251574 2:0.141039 
1 1:-0.251574 2:0.141039 
1 1:-0.251574 2:0.141039 
1 1:-0.251574 2:0.141039 
1 1:-0.251574 2:0.141039 
1 1:-0.251574 2:0.141039 
1 1:-0.251574 2:0.141039 
1 1:-0.251574 2:0.141039 
1 1:-0.251574 2:0.141039 
1 1:-0.251574 2:0.141039 
1 1:-0.251574 2:0.141039 
1 1:-0.251574 2:0.141039 
1 1:-0.251574 2:0.141039 
1 1:-0.251574 2:0.141039 
1 1:-0.251574 2:0.141039 
1 1:-0.251574 2:0.141039 
1 1:-0.251574 2:0.141039 
1 1:-0.251574 2:0.141039 
1 1:-0.251574 2:0.141039 
1 1:-0.251574 2:0.141039 
1 1:-0.251574 2:0.141039 
1 1:-0.251574 2:0.141039 
1 1:-0.251574 2:0.141039 
1 1:-0.251574 2:0.141039 
1 1:-0.251574 2:0.141039 
1 1:-0.251574 2:0.141039 
1 1:-0.251574 2:0.141039 
1 1:-0.251574 2:0.141039 
1 1:-0.251574 2:0.141039 
1 1:-0.251574 2:0.141039 
1 1:-0.251574 2:0.141039 
1 1:-0.251574 2:0.141039 
1 1:-0.251574 2:0.141039 
1 1:-0.251574 2:0.141039 
1 1:-0.251574 2:0.141039 
1 1:-0.251574 2:0.141039 
1 1:-0.251574 2:0.141039 
1 1:-0.251574 2:0.141039 
1 1:-0.251574 2:0.141039 
1 1:-0.251574 2:0.141039 
1 1:-0.251574 2:0.141039 
1 1:-0.251574 2:0.141039 
1 1:-0.251574 2:0.141039 
1 1:-0.251574 2:0.141039 
1 1:-0.251574 2:0.141039 
1 1:-0.251574 2:0.141039 
1 1:-0.251574 2:0.141039 
1 1:-0.251574 2:0.141039 
1 1:-0.251574 2:0.141039 
1 1:-0.251574 2:0.141039 
1 1:-0.251574 2:0.141039 
1 1:0.138081 2:-0.396053 
1 1:0.138081 2:-0.396053 
1 1:0.138081 2:-0.396053 
1 1:0.138081 2:-0.396053 
1 1:0.138081 2:-0.396053 
1 1:0.138081 2:-0.396053 
1 1:0.138081 2:-0.396053 
1 1:0.138081 2:-0.396053 
1 1:0.138081 2:-0.396053 
1 1:0.138081 2:-0.396053 
1 1:0.138081 2:-0.396053 
1 1:0.138081 2:-0.396053 
1 1:0.138081 2:-0.396053 
1 1:0.138081 2:-0.396053 
1 1:0.138081 2:-0.396053 
1 1:0.138081 2:-0.396053 
1 1:0.138081 2:-0.396053 
1 1:0.138081 2:-0.396053 
1 1:0.138081 2:-0.396053 
1 1:0.138081 2:-0.396053 
1 1:0.138081 2:-0.396053 
1 1:0.138081 2:-0.396053 
1 1:0.138081 2:-0.396053 
1 1:0.138081 2:-0.396053 
1 1:0.138081 2:-0.396053 
1 1:0.138081 2:-0.396053 
1 1:0.138081 2:-0.396053 
1 1:0.138081 2:-0.396053 
1 1:0.138081 2:-0.396053 
1 1:0.138081 2:-0.396053 
1 1:0.138081 2:-0.396053 
1 1:0.138081 2:-0.396053 
1 1:0.138081 2:-0.396053 
1 1:0.138081 2:-0.396053 
1 1:0.138081 2:-0.396053 
1 1:0.138081 2:-0.396053 
1 1:0.138081 2:-0.396053 
1 1:0.138081 2:-0.396053 
1 1:0.138081 2:-0.396053 
1 1:0.138081 2:-0.396053 
1 1:0.138081 2:-0.396053 
1 1:0.138081 2:-0.396053 
1 1:0.138081 2:-0.396053 
1 1:0.138081 2:-0.396053 
1 1:0.138081 2:-0.396053 
1 1:0.138081 2:-0.396053 
1 1:0.138081 2:-0.396053 
1 1:0.138081 2:-0.396053 
1 1:0.138081 2:-0.396053 
1 1:0.138081 2:-0.396053 
1 1:0.138081 2:-0.396053 
1 1:0.138081 2:-0.396053 
1 1:0.138081 2:-0.396053 
1 1:0.138081 2:-0.396053 
1 1:0.138081 2:-0.396053 
1 1:0.138081 2:-0.396053 
1 1:0.138081 2:-0.396053 
1 1:0.138081 2:-0.396053 
1 1:0.138081 2:-0.396053 
1 1:0.138081 2:-0.396053 
1 1:0.138081 2:-0.396053 
1 1:0.138081 2:-0.396053 
1 1:0.138081 2:-0.396053 
1 1:0.138081 2:-0.396053 
1 1:0.138081 2:-0.396053 
1 1:0.138081 2:-0.396053 
1 1:0.138081 2:-0.396053 
1 1:0.138081 2:-0.396053 
1 1:0.138081 2:-0.396053 
1 1:0.138081 2:-0.396053 
1 1:0.138081 2:-0.396053 
1 1:0.138081 2:-0.396053 
1 1:0.138081 2:-0.396053 
1 1:0.138081 2:-0.396053 
1 1:0.138081 2:-0.396053 
1 1:0.138081 2:-0.396053 
1 1:0.138081 2:-0.396053 
1 1:0.138081 2:-0.396053 
1 1:0.138081 2:-0.396053 
1 1:0.138081 2:-0.396053 
1 1:0.138081 2:-0.396053 
1 1:0.138081 2:-0.396053 
1 1:0.138081 2:-0.396053 
1 1:0.138081 2:-0.396053 
1 1:0.138081 2:-0.396053 
1 1:0.138081 2:-0.396053 
1 1:0.138081 2:-0.396053 
1 1:0.138081 2:-0.396053 
1 1:0.138081 2:-0.396053 
1 1:0.138081 2:-0.396053 
1 1:0.138081 2:-0.396053 
1 1:0.138081 2:-0.396053 
1 1:0.138081 2:-0.396053 
1 1:0.138081 2:-0.396053 
1 1:0.138081 2:-0.396053 
1 1:0.138081 2:-0.396053 
1 1:0.138081 2:-0.396053 
1 1:0.138081 2:-0.396053 
1 1:0.228909 2:-0.397048 
1 1:-0.105166 2:0.103479 
1 1:0.105496 2:-0.230136 
1 1:0.228909 2:-0.397048 
1 1:-0.105166 2:0.103479 
1 1:0.105496 2:-0.230136 
1 1:0.228909 2:-0.397048 
0.2267102924888996 1:-0.0810795 2:-0.130882 
1 1:-0.105166 2:0.103479 
1 1:0.105496 2:-0.230136 
1 1:0.228909 2:-0.397048 
1 1:-0.0810795 2:-0.130882 
1 1:-0.105166 2:0.103479 
1 1:0.105496 2:-0.230136 
1 1:0.228909 2:-0.397048 
1 1:-0.0810795 2:-0.130882 
1 1:-0.105166 2:0.103479 
1 1:0.105496 2:-0.230136 
1 1:0.228909 2:-0.397048 
1 1:-0.0810795 2:-0.130882 
1 1:-0.105166 2:0.103479 
1 1:0.105496 2:-0.230136 
1 1:0.228909 2:-0.397048 
1 1:-0.0810795 2:-0.130882 
1 1:-0.105166 2:0.103479 
1 1:0.105496 2:-0.230136 
1 1:0.228909 2:-0.397048 
1 1:-0.0810795 2:-0.130882 
1 1:-0.105166 2:0.103479 
1 1:0.105496 2:-0.230136 
1 1:0.228909 2:-0.397048 
1 1:-0.0810795 2:-0.130882 
1 1:-0.105166 2:0.103479 
1 1:0.105496 2:-0.230136 
1 1:0.228909 2:-0.397048 
1 1:-0.0810795 2:-0.130882 
1 1:-0.105166 2:0.103479 
1 1:0.105496 2:-0.230136 
1 1:0.228909 2:-0.397048 
1 1:-0.0810795 2:-0.130882 
1 1:-0.105166 2:0.103479 
1 1:0.105496 2:-0.230136 
1 1:0.228909 2:-0.397048 
1 1:-0.0810795 2:-0.130882 
1 1:-0.105166 2:0.103479 
1 1:0.105496 2:-0.230136 
1 1:0.228909 2:-0.397048 
1 1:-0.0810795 2:-0.130882 
1 1:-0.105166 2:0.103479 
1 1:0.105496 2:-0.230136 
1 1:0.228909 2:-0.397048 
1 1:-0.0810795 2:-0.130882 
1 1:-0.105166 2:0.103479 
1 1:0.105496 2:-0.230136 
1 1:0.228909 2:-0.397048 
1 1:-0.0810795 2:-0.130882 
1 1:-0.105166 2:0.103479 
1 1:0.105496 2:-0.230136 
1 1:0.228909 2:-0.397048 
1 1:-0.0810795 2:-0.130882 
1 1:-0.105166 2:0.103479 
1 1:0.105496 2:-0.230136 
1 1:0.228909 2:-0.397048 
1 1:-0.0810795 2:-0.130882 
1 1:-0.105166 2:0.103479 
1 1:0.105496 2:-0.230136 
1 1:0.228909 2:-0.397048 
1 1:-0.0810795 2:-0.130882 
1 1:-0.105166 2:0.103479 
1 1:0.105496 2:-0.230136 
1 1:0.228909 2:-0.397048 
1 1:-0.0810795 2:-0.130882 
1 1:-0.105166 2:0.103479 
1 1:0.105496 2:-0.230136 
1 1:0.228909 2:-0.397048 
1 1:-0.0810795 2:-0.130882 
1 1:-0.105166 2:0.103479 
1 1:0.105496 2:-0.230136 
1 1:0.228909 2:-0.397048 
1 1:-0.0810795 2:-0.130882 
1 1:-0.105166 2:0.103479 
1 1:0.105496 2:-0.230136 
1 1:0.228909 2:-0.397048 
1 1:-0.0810795 2:-0.130882 
1 1:-0.105166 2:0.103479 
1 1:0.105496 2:-0.230136 
1 1:0.228909 2:-0.397048 
1 1:-0.0810795 2:-0.130882 
1 1:-0.105166 2:0.103479 
1 1:0.105496 2:-0.230136 
1 1:0.228909 2:-0.397048 
1 1:-0.0810795 2:-0.130882 
1 1:-0.105166 2:0.103479 
1 1:0.105496 2:-0.230136 
1 1:0.228909 2:-0.397048 
1 1:-0.0810795 2:-0.130882 
1 1:-0.105166 2:0.103479 
1 1:0.105496 2:-0.230136 
1 1:0.228909 2:-0.397048 
1 1:-0.0810795 2:-0.130882 
1 1:-0.105166 2:0.103479 
1 1:0.105496 2:-0.230136 
1 1:0.228909 2:-0.397048 
1 1:-0.0810795 2:-0.130882 
1 1:-0.105166 2:0.103479 
1 1:0.105496 2:-0.230136 
1 1:0.228909 2:-0.397048 
1 1:-0.0810795 2:-0.130882 
1 1:-0.105166 2:0.103479 
1 1:0.105496 2:-0.230136 
1 1:0.228909 2:-0.397048 
1 1:-0.0810795 2:-0.130882 
1 1:-0.105166 2:0.103479 
1 1:0.105496 2:-0.230136 
1 1:0.228909 2:-0.397048 
1 1:-0.0810795 2:-0.130882 
1 1:-0.105166 2:0.103479 
1 1:0.105496 2:-0.230136 
1 1:0.228909 2:-0.397048 
1 1:-0.0810795 2:-0.130882 
1 1:-0.105166 2:0.103479 
1 1:0.105496 2:-0.230136 
1 1:0.228909 2:-0.397048 
1 1:-0.0810795 2:-0.130882 
1 1:-0.105166 2:0.103479 
1 1:0.105496 2:-0.230136 
1 1:0.228909 2:-0.397048 
1 1:-0.0810795 2:-0.130882 
1 1:-0.105166 2:0.103479 
1 1:0.105496 2:-0.230136 
1 1:0.228909 2:-0.397048 
1 1:-0.0810795 2:-0.130882 
1 1:-0.105166 2:0.103479 
1 1:0.105496 2:-0.230136 
1 1:0.228909 2:-0.397048 
1 1:-0.0810795 2:-0.130882 
1 1:-0.105166 2:0.103479 
1 1:0.105496 2:-0.230136 
1 1:0.228909 2:-0.397048 
1 1:-0.0810795 2:-0.130882 
1 1:-0.105166 2:0.103479 
1 1:0.105496 2:-0.230136 
1 1:0.228909 2:-0.397048 
1 1:-0.0810795 2:-0.130882 
1 1:-0.105166 2:0.103479 
1 1:0.105496 2:-0.230136 
1 1:0.228909 2:-0.397048 
1 1:-0.0810795 2:-0.130882 
1 1:-0.105166 2:0.103479 
1 1:0.105496 2:-0.230136 
1 1:0.228909 2:-0.397048 
1 1:-0.0810795 2:-0.130882 
1 1:-0.105166 2:0.103479 
1 1:0.105496 2:-0.230136 
1 1:0.228909 2:-0.397048 
1 1:-0.0810795 2:-0.130882 
1 1:-0.105166 2:0.103479 
1 1:0.105496 2:-0.230136 
1 1:0.228909 2:-0.397048 
1 1:-0.0810795 2:-0.130882 
1 1:-0.105166 2:0.103479 
1 1:0.105496 2:-0.230136 
1 1:0.228909 2:-0.397048 
1 1:-0.0810795 2:-0.130882 
1 1:-0.105166 2:0.103479 
1 1:0.105496 2:-0.230136 
1 1:0.228909 2:-0.397048 
1 1:-0.0810795 2:-0.130882 
1 1:-0.105166 2:0.103479 
1 1:0.105496 2:-0.230136 
1 1:0.228909 2:-0.397048 
1 1:-0.0810795 2:-0.130882 
1 1:-0.105166 2:0.103479 
1 1:0.105496 2:-0.230136 
1 1:0.228909 2:-0.397048 
1 1:-0.0810795 2:-0.130882 
1 1:-0.105166 2:0.103479 
1 1:0.105496 2:-0.230136 
1 1:0.228909 2:-0.397048 
1 1:-0.0810795 2:-0.130882 
1 1:-0.105166 2:0.103479 
1 1:0.105496 2:-0.230136 
1 1:0.228909 2:-0.397048 
1 1:-0.0810795 2:-0.130882 
1 1:-0.105166 2:0.103479 
1 1:0.105496 2:-0.230136 
1 1:0.228909 2:-0.397048 
1 1:-0.0810795 2:-0.130882 
1 1:-0.105166 2:0.103479 
1 1:0.105496 2:-0.230136 
1 1:0.228909 2:-0.397048 
1 1:-0.0810795 2:-0.130882 
1 1:-0.105166 2:0.103479 
1 1:0.105496 2:-0.230136 
1 1:0.228909 2:-0.397048 
1 1:-0.0810795 2:-0.130882 
1 1:-0.105166 2:0.103479 
1 1:0.105496 2:-0.230136 
1 1:0.228909 2:-0.397048 
1 1:-0.0810795 2:-0.130882 
1 1:-0.105166 2:0.103479 
1 1:0.105496 2:-0.230136 
1 1:0.228909 2:-0.397048 
1 1:-0.0810795 2:-0.130882 
1 1:-0.105166 2:0.103479 
1 1:0.105496 2:-0.230136 
1 1:0.228909 2:-0.397048 
1 1:-0.0810795 2:-0.130882 
1 1:-0.105166 2:0.103479 
1 1:0.105496 2:-0.230136 
1 1:0.228909 2:-0.397048 
1 1:-0.0810795 2:-0.130882 
1 1:-0.105166 2:0.103479 
1 1:0.105496 2:-0.230136 
1 1:0.228909 2:-0.397048 
1 1:-0.0810795 2:-0.130882 
1 1:-0.105166 2:0.103479 
1 1:0.105496 2:-0.230136 
1 1:0.228909 2:-0.397048 
1 1:-0.0810795 2:-0.130882 
1 1:-0.105166 2:0.103479 
1 1:0.105496 2:-0.230136 
1 1:0.228909 2:-0.397048 
1 1:-0.0810795 2:-0.130882 
1 1:-0.105166 2:0.103479 
1 1:0.105496 2:-0.230136 
1 1:0.228909 2:-0.397048 
1 1:-0.0810795 2:-0.130882 
1 1:-0.105166 2:0.103479 
1 1:0.105496 2:-0.230136 
1 1:0.228909 2:-0.397048 
1 1:-0.0810795 2:-0.130882 
1 1:-0.105166 2:0.103479 
1 1:0.105496 2:-0.230136 
1 1:0.228909 2:-0.397048 
1 1:-0.0810795 2:-0.130882 
1 1:-0.105166 2:0.103479 
1 1:0.105496 2:-0.230136 
1 1:0.228909 2:-0.397048 
1 1:-0.0810795 2:-0.130882 
1 1:-0.105166 2:0.103479 
1 1:0.105496 2:-0.230136 
1 1:0.228909 2:-0.397048 
1 1:-0.0810795 2:-0.130882 
1 1:-0.105166 2:0.103479 
1 1:0.105496 2:-0.230136 
1 1:0.228909 2:-0.397048 
1 1:-0.0810795 2:-0.130882 
1 1:-0.105166 2:0.103479 
1 1:0.105496 2:-0.230136 
1 1:0.228909 2:-0.397048 
1 1:-0.0810795 2:-0.130882 
1 1:-0.105166 2:0.103479 
1 1:0.105496 2:-0.230136 
1 1:0.228909 2:-0.397048 
1 1:-0.0810795 2:-0.130882 
1 1:-0.105166 2:0.103479 
1 1:0.105496 2:-0.230136 
1 1:0.228909 2:-0.397048 
1 1:-0.0810795 2:-0.130882 
1 1:-0.105166 2:0.103479 
1 1:0.105496 2:-0.230136 
1 1:0.228909 2:-0.397048 
1 1:-0.0810795 2:-0.130882 
1 1:-0.105166 2:0.103479 
1 1:0.105496 2:-0.230136 
1 1:0.228909 2:-0.397048 
1 1:-0.0810795 2:-0.130882 
1 1:-0.105166 2:0.103479 
1 1:0.105496 2:-0.230136 
1 1:0.228909 2:-0.397048 
1 1:-0.0810795 2:-0.130882 
1 1:-0.105166 2:0.103479 
1 1:0.105496 2:-0.230136 
1 1:0.228909 2:-0.397048 
1 1:-0.0810795 2:-0.130882 
1 1:-0.105166 2:0.103479 
1 1:0.105496 2:-0.230136 
1 1:0.228909 2:-0.397048 
1 1:-0.0810795 2:-0.130882 
1 1:-0.105166 2:0.103479 
1 1:0.105496 2:-0.230136 
1 1:0.228909 2:-0.397048 
1 1:-0.0810795 2:-0.130882 
1 1:-0.105166 2:0.103479 
1 1:0.105496 2:-0.230136 
1 1:0.228909 2:-0.397048 
1 1:-0.0810795 2:-0.130882 
1 1:-0.105166 2:0.103479 
1 1:0.105496 2:-0.230136 
1 1:0.228909 2:-0.397048 
1 1:-0.0810795 2:-0.130882 
1 1:-0.105166 2:0.103479 
1 1:0.105496 2:-0.230136 
1 1:0.228909 2:-0.397048 
1 1:-0.0810795 2:-0.130882 
1 1:-0.105166 2:0.103479 
1 1:0.105496 2:-0.230136 
1 1:0.228909 2:-0.397048 
1 1:-0.0810795 2:-0.130882 
1 1:-0.105166 2:0.103479 
1 1:0.105496 2:-0.230136 
1 1:0.228909 2:-0.397048 
1 1:-0.0810795 2:-0.130882 
1 1:-0.105166 2:0.103479 
1 1:0.105496 2:-0.230136 
1 1:0.228909 2:-0.397048 
1 1:-0.0810795 2:-0.130882 
1 1:-0.105166 2:0.103479 
1 1:0.105496 2:-0.230136 
1 1:0.228909 2:-0.397048 
1 1:-0.0810795 2:-0.130882 
1 1:-0.105166 2:0.103479 
1 1:0.105496 2:-0.230136 
1 1:0.228909 2:-0.397048 
1 1:-0.0810795 2:-0.130882 
1 1:-0.105166 2:0.103479 
1 1:0.105496 2:-0.230136 
1 1:0.228909 2:-0.397048 
1 1:-0.0810795 2:-0.130882 
1 1:-0.105166 2:0.103479 
1 1:0.105496 2:-0.230136 
1 1:0.228909 2:-0.397048 
1 1:-0.0810795 2:-0.130882 
1 1:-0.105166 2:0.103479 
1 1:0.105496 2:-0.230136 
1 1:0.228909 2:-0.397048 
1 1:-0.0810795 2:-0.130882 
1 1:-0.105166 2:0.103479 
1 1:0.105496 2:-0.230136 
1 1:0.228909 2:-0.397048 
1 1:-0.0810795 2:-0.130882 
1 1:-0.105166 2:0.103479 
1 1:0.105496 2:-0.230136 
1 1:0.228909 2:-0.397048 
1 1:-0.0810795 2:-0.130882 
1 1:-0.105166 2:0.103479 
1 1:0.105496 2:-0.230136 
1 1:0.228909 2:-0.397048 
1 1:-0.0810795 2:-0.130882 
1 1:-0.105166 2:0.103479 
1 1:0.105496 2:-0.230136 
1 1:0.228909 2:-0.397048 
1 1:-0.0810795 2:-0.130882 
1 1:-0.105166 2:0.103479 
1 1:0.105496 2:-0.230136 
1 1:0.228909 2:-0.397048 
1 1:-0.0810795 2:-0.130882 
1 1:-0.105166 2:0.103479 
1 1:0.105496 2:-0.230136 
1 1:0.228909 2:-0.397048 
1 1:-0.0810795 2:-0.130882 
1 1:-0.105166 2:0.103479 
1 1:0.105496 2:-0.230136 
1 1:0.228909 2:-0.397048 
1 1:-0.0810795 2:-0.130882 
1 1:-0.105166 2:0.103479 
1 1:0.105496 2:-0.230136 
1 1:0.228909 2:-0.397048 
1 1:-0.0810795 2:-0.130882 
1 1:-0.105166 2:0.103479 
1 1:0.105496 2:-0.230136 
1 1:0.228909 2:-0.397048 
1 1:-0.0810795 2:-0.130882 
1 1:-0.105166 2:0.103479 
1 1:0.105496 2:-0.230136 
1 1:0.228909 2:-0.397048 
1 1:-0.0810795 2:-0.130882 
1 1:-0.105166 2:0.103479 
1 1:0.105496 2:-0.230136 
1 1:0.228909 2:-0.397048 
1 1:-0.0810795 2:-0.130882 
1 1:-0.105166 2:0.103479 
1 1:0.105496 2:-0.230136 
1 1:0.228909 2:-0.397048 
1 1:-0.0810795 2:-0.130882 
1 1:-0.105166 2:0.103479 
1 1:0.105496 2:-0.230136 
1 1:0.228909 2:-0.397048 
1 1:-0.0810795 2:-0.130882 
1 1:-0.105166 2:0.103479 
1 1:0.105496 2:-0.230136 
1 1:0.228909 2:-0.397048 
1 1:-0.0810795 2:-0.130882 
1 1:-0.105166 2:0.103479 
1 1:0.105496 2:-0.230136 
1 1:0.228909 2:-0.397048 
1 1:0.173118 2:0.14167 
1 1:0.173118 2:0.14167 
1 1:0.173118 2:0.14167 
1 1:0.173118 2:0.14167 
1 1:0.173118 2:0.14167 
1 1:0.173118 2:0.14167 
1 1:0.173118 2:0.14167 
1 1:0.173118 2:0.14167 
1 1:0.173118 2:0.14167 
1 1:0.173118 2:0.14167 
1 1:0.173118 2:0.14167 
1 1:0.173118 2:0.14167 
1 1:0.173118 2:0.14167 
1 1:0.173118 2:0.14167 
1 1:0.173118 2:0.14167 
1 1:0.173118 2:0.14167 
1 1:0.173118 2:0.14167 
1 1:0.173118 2:0.14167 
1 1:0.173118 2:0.14167 
1 1:0.173118 2:0.14167 
1 1:0.173118 2:0.14167 
1 1:0.173118 2:0.14167 
1 1:0.173118 2:0.14167 
1 1:0.173118 2:0.14167 
1 1:0.173118 2:0.14167 
1 1:0.173118 2:0.14167 
1 1:0.173118 2:0.14167 
1 1:0.173118 2:0.14167 
1 1:0.173118 2:0.14167 
1 1:0.173118 2:0.14167 
1 1:0.173118 2:0.14167 
1 1:0.173118 2:0.14167 
1 1:0.173118 2:0.14167 
1 1:0.173118 2:0.14167 
1 1:0.173118 2:0.14167 
1 1:0.173118 2:0.14167 
1 1:0.173118 2:0.14167 
1 1:0.173118 2:0.14167 
1 1:0.173118 2:0.14167 
1 1:0.173118 2:0.14167 
1 1:0.173118 2:0.14167 
1 1:0.173118 2:0.14167 
1 1:0.173118 2:0.14167 
1 1:0.173118 2:0.14167 
1 1:0.173118 2:0.14167 
1 1:0.173118 2:0.14167 
1 1:0.173118 2:0.14167 
1 1:0.173118 2:0.14167 
1 1:0.173118 2:0.14167 
1 1:0.173118 2:0.14167 
1 1:0.173118 2:0.14167 
1 1:0.173118 2:0.14167 
1 1:0.173118 2:0.14167 
1 1:0.173118 2:0.14167 
1 1:0.173118 2:0.14167 
1 1:0.173118 2:0.14167 
1 1:0.173118 2:0.14167 
1 1:0.173118 2:0.14167 
1 1:0.173118 2:0.14167 
1 1:0.173118 2:0.14167 
1 1:0.173118 2:0.14167 
1 1:0.173118 2:0.14167 
1 1:0.173118 2:0.14167 
1 1:0.173118 2:0.14167 
1 1:0.173118 2:0.14167 
1 1:0.173118 2:0.14167 
1 1:0.173118 2:0.14167 
1 1:0.173118 2:0.14167 
1 1:0.173118 2:0.14167 
1 1:0.173118 2:0.14167 
1 1:0.173118 2:0.14167 
1 1:0.173118 2:0.14167 
1 1:0.173118 2:0.14167 
1 1:0.173118 2:0.14167 
1 1:0.173118 2:0.14167 
1 1:0.173118 2:0.14167 
1 1:0.173118 2:0.14167 
1 1:0.173118 2:0.14167 
1 1:0.173118 2:0.14167 
1 1:0.173118 2:0.14167 
1 1:0.173118 2:0.14167 
1 1:0.173118 2:0.14167 
1 1:0.173118 2:0.14167 
1 1:0.173118 2:0.14167 
1 1:0.173118 2:0.14167 
1 1:0.173118 2:0.14167 
1 1:0.173118 2:0.14167 
1 1:0.173118 2:0.14167 
1 1:0.173118 2:0.14167 
1 1:0.173118 2:0.14167 
1 1:0.173118 2:0.14167 
1 1:0.173118 2:0.14167 
1 1:0.173118 2:0.14167 
1 1:0.173118 2:0.14167 
1 1:0.173118 2:0.14167 
1 1:-0.935811 2:-0.860154 
1 1:-0.935811 2:-0.860154 
1 1:-0.935811 2:-0.860154 
1 1:-0.935811 2:-0.860154 
1 1:-0.935811 2:-0.860154 
1 1:-0.935811 2:-0.860154 
1 1:-0.935811 2:-0.860154 
1 1:-0.935811 2:-0.860154 
1 1:-0.935811 2:-0.860154 
1 1:-0.935811 2:-0.860154 
1 1:-0.935811 2:-0.860154 
1 1:-0.935811 2:-0.860154 
1 1:-0.935811 2:-0.860154 
1 1:-0.935811 2:-0.860154 
1 1:-0.935811 2:-0.860154 
1 1:-0.935811 2:-0.860154 
1 1:-0.935811 2:-0.860154 
1 1:-0.935811 2:-0.860154 
1 1:-0.935811 2:-0.860154 
1 1:-0.935811 2:-0.860154 
1 1:-0.935811 2:-0.860154 
1 1:-0.935811 2:-0.860154 
1 1:-0.935811 2:-0.860154 
1 1:-0.935811 2:-0.860154 
1 1:-0.935811 2:-0.860154 
1 1:-0.935811 2:-0.860154 
1 1:-0.935811 2:-0.860154 
1 1:-0.935811 2:-0.860154 
1 1:-0.935811 2:-0.860154 
1 1:-0.935811 2:-0.860154 
1 1:-0.935811 2:-0.860154 
1 1:-0.935811 2:-0.860154 
1 1:-0.935811 2:-0.860154 
1 1:-0.935811 2:-0.860154 
1 1:-0.935811 2:-0.860154 
1 1:-0.935811 2:-0.860154 
1 1:-0.935811 2:-0.860154 
1 1:-0.935811 2:-0.860154 
1 1:-0.918831 2:-0.887938 
1 1:-0.916211 2:-0.7726 
1 1:-0.918831 2:-0.887938 
1 1:-0.916211 2:-0.7726 
1 1:-0.918831 2:-0.887938 
1 1:-0.916211 2:-0.7726 
1 1:-0.918831 2:-0.887938 
1 1:-0.916211 2:-0.7726 
1 1:-0.918831 2:-0.887938 
1 1:-0.916211 2:-0.7726 
1 1:-0.918831 2:-0.887938 
1 1:-0.916211 2:-0.7726 
1 1:-0.918831 2:-0.887938 
1 1:-0.916211 2:-0.7726 
1 1:-0.918831 2:-0.887938 
1 1:-0.916211 2:-0.7726 
1 1:-0.918831 2:-0.887938 
1 1:-0.916211 2:-0.7726 
1 1:-0.918831 2:-0.887938 
1 1:-0.916211 2:-0.7726 
1 1:-0.918831 2:-0.887938 
1 1:-0.916211 2:-0.7726 
1 1:-0.918831 2:-0.887938 
1 1:-0.916211 2:-0.7726 
1 1:-0.918831 2:-0.887938 
1 1:-0.916211 2:-0.7726 
1 1:-0.918831 2:-0.887938 
1 1:-0.916211 2:-0.7726 
1 1:-0.918831 2:-0.887938 
1 1:-0.916211 2:-0.7726 
1 1:-0.918831 2:-0.887938 
1 1:-0.916211 2:-0.7726 
1 1:-0.918831 2:-0.887938 
1 1:-0.916211 2:-0.7726 
1 1:-0.918831 2:-0.887938 
1 1:-0.916211 2:-0.7726 
1 1:-0.918831 2:-0.887938 
1 1:-0.916211 2:-0.7726 
1 1:-0.918831 2:-0.887938 
1 1:-0.916211 2:-0.7726 
1 1:-0.918831 2:-0.887938 
1 1:-0.916211 2:-0.7726 
1 1:-0.918831 2:-0.887938 
1 1:-0.916211 2:-0.7726 
1 1:-0.918831 2:-0.887938 
1 1:-0.916211 2:-0.7726 
1 1:-0.918831 2:-0.887938 
1 1:-0.916211 2:-0.7726 
1 1:-0.918831 2:-0.887938 
1 1:-0.916211 2:-0.7726 
1 1:-0.918831 2:-0.887938 
1 1:-0.916211 2:-0.7726 
1 1:-0.918831 2:-0.887938 
1 1:-0.916211 2:-0.7726 
1 1:-0.918831 2:-0.887938 
1 1:-0.916211 2:-0.7726 
1 1:-0.918831 2:-0.887938 
1 1:-0.916211 2:-0.7726 
1 1:-0.918831 2:-0.887938 
1 1:-0.916211 2:-0.7726 
1 1:-0.918831 2:-0.887938 
1 1:-0.916211 2:-0.7726 
1 1:-0.918831 2:-0.887938 
1 1:-0.916211 2:-0.7726 
1 1:-0.918831 2:-0.887938 
1 1:-0.916211 2:-0.7726 
1 1:-0.918831 2:-0.887938 
1 1:-0.916211 2:-0.7726 
1 1:-0.918831 2:-0.887938 
1 1:-0.916211 2:-0.7726 
1 1:-0.918831 2:-0.887938 
1 1:-0.916211 2:-0.7726 
1 1:-0.918831 2:-0.887938 
1 1:-0.916211 2:-0.7726 
1 1:-0.918831 2:-0.887938 
1 1:-0.916211 2:-0.7726 
1 1:-0.918831 2:-0.887938 
1 1:-0.916211 2:-0.7726 
1 1:-0.918831 2:-0.887938 
1 1:-0.916211 2:-0.7726 
1 1:-0.918831 2:-0.887938 
1 1:-0.916211 2:-0.7726 
1 1:-0.918831 2:-0.887938 
1 1:-0.916211 2:-0.7726 
1 1:-0.918831 2:-0.887938 
1 1:-0.916211 2:-0.7726 
1 1:-0.918831 2:-0.887938 
1 1:-0.916211 2:-0.7726 
1 1:-0.918831 2:-0.887938 
1 1:-0.916211 2:-0.7726 
1 1:-0.918831 2:-0.887938 
1 1:-0.916211 2:-0.7726 
1 1:-0.918831 2:-0.887938 
1 1:-0.916211 2:-0.7726 
1 1:-0.918831 2:-0.887938 
1 1:-0.916211 2:-0.7726 
1 1:-0.918831 2:-0.887938 
1 1:-0.916211 2:-0.7726 
1 1:-0.918831 2:-0.887938 
1 1:-0.916211 2:-0.7726 
1 1:-0.918831 2:-0.887938 
1 1:-0.916211 2:-0.7726 
1 1:-0.918831 2:-0.887938 
1 1:-0.916211 2:-0.7726 
1 1:-0.918831 2:-0.887938 
1 1:-0.916211 2:-0.7726 
1 1:-0.918831 2:-0.887938 
1 1:-0.916211 2:-0.7726 
1 1:-0.918831 2:-0.887938 
1 1:-0.916211 2:-0.7726 
1 1:-0.918831 2:-0.887938 
1 1:-0.916211 2:-0.7726 
1 1:-0.918831 2:-0.887938 
1 1:-0.916211 2:-0.7726 
1 1:-0.918831 2:-0.887938 
1 1:-0.916211 2:-0.7726 
1 1:-0.918831 2:-0.887938 
1 1:-0.916211 2:-0.7726 
1 1:-0.918831 2:-0.887938 
1 1:-0.916211 2:-0.7726 
1 1:-0.918831 2:-0.887938 
1 1:-0.916211 2:-0.7726 
1 1:-0.918831 2:-0.887938 
1 1:-0.916211 2:-0.7726 
1 1:-0.918831 2:-0.887938 
1 1:-0.916211 2:-0.7726 
1 1:-0.918831 2:-0.887938 
1 1:-0.916211 2:-0.7726 
1 1:-0.918831 2:-0.887938 
1 1:-0.916211 2:-0.7726 
1 1:-0.918831 2:-0.887938 
1 1:-0.916211 2:-0.7726 
1 1:-0.918831 2:-0.887938 
1 1:-0.916211 2:-0.7726 
1 1:-0.918831 2:-0.887938 
1 1:-0.916211 2:-0.7726 
1 1:-0.918831 2:-0.887938 
1 1:-0.916211 2:-0.7726 
1 1:-0.918831 2:-0.887938 
1 1:-0.916211 2:-0.7726 
1 1:-0.918831 2:-0.887938 
1 1:-0.916211 2:-0.7726 
1 1:-0.918831 2:-0.887938 
1 1:-0.916211 2:-0.7726 
1 1:-0.918831 2:-0.887938 
1 1:-0.916211 2:-0.7726 
1 1:-0.918831 2:-0.887938 
1 1:-0.916211 2:-0.7726 
1 1:-0.918831 2:-0.887938 
1 1:-0.916211 2:-0.7726 
1 1:-0.918831 2:-0.887938 
1 1:-0.916211 2:-0.7726 
1 1:-0.918831 2:-0.887938 
1 1:-0.916211 2:-0.7726 
1 1:-0.918831 2:-0.887938 
1 1:-0.916211 2:-0.7726 
1 1:-0.918831 2:-0.887938 
1 1:-0.916211 2:-0.7726 
1 1:-0.918831 2:-0.887938 
1 1:-0.916211 2:-0.7726 
1 1:-0.918831 2:-0.887938 
1 1:-0.916211 2:-0.7726 
1 1:-0.918831 2:-0.887938 
1 1:-0.916211 2:-0.7726 
1 1:-0.918831 2:-0.887938 
1 1:-0.916211 2:-0.7726 
1 1:-0.918831 2:-0.887938 
1 1:-0.916211 2:-0.7726 
1 1:-0.918831 2:-0.887938 
1 1:-0.916211 2:-0.7726 
1 1:-0.918831 2:-0.887938 
1 1:-0.916211 2:-0.7726 
1 1:-0.918831 2:-0.887938 
1 1:-0.916211 2:-0.7726 
1 1:-0.918831 2:-0.887938 
1 1:-0.916211 2:-0.7726 
1 1:-0.918831 2:-0.887938 
1 1:-0.916211 2:-0.7726 
1 1:-0.918831 2:-0.887938 
1 1:-0.916211 2:-0.7726 
1 1:-0.918831 2:-0.887938 
1 1:-0.916211 2:-0.7726 
1 1:-0.918831 2:-0.887938 
1 1:-0.916211 2:-0.7726 
1 1:-0.918831 2:-0.887938 
1 1:-0.916211 2:-0.7726 
1 1:-0.918831 2:-0.887938 
1 1:-0.916211 2:-0.7726 
1 1:-0.918831 2:-0.887938 
1 1:-0.916211 2:-0.7726 
1 1:-0.918831 2:-0.887938 
1 1:-0.916211 2:-0.7726 
1 1:-0.924988 2:-0.938738 
1 1:-0.924988 2:-0.938738 
1 1:-0.924988 2:-0.938738 
1 1:-0.924988 2:-0.938738 
1 1:-0.924988 2:-0.938738 
1 1:-0.924988 2:-0.938738 
1 1:-0.924988 2:-0.938738 
1 1:-0.924988 2:-0.938738 
1 1:-0.924988 2:-0.938738 
1 1:-0.924988 2:-0.938738 
1 1:-0.924988 2:-0.938738 
1 1:-0.924988 2:-0.938738 
1 1:-0.924988 2:-0.938738 
1 1:-0.924988 2:-0.938738 
1 1:-0.924988 2:-0.938738 
1 1:-0.924988 2:-0.938738 
1 1:-0.924988 2:-0.938738 
1 1:-0.924988 2:-0.938738 
1 1:-0.924988 2:-0.938738 
1 1:-0.924988 2:-0.938738 
1 1:-0.924988 2:-0.938738 
1 1:-0.924988 2:-0.938738 
1 1:-0.924988 2:-0.938738 
1 1:-0.924988 2:-0.938738 
1 1:-0.924988 2:-0.938738 
1 1:-0.924988 2:-0.938738 
1 1:-0.924988 2:-0.938738 
1 1:-0.924988 2:-0.938738 
1 1:-0.924988 2:-0.938738 
1 1:-0.924988 2:-0.938738 
1 1:-0.924988 2:-0.938738 
1 1:-0.924988 2:-0.938738 
1 1:-0.924988 2:-0.938738 
1 1:-0.924988 2:-0.938738 
1 1:-0.924988 2:-0.938738 
1 1:-0.924988 2:-0.938738 
1 1:-0.924988 2:-0.938738 
1 1:-0.924988 2:-0.938738 
1 1:-0.924988 2:-0.938738 
1 1:-0.924988 2:-0.938738 
1 1:-0.924988 2:-0.938738 
1 1:-0.924988 2:-0.938738 
1 1:-0.924988 2:-0.938738 
1 1:-0.924988 2:-0.938738 
1 1:-0.924988 2:-0.938738 
1 1:-0.924988 2:-0.938738 
1 1:-0.924988 2:-0.938738 
1 1:-0.924988 2:-0.938738 
1 1:-0.924988 2:-0.938738 
1 1:-0.924988 2:-0.938738 
1 1:-0.924988 2:-0.938738 
1 1:-0.924988 2:-0.938738 
1 1:-0.924988 2:-0.938738 
1 1:-0.924988 2:-0.938738 
1 1:-0.924988 2:-0.938738 
1 1:-0.924988 2:-0.938738 
1 1:-0.924988 2:-0.938738 
1 1:-0.924988 2:-0.938738 
1 1:-0.924988 2:-0.938738 
1 1:-0.924988 2:-0.938738 
1 1:-0.924988 2:-0.938738 
1 1:-0.924988 2:-0.938738 
1 1:-0.924988 2:-0.938738 
1 1:-0.924988 2:-0.938738 
1 1:-0.924988 2:-0.938738 
1 1:-0.924988 2:-0.938738 
1 1:-0.924988 2:-0.938738 
1 1:-0.924988 2:-0.938738 
1 1:-0.924988 2:-0.938738 
1 1:-0.924988 2:-0.938738 
1 1:-0.924988 2:-0.938738 
1 1:-0.924988 2:-0.938738 
1 1:-0.924988 2:-0.938738 
1 1:-0.924988 2:-0.938738 
1 1:-0.924988 2:-0.938738 
1 1:-0.924988 2:-0.938738 
1 1:-0.924988 2:-0.938738 
1 1:-0.924988 2:-0.938738 
1 1:-0.924988 2:-0.938738 
1 1:-0.924988 2:-0.938738 
1 1:-0.924988 2:-0.938738 
1 1:-0.924988 2:-0.938738 
1 1:-0.924988 2:-0.938738 
1 1:-0.924988 2:-0.938738 
1 1:-0.924988 2:-0.938738 
1 1:-0.924988 2:-0.938738 
1 1:-0.924988 2:-0.938738 
1 1:-0.924988 2:-0.938738 
1 1:-0.924988 2:-0.938738 
1 1:-0.924988 2:-0.938738 
1 1:-0.924988 2:-0.938738 
1 1:-0.924988 2:-0.938738 
1 1:-0.924988 2:-0.938738 
1 1:-0.924988 2:-0.938738 
1 1:-0.95871 2:-0.944036 
1 1:-0.95871 2:-0.944036 
1 1:-0.95871 2:-0.944036 
1 1:-0.95871 2:-0.944036 
1 1:-0.95871 2:-0.944036 
1 1:-0.95871 2:-0.944036 
1 1:-0.95871 2:-0.944036 
1 1:-0.95871 2:-0.944036 
1 1:-0.95871 2:-0.944036 
1 1:-0.95871 2:-0.944036 
1 1:-0.95871 2:-0.944036 
1 1:-0.95871 2:-0.944036 
1 1:-0.95871 2:-0.944036 
1 1:-0.95871 2:-0.944036 
1 1:-0.95871 2:-0.944036 
1 1:-0.95871 2:-0.944036 
1 1:-0.95871 2:-0.944036 
1 1:-0.95871 2:-0.944036 
1 1:-0.95871 2:-0.944036 
1 1:-0.95871 2:-0.944036 
1 1:-0.95871 2:-0.944036 
1 1:-0.95871 2:-0.944036 
1 1:-0.95871 2:-0.944036 
1 1:-0.95871 2:-0.944036 
1 1:-0.95871 2:-0.944036 
1 1:-0.95871 2:-0.944036 
1 1:-0.95871 2:-0.944036 
1 1:-0.95871 2:-0.944036 
1 1:-0.95871 2:-0.944036 
1 1:-0.95871 2:-0.944036 
1 1:-0.95871 2:-0.944036 
1 1:-0.95871 2:-0.944036 
1 1:-0.95871 2:-0.944036 
1 1:-0.95871 2:-0.944036 
1 1:-0.95871 2:-0.944036 
1 1:-0.95871 2:-0.944036 
1 1:-0.95871 2:-0.944036 
1 1:-0.95871 2:-0.944036 
1 1:-0.95871 2:-0.944036 
1 1:-0.95871 2:-0.944036 
1 1:-0.95871 2:-0.944036 
1 1:-0.95871 2:-0.944036 
1 1:-0.95871 2:-0.944036 
1 1:-0.95871 2:-0.944036 
1 1:-0.95871 2:-0.944036 
1 1:-0.95871 2:-0.944036 
1 1:-0.95871 2:-0.944036 
1 1:-0.95871 2:-0.944036 
1 1:-0.95871 2:-0.944036 
1 1:-0.95871 2:-0.944036 
1 1:-0.95871 2:-0.944036 
1 1:-0.95871 2:-0.944036 
1 1:-0.95871 2:-0.944036 
1 1:-0.95871 2:-0.944036 
1 1:-0.95871 2:-0.944036 
1 1:-0.95871 2:-0.944036 
1 1:-0.95871 2:-0.944036 
1 1:-0.95871 2:-0.944036 
1 1:-0.95871 2:-0.944036 
1 1:-0.95871 2:-0.944036 
1 1:-0.95871 2:-0.944036 
1 1:-0.95871 2:-0.944036 
1 1:-0.95871 2:-0.944036 
1 1:-0.95871 2:-0.944036 
1 1:-0.95871 2:-0.944036 
1 1:-0.95871 2:-0.944036 
1 1:-0.95871 2:-0.944036 
1 1:-0.95871 2:-0.944036 
1 1:-0.95871 2:-0.944036 
1 1:-0.95871 2:-0.944036 
1 1:-0.95871 2:-0.944036 
1 1:-0.95871 2:-0.944036 
1 1:-0.95871 2:-0.944036 
1 1:-0.95871 2:-0.944036 
1 1:-0.95871 2:-0.944036 
1 1:-0.95871 2:-0.944036 
1 1:-0.95871 2:-0.944036 
1 1:-0.95871 2:-0.944036 
1 1:-0.95871 2:-0.944036 
1 1:-0.95871 2:-0.944036 
1 1:-0.95871 2:-0.944036 
1 1:-0.95871 2:-0.944036 
1 1:-0.95871 2:-0.944036 
1 1:-0.95871 2:-0.944036 
1 1:-0.95871 2:-0.944036 
1 1:-0.95871 2:-0.944036 
1 1:-0.95871 2:-0.944036 
1 1:-0.95871 2:-0.944036 
1 1:-0.95871 2:-0.944036 
1 1:-0.95871 2:-0.944036 
1 1:-0.95871 2:-0.944036 
1 1:-0.95871 2:-0.944036 
1 1:-0.95871 2:-0.944036 
1 1:-0.95871 2:-0.944036 
1 1:-0.9451 2:-0.912846 
1 1:-0.9451 2:-0.912846 
1 1:-0.9451 2:-0.912846 
1 1:-0.9451 2:-0.912846 
1 1:-0.9451 2:-0.912846 
1 1:-0.9451 2:-0.912846 
1 1:-0.9451 2:-0.912846 
1 1:-0.9451 2:-0.912846 
1 1:-0.9451 2:-0.912846 
1 1:-0.9451 2:-0.912846 
1 1:-0.9451 2:-0.912846 
1 1:-0.9451 2:-0.912846 
1 1:-0.9451 2:-0.912846 
1 1:-0.9451 2:-0.912846 
1 1:-0.9451 2:-0.912846 
1 1:-0.9451 2:-0.912846 
1 1:-0.9451 2:-0.912846 
1 1:-0.9451 2:-0.912846 
1 1:-0.9451 2:-0.912846 
1 1:-0.9451 2:-0.912846 
1 1:-0.9451 2:-0.912846 
1 1:-0.9451 2:-0.912846 
1 1:-0.9451 2:-0.912846 
1 1:-0.9451 2:-0.912846 
1 1:-0.9451 2:-0.912846 
1 1:-0.9451 2:-0.912846 
1 1:-0.9451 2:-0.912846 
1 1:-0.9451 2:-0.912846 
1 1:-0.9451 2:-0.912846 
1 1:-0.9451 2:-0.912846 
1 1:-0.9451 2:-0.912846 
1 1:-0.9451 2:-0.912846 
1 1:-0.9451 2:-0.912846 
1 1:-0.9451 2:-0.912846 
1 1:-0.9451 2:-0.912846 
1 1:-0.9451 2:-0.912846 
1 1:-0.9451 2:-0.912846 
1 1:-0.9451 2:-0.912846 
1 1:-0.9451 2:-0.912846 
1 1:-0.9451 2:-0.912846 
1 1:-0.9451 2:-0.912846 
1 1:-0.9451 2:-0.912846 
1 1:-0.9451 2:-0.912846 
1 1:-0.9451 2:-0.912846 
1 1:-0.9451 2:-0.912846 
1 1:-0.9451 2:-0.912846 
1 1:-0.9451 2:-0.912846 
1 1:-0.9451 2:-0.912846 
1 1:-0.9451 2:-0.912846 
1 1:-0.9451 2:-0.912846 
1 1:-0.9451 2:-0.912846 
1 1:-0.9451 2:-0.912846 
1 1:-0.9451 2:-0.912846 
1 1:-0.9451 2:-0.912846 
1 1:-0.9451 2:-0.912846 
1 1:-0.9451 2:-0.912846 
1 1:-0.9451 2:-0.912846 
1 1:-0.9451 2:-0.912846 
1 1:-0.9451 2:-0.912846 
1 1:-0.9451 2:-0.912846 
1 1:-0.9451 2:-0.912846 
1 1:-0.9451 2:-0.912846 
1 1:-0.9451 2:-0.912846 
1 1:-0.9451 2:-0.912846 
1 1:-0.9451 2:-0.912846 
1 1:-0.9451 2:-0.912846 
1 1:-0.9451 2:-0.912846 
1 1:-0.9451 2:-0.912846 
1 1:-0.9451 2:-0.912846 
1 1:-0.9451 2:-0.912846 
1 1:-0.9451 2:-0.912846 
1 1:-0.9451 2:-0.912846 
1 1:-0.9451 2:-0.912846 
1 1:-0.9451 2:-0.912846 
1 1:-0.9451 2:-0.912846 
1 1:-0.9451 2:-0.912846 
1 1:-0.9451 2:-0.912846 
1 1:-0.9451 2:-0.912846 
1 1:-0.9451 2:-0.912846 
1 1:-0.9451 2:-0.912846 
1 1:-0.9451 2:-0.912846 
1 1:-0.9451 2:-0.912846 
1 1:-0.9451 2:-0.912846 
1 1:-0.9451 2:-0.912846 
1 1:-0.9451 2:-0.912846 
1 1:-0.9451 2:-0.912846 
1 1:-0.9451 2:-0.912846 
1 1:-0.9451 2:-0.912846 
1 1:-0.9451 2:-0.912846 
1 1:-0.9451 2:-0.912846 
1 1:-0.9451 2:-0.912846 
1 1:-0.9451 2:-0.912846 
1 1:-0.9451 2:-0.912846 
1 1:-0.9451 2:-0.912846 
1 1:-0.973652 2:-0.928072 
1 1:-0.973652 2:-0.928072 
1 1:-0.973652 2:-0.928072 
1 1:-0.973652 2:-0.928072 
1 1:-0.973652 2:-0.928072 
1 1:-0.973652 2:-0.928072 
1 1:-0.973652 2:-0.928072 
1 1:-0.973652 2:-0.928072 
1 1:-0.973652 2:-0.928072 
1 1:-0.973652 2:-0.928072 
1 1:-0.973652 2:-0.928072 
1 1:-0.973652 2:-0.928072 
1 1:-0.973652 2:-0.928072 
1 1:-0.973652 2:-0.928072 
1 1:-0.973652 2:-0.928072 
1 1:-0.973652 2:-0.928072 
1 1:-0.973652 2:-0.928072 
1 1:-0.973652 2:-0.928072 
1 1:-0.973652 2:-0.928072 
1 1:-0.973652 2:-0.928072 
1 1:-0.973652 2:-0.928072 
1 1:-0.973652 2:-0.928072 
1 1:-0.973652 2:-0.928072 
1 1:-0.973652 2:-0.928072 
1 1:-0.973652 2:-0.928072 
1 1:-0.973652 2:-0.928072 
1 1:-0.973652 2:-0.928072 
1 1:-0.973652 2:-0.928072 
1 1:-0.973652 2:-0.928072 
1 1:-0.973652 2:-0.928072 
1 1:-0.973652 2:-0.928072 
1 1:-0.973652 2:-0.928072 
1 1:-0.973652 2:-0.928072 
1 1:-0.973652 2:-0.928072 
1 1:-0.973652 2:-0.928072 
1 1:-0.973652 2:-0.928072 
1 1:-0.973652 2:-0.928072 
1 1:-0.973652 2:-0.928072 
1 1:-0.973652 2:-0.928072 
1 1:-0.973652 2:-0.928072 
1 1:-0.973652 2:-0.928072 
1 1:-0.973652 2:-0.928072 
1 1:-0.973652 2:-0.928072 
1 1:-0.973652 2:-0.928072 
1 1:-0.973652 2:-0.928072 
1 1:-0.973652 2:-0.928072 
1 1:-0.973652 2:-0.928072 
1 1:-0.973652 2:-0.928072 
1 1:-0.973652 2:-0.928072 
1 1:-0.973652 2:-0.928072 
1 1:-0.973652 2:-0.928072 
1 1:-0.973652 2:-0.928072 
1 1:-0.973652 2:-0.928072 
1 1:-0.973652 2:-0.928072 
1 1:-0.973652 2:-0.928072 
1 1:-0.973652 2:-0.928072 
1 1:-0.973652 2:-0.928072 
1 1:-0.973652 2:-0.928072 
1 1:-0.973652 2:-0.928072 
1 1:-0.973652 2:-0.928072 
1 1:-0.973652 2:-0.928072 
1 1:-0.973652 2:-0.928072 
1 1:-0.973652 2:-0.928072 
1 1:-0.973652 2:-0.928072 
1 1:-0.973652 2:-0.928072 
1 1:-0.973652 2:-0.928072 
1 1:-0.973652 2:-0.928072 
1 1:-0.973652 2:-0.928072 
1 1:-0.973652 2:-0.928072 
1 1:-0.973652 2:-0.928072 
1 1:-0.973652 2:-0.928072 
1 1:-0.973652 2:-0.928072 
1 1:-0.973652 2:-0.928072 
1 1:-0.973652 2:-0.928072 
1 1:-0.973652 2:-0.928072 
1 1:-0.973652 2:-0.928072 
1 1:-0.973652 2:-0.928072 
1 1:-0.973652 2:-0.928072 
1 1:-0.973652 2:-0.928072 
1 1:-0.973652 2:-0.928072 
1 1:-0.973652 2:-0.928072 
1 1:-0.973652 2:-0.928072 
1 1:-0.973652 2:-0.928072 
1 1:-0.973652 2:-0.928072 
1 1:-0.973652 2:-0.928072 
1 1:-0.973652 2:-0.928072 
1 1:-0.973652 2:-0.928072 
1 1:-0.973652 2:-0.928072 
1 1:-0.973652 2:-0.928072 
1 1:-0.973652 2:-0.928072 
1 1:-0.973652 2:-0.928072 
1 1:-0.973652 2:-0.928072 
1 1:-0.973652 2:-0.928072 
1 1:-0.973652 2:-0.928072 
1 1:-0.973652 2:-0.928072 
1 1:-0.973652 2:-0.928072 
1 1:-0.941937 2:-0.917609 
1 1:-0.941937 2:-0.917609 
1 1:-0.941937 2:-0.917609 
1 1:-0.941937 2:-0.917609 
1 1:-0.941937 2:-0.917609 
1 1:-0.941937 2:-0.917609 
1 1:-0.941937 2:-0.917609 
1 1:-0.941937 2:-0.917609 
1 1:-0.941937 2:-0.917609 
1 1:-0.941937 2:-0.917609 
1 1:-0.941937 2:-0.917609 
1 1:-0.941937 2:-0.917609 
1 1:-0.941937 2:-0.917609 
1 1:-0.941937 2:-0.917609 
1 1:-0.941937 2:-0.917609 
1 1:-0.941937 2:-0.917609 
1 1:-0.941937 2:-0.917609 
1 1:-0.941937 2:-0.917609 
1 1:-0.941937 2:-0.917609 
1 1:-0.941937 2:-0.917609 
1 1:-0.941937 2:-0.917609 
1 1:-0.941937 2:-0.917609 
1 1:-0.941937 2:-0.917609 
1 1:-0.941937 2:-0.917609 
1 1:-0.941937 2:-0.917609 
1 1:-0.941937 2:-0.917609 
1 1:-0.941937 2:-0.917609 
1 1:-0.941937 2:-0.917609 
1 1:-0.941937 2:-0.917609 
1 1:-0.941937 2:-0.917609 
1 1:-0.941937 2:-0.917609 
1 1:-0.941937 2:-0.917609 
1 1:-0.941937 2:-0.917609 
1 1:-0.941937 2:-0.917609 
1 1:-0.941937 2:-0.917609 
1 1:-0.941937 2:-0.917609 
1 1:-0.941937 2:-0.917609 
1 1:-0.941937 2:-0.917609 
1 1:-0.941937 2:-0.917609 
1 1:-0.941937 2:-0.917609 
1 1:-0.941937 2:-0.917609 
1 1:-0.941937 2:-0.917609 
1 1:-0.941937 2:-0.917609 
1 1:-0.941937 2:-0.917609 
1 1:-0.941937 2:-0.917609 
1 1:-0.941937 2:-0.917609 
1 1:-0.941937 2:-0.917609 
1 1:-0.941937 2:-0.917609 
1 1:-0.941937 2:-0.917609 
1 1:-0.941937 2:-0.917609 
1 1:-0.941937 2:-0.917609 
1 1:-0.941937 2:-0.917609 
1 1:-0.941937 2:-0.917609 
1 1:-0.941937 2:-0.917609 
1 1:-0.941937 2:-0.917609 
1 1:-0.941937 2:-0.917609 
1 1:-0.941937 2:-0.917609 
1 1:-0.941937 2:-0.917609 
1 1:-0.941937 2:-0.917609 
1 1:-0.941937 2:-0.917609 
1 1:-0.941937 2:-0.917609 
1 1:-0.941937 2:-0.917609 
1 1:-0.941937 2:-0.917609 
1 1:-0.941937 2:-0.917609 
1 1:-0.941937 2:-0.917609 
1 1:-0.941937 2:-0.917609 
1 1:-0.941937 2:-0.917609 
1 1:-0.941937 2:-0.917609 
1 1:-0.941937 2:-0.917609 
1 1:-0.941937 2:-0.917609 
1 1:-0.941937 2:-0.917609 
1 1:-0.941937 2:-0.917609 
1 1:-0.941937 2:-0.917609 
1 1:-0.941937 2:-0.917609 
1 1:-0.941937 2:-0.917609 
1 1:-0.941937 2:-0.917609 
1 1:-0.941937 2:-0.917609 
1 1:-0.941937 2:-0.917609 
1 1:-0.941937 2:-0.917609 
1 1:-0.941937 2:-0.917609 
1 1:-0.941937 2:-0.917609 
1 1:-0.941937 2:-0.917609 
1 1:-0.941937 2:-0.917609 
1 1:-0.941937 2:-0.917609 
1 1:-0.941937 2:-0.917609 
1 1:-0.941937 2:-0.917609 
1 1:-0.941937 2:-0.917609 
1 1:-0.941937 2:-0.917609 
1 1:-0.941937 2:-0.917609 
1 1:-0.941937 2:-0.917609 
1 1:-0.941937 2:-0.917609 
1 1:-0.941937 2:-0.917609 
1 1:-0.941937 2:-0.917609 
1 1:-0.941937 2:-0.917609 
1 1:-0.946498 2:-0.89692 
1 1:-0.946498 2:-0.89692 
1 1:-0.946498 2:-0.89692 
1 1:-0.946498 2:-0.89692 
1 1:-0.946498 2:-0.89692 
1 1:-0.946498 2:-0.89692 
1 1:-0.946498 2:-0.89692 
1 1:-0.946498 2:-0.89692 
1 1:-0.946498 2:-0.89692 
1 1:-0.946498 2:-0.89692 
1 1:-0.946498 2:-0.89692 
1 1:-0.946498 2:-0.89692 
1 1:-0.946498 2:-0.89692 
1 1:-0.946498 2:-0.89692 
1 1:-0.946498 2:-0.89692 
1 1:-0.946498 2:-0.89692 
1 1:-0.946498 2:-0.89692 
1 1:-0.946498 2:-0.89692 
1 1:-0.946498 2:-0.89692 
1 1:-0.946498 2:-0.89692 
1 1:-0.946498 2:-0.89692 
1 1:-0.946498 2:-0.89692 
1 1:-0.946498 2:-0.89692 
1 1:-0.946498 2:-0.89692 
1 1:-0.946498 2:-0.89692 
1 1:-0.946498 2:-0.89692 
1 1:-0.946498 2:-0.89692 
1 1:-0.946498 2:-0.89692 
1 1:-0.946498 2:-0.89692 
1 1:-0.946498 2:-0.89692 
1 1:-0.946498 2:-0.89692 
1 1:-0.946498 2:-0.89692 
1 1:-0.946498 2:-0.89692 
1 1:-0.946498 2:-0.89692 
1 1:-0.946498 2:-0.89692 
1 1:-0.946498 2:-0.89692 
1 1:-0.946498 2:-0.89692 
1 1:-0.946498 2:-0.89692 
1 1:-0.946498 2:-0.89692 
1 1:-0.946498 2:-0.89692 
1 1:-0.946498 2:-0.89692 
1 1:-0.946498 2:-0.89692 
1 1:-0.946498 2:-0.89692 
1 1:-0.946498 2:-0.89692 
1 1:-0.946498 2:-0.89692 
1 1:-0.946498 2:-0.89692 
1 1:-0.946498 2:-0.89692 
1 1:-0.946498 2:-0.89692 
1 1:-0.946498 2:-0.89692 
1 1:-0.946498 2:-0.89692 
1 1:-0.946498 2:-0.89692 
1 1:-0.946498 2:-0.89692 
1 1:-0.946498 2:-0.89692 
1 1:-0.946498 2:-0.89692 
1 1:-0.946498 2:-0.89692 
1 1:-0.946498 2:-0.89692 
1 1:-0.946498 2:-0.89692 
1 1:-0.946498 2:-0.89692 
1 1:-0.946498 2:-0.89692 
1 1:-0.946498 2:-0.89692 
1 1:-0.946498 2:-0.89692 
1 1:-0.946498 2:-0.89692 
1 1:-0.946498 2:-0.89692 
1 1:-0.946498 2:-0.89692 
1 1:-0.946498 2:-0.89692 
1 1:-0.946498 2:-0.89692 
1 1:-0.946498 2:-0.89692 
1 1:-0.946498 2:-0.89692 
1 1:-0.946498 2:-0.89692 
1 1:-0.946498 2:-0.89692 
1 1:-0.946498 2:-0.89692 
1 1:-0.946498 2:-0.89692 
1 1:-0.946498 2:-0.89692 
1 1:-0.946498 2:-0.89692 
1 1:-0.946498 2:-0.89692 
1 1:-0.946498 2:-0.89692 
1 1:-0.946498 2:-0.89692 
1 1:-0.946498 2:-0.89692 
1 1:-0.946498 2:-0.89692 
1 1:-0.946498 2:-0.89692 
1 1:-0.946498 2:-0.89692 
1 1:-0.946498 2:-0.89692 
1 1:-0.946498 2:-0.89692 
1 1:-0.946498 2:-0.89692 
1 1:-0.946498 2:-0.89692 
1 1:-0.946498 2:-0.89692 
1 1:-0.946498 2:-0.89692 
1 1:-0.946498 2:-0.89692 
1 1:-0.946498 2:-0.89692 
1 1:-0.946498 2:-0.89692 
1 1:-0.946498 2:-0.89692 
1 1:-0.946498 2:-0.89692 
1 1:-0.946498 2:-0.89692 
1 1:-0.946498 2:-0.89692 
1 1:-0.946498 2:-0.89692 
1 1:-0.946498 2:-0.89692 
1 1:-0.970608 2:-0.88837 
1 1:-0.970608 2:-0.88837 
1 1:-0.970608 2:-0.88837 
1 1:-0.970608 2:-0.88837 
1 1:-0.970608 2:-0.88837 
1 1:-0.970608 2:-0.88837 
1 1:-0.970608 2:-0.88837 
1 1:-0.970608 2:-0.88837 
1 1:-0.970608 2:-0.88837 
1 1:-0.970608 2:-0.88837 
1 1:-0.970608 2:-0.88837 
1 1:-0.970608 2:-0.88837 
1 1:-0.970608 2:-0.88837 
1 1:-0.970608 2:-0.88837 
1 1:-0.970608 2:-0.88837 
1 1:-0.970608 2:-0.88837 
1 1:-0.970608 2:-0.88837 
1 1:-0.970608 2:-0.88837 
1 1:-0.970608 2:-0.88837 
1 1:-0.970608 2:-0.88837 
1 1:-0.970608 2:-0.88837 
1 1:-0.970608 2:-0.88837 
1 1:-0.970608 2:-0.88837 
1 1:-0.970608 2:-0.88837 
1 1:-0.970608 2:-0.88837 
1 1:-0.970608 2:-0.88837 
1 1:-0.970608 2:-0.88837 
1 1:-0.970608 2:-0.88837 
1 1:-0.970608 2:-0.88837 
1 1:-0.970608 2:-0.88837 
1 1:-0.970608 2:-0.88837 
1 1:-0.970608 2:-0.88837 
1 1:-0.970608 2:-0.88837 
1 1:-0.970608 2:-0.88837 
1 1:-0.970608 2:-0.88837 
1 1:-0.970608 2:-0.88837 
1 1:-0.970608 2:-0.88837 
1 1:-0.970608 2:-0.88837 
1 1:-0.970608 2:-0.88837 
1 1:-0.970608 2:-0.88837 
1 1:-0.970608 2:-0.88837 
1 1:-0.970608 2:-0.88837 
1 1:-0.970608 2:-0.88837 
1 1:-0.970608 2:-0.88837 
1 1:-0.970608 2:-0.88837 
1 1:-0.970608 2:-0.88837 
1 1:-0.970608 2:-0.88837 
1 1:-0.970608 2:-0.88837 
1 1:-0.970608 2:-0.88837 
