svm_type one_class
kernel_type rbf
gamma 0.5
nr_class 2
total_sv 24142
rho 23566.1
SV
1 1:-0.994539 2:-0.995711 
1 1:-0.994539 2:-0.995711 
1 1:-0.994539 2:-0.995711 
1 1:-0.994539 2:-0.995711 
1 1:-0.994539 2:-0.995711 
1 1:-0.994539 2:-0.995711 
1 1:-0.994539 2:-0.995711 
1 1:-0.994539 2:-0.995711 
1 1:-0.994539 2:-0.995711 
1 1:-0.994539 2:-0.995711 
1 1:-0.994539 2:-0.995711 
1 1:-0.994539 2:-0.995711 
1 1:-0.994539 2:-0.995711 
1 1:-0.994539 2:-0.995711 
1 1:-0.994539 2:-0.995711 
1 1:-0.994539 2:-0.995711 
1 1:-0.994539 2:-0.995711 
1 1:-0.994539 2:-0.995711 
1 1:-0.994539 2:-0.995711 
1 1:-0.994539 2:-0.995711 
1 1:-0.994539 2:-0.995711 
1 1:-0.994539 2:-0.995711 
1 1:-0.994539 2:-0.995711 
1 1:-0.994539 2:-0.995711 
1 1:-0.994539 2:-0.995711 
1 1:-0.994539 2:-0.995711 
1 1:-0.994539 2:-0.995711 
1 1:-0.994539 2:-0.995711 
1 1:-0.994539 2:-0.995711 
1 1:-0.994539 2:-0.995711 
1 1:-0.994539 2:-0.995711 
1 1:-0.994539 2:-0.995711 
1 1:-0.994539 2:-0.995711 
1 1:-0.994539 2:-0.995711 
1 1:-0.994539 2:-0.995711 
1 1:-0.994539 2:-0.995711 
1 1:-0.994539 2:-0.995711 
1 1:-0.994539 2:-0.995711 
1 1:-0.994539 2:-0.995711 
1 1:-0.994539 2:-0.995711 
1 1:-0.994539 2:-0.995711 
1 1:-0.994539 2:-0.995711 
1 1:-0.994539 2:-0.995711 
1 1:-0.994539 2:-0.995711 
1 1:-0.994539 2:-0.995711 
1 1:-0.994539 2:-0.995711 
1 1:-0.994539 2:-0.995711 
1 1:-0.994539 2:-0.995711 
1 1:-0.994539 2:-0.995711 
1 1:-0.994539 2:-0.995711 
1 1:-0.994539 2:-0.995711 
1 1:-0.994539 2:-0.995711 
1 1:-0.994539 2:-0.995711 
1 1:-0.994539 2:-0.995711 
1 1:-0.994539 2:-0.995711 
1 1:-0.994539 2:-0.995711 
1 1:-0.994539 2:-0.995711 
1 1:-0.994539 2:-0.995711 
1 1:-0.994539 2:-0.995711 
1 1:-0.994539 2:-0.995711 
1 1:-0.994539 2:-0.995711 
1 1:-0.994539 2:-0.995711 
1 1:-0.994539 2:-0.995711 
1 1:-0.994539 2:-0.995711 
1 1:-0.994539 2:-0.995711 
1 1:-0.994539 2:-0.995711 
1 1:-0.994539 2:-0.995711 
1 1:-0.994539 2:-0.995711 
1 1:-0.994539 2:-0.995711 
1 1:-0.994539 2:-0.995711 
1 1:-0.994539 2:-0.995711 
1 1:-0.994539 2:-0.995711 
1 1:-0.994539 2:-0.995711 
1 1:-0.994539 2:-0.995711 
1 1:-0.994539 2:-0.995711 
1 1:-0.994539 2:-0.995711 
1 1:-0.994539 2:-0.995711 
1 1:-0.994539 2:-0.995711 
1 1:-0.994539 2:-0.995711 
1 1:-0.994539 2:-0.995711 
1 1:-0.994539 2:-0.995711 
1 1:-0.994539 2:-0.995711 
1 1:-0.994539 2:-0.995711 
1 1:-0.994539 2:-0.995711 
1 1:-0.994539 2:-0.995711 
1 1:-0.994539 2:-0.995711 
1 1:-0.994539 2:-0.995711 
1 1:-0.994539 2:-0.995711 
1 1:-0.994539 2:-0.995711 
1 1:-0.994539 2:-0.995711 
1 1:-0.994539 2:-0.995711 
1 1:-0.994539 2:-0.995711 
1 1:-0.994539 2:-0.995711 
1 1:-0.994539 2:-0.995711 
1 1:-0.994539 2:-0.995711 
1 1:-0.994539 2:-0.995711 
1 1:-0.994539 2:-0.995711 
1 1:-0.994539 2:-0.995711 
1 1:-0.994539 2:-0.995711 
1 1:-0.996933 2:-0.990504 
1 1:-0.996933 2:-0.990504 
1 1:-0.996933 2:-0.990504 
1 1:-0.996933 2:-0.990504 
1 1:-0.996933 2:-0.990504 
1 1:-0.996933 2:-0.990504 
1 1:-0.996933 2:-0.990504 
1 1:-0.996933 2:-0.990504 
1 1:-0.996933 2:-0.990504 
1 1:-0.996933 2:-0.990504 
1 1:-0.996933 2:-0.990504 
1 1:-0.996933 2:-0.990504 
1 1:-0.996933 2:-0.990504 
1 1:-0.996933 2:-0.990504 
1 1:-0.996933 2:-0.990504 
1 1:-0.996933 2:-0.990504 
1 1:-0.996933 2:-0.990504 
1 1:-0.996933 2:-0.990504 
1 1:-0.996933 2:-0.990504 
1 1:-0.996933 2:-0.990504 
1 1:-0.996933 2:-0.990504 
1 1:-0.996933 2:-0.990504 
1 1:-0.996933 2:-0.990504 
1 1:-0.996933 2:-0.990504 
1 1:-0.996933 2:-0.990504 
1 1:-0.996933 2:-0.990504 
1 1:-0.996933 2:-0.990504 
1 1:-0.996933 2:-0.990504 
1 1:-0.996933 2:-0.990504 
1 1:-0.996933 2:-0.990504 
1 1:-0.996933 2:-0.990504 
1 1:-0.996933 2:-0.990504 
1 1:-0.996933 2:-0.990504 
1 1:-0.996933 2:-0.990504 
1 1:-0.996933 2:-0.990504 
1 1:-0.996933 2:-0.990504 
1 1:-0.996933 2:-0.990504 
1 1:-0.996933 2:-0.990504 
1 1:-0.996933 2:-0.990504 
1 1:-0.996933 2:-0.990504 
1 1:-0.996933 2:-0.990504 
1 1:-0.996933 2:-0.990504 
1 1:-0.996933 2:-0.990504 
1 1:-0.996933 2:-0.990504 
1 1:-0.996933 2:-0.990504 
1 1:-0.996933 2:-0.990504 
1 1:-0.996933 2:-0.990504 
1 1:-0.996933 2:-0.990504 
1 1:-0.996933 2:-0.990504 
1 1:-0.996933 2:-0.990504 
1 1:-0.996933 2:-0.990504 
1 1:-0.996933 2:-0.990504 
1 1:-0.996933 2:-0.990504 
1 1:-0.996933 2:-0.990504 
1 1:-0.996933 2:-0.990504 
1 1:-0.996933 2:-0.990504 
1 1:-0.996933 2:-0.990504 
1 1:-0.996933 2:-0.990504 
1 1:-0.996933 2:-0.990504 
1 1:-0.996933 2:-0.990504 
1 1:-0.996933 2:-0.990504 
1 1:-0.996933 2:-0.990504 
1 1:-0.996933 2:-0.990504 
1 1:-0.996933 2:-0.990504 
1 1:-0.996933 2:-0.990504 
1 1:-0.996933 2:-0.990504 
1 1:-0.996933 2:-0.990504 
1 1:-0.996933 2:-0.990504 
1 1:-0.996933 2:-0.990504 
1 1:-0.996933 2:-0.990504 
1 1:-0.996933 2:-0.990504 
1 1:-0.996933 2:-0.990504 
1 1:-0.996933 2:-0.990504 
1 1:-0.996933 2:-0.990504 
1 1:-0.996933 2:-0.990504 
1 1:-0.996933 2:-0.990504 
1 1:-0.996933 2:-0.990504 
1 1:-0.996933 2:-0.990504 
1 1:-0.996933 2:-0.990504 
1 1:-0.996933 2:-0.990504 
1 1:-0.996933 2:-0.990504 
1 1:-0.996933 2:-0.990504 
1 1:-0.996933 2:-0.990504 
1 1:-0.996933 2:-0.990504 
1 1:-0.996933 2:-0.990504 
1 1:-0.996933 2:-0.990504 
1 1:-0.996933 2:-0.990504 
1 1:-0.996933 2:-0.990504 
1 1:-0.996933 2:-0.990504 
1 1:-0.996933 2:-0.990504 
1 1:-0.996933 2:-0.990504 
1 1:-0.993169 2:-0.99209 
1 1:-0.993169 2:-0.99209 
1 1:-0.993169 2:-0.99209 
1 1:-0.993169 2:-0.99209 
1 1:-0.993169 2:-0.99209 
1 1:-0.993169 2:-0.99209 
1 1:-0.993169 2:-0.99209 
1 1:-0.993169 2:-0.99209 
1 1:-0.993169 2:-0.99209 
1 1:-0.993169 2:-0.99209 
1 1:-0.993169 2:-0.99209 
1 1:-0.993169 2:-0.99209 
1 1:-0.993169 2:-0.99209 
1 1:-0.993169 2:-0.99209 
1 1:-0.993169 2:-0.99209 
1 1:-0.993169 2:-0.99209 
1 1:-0.993169 2:-0.99209 
1 1:-0.993169 2:-0.99209 
1 1:-0.993169 2:-0.99209 
1 1:-0.993169 2:-0.99209 
1 1:-0.993169 2:-0.99209 
1 1:-0.993169 2:-0.99209 
1 1:-0.993169 2:-0.99209 
1 1:-0.993169 2:-0.99209 
1 1:-0.993169 2:-0.99209 
1 1:-0.993169 2:-0.99209 
1 1:-0.993169 2:-0.99209 
1 1:-0.993169 2:-0.99209 
1 1:-0.993169 2:-0.99209 
1 1:-0.993169 2:-0.99209 
1 1:-0.993169 2:-0.99209 
1 1:-0.993169 2:-0.99209 
1 1:-0.993169 2:-0.99209 
1 1:-0.993169 2:-0.99209 
1 1:-0.993169 2:-0.99209 
1 1:-0.993169 2:-0.99209 
1 1:-0.993169 2:-0.99209 
1 1:-0.993169 2:-0.99209 
1 1:-0.993169 2:-0.99209 
1 1:-0.993169 2:-0.99209 
1 1:-0.993169 2:-0.99209 
1 1:-0.993169 2:-0.99209 
1 1:-0.993169 2:-0.99209 
1 1:-0.993169 2:-0.99209 
1 1:-0.993169 2:-0.99209 
1 1:-0.993169 2:-0.99209 
1 1:-0.993169 2:-0.99209 
1 1:-0.993169 2:-0.99209 
1 1:-0.993169 2:-0.99209 
1 1:-0.993169 2:-0.99209 
1 1:-0.993169 2:-0.99209 
1 1:-0.993169 2:-0.99209 
1 1:-0.993169 2:-0.99209 
1 1:-0.993169 2:-0.99209 
1 1:-0.993169 2:-0.99209 
1 1:-0.993169 2:-0.99209 
1 1:-0.993169 2:-0.99209 
1 1:-0.993169 2:-0.99209 
1 1:-0.993169 2:-0.99209 
1 1:-0.993169 2:-0.99209 
1 1:-0.993169 2:-0.99209 
1 1:-0.993169 2:-0.99209 
1 1:-0.993169 2:-0.99209 
1 1:-0.993169 2:-0.99209 
1 1:-0.993169 2:-0.99209 
1 1:-0.993169 2:-0.99209 
1 1:-0.993169 2:-0.99209 
1 1:-0.993169 2:-0.99209 
1 1:-0.993169 2:-0.99209 
1 1:-0.993169 2:-0.99209 
1 1:-0.993169 2:-0.99209 
1 1:-0.993169 2:-0.99209 
1 1:-0.993169 2:-0.99209 
1 1:-0.993169 2:-0.99209 
1 1:-0.993169 2:-0.99209 
1 1:-0.993169 2:-0.99209 
1 1:-0.993169 2:-0.99209 
1 1:-0.993169 2:-0.99209 
1 1:-0.993169 2:-0.99209 
1 1:-0.993169 2:-0.99209 
1 1:-0.993169 2:-0.99209 
1 1:-0.993169 2:-0.99209 
1 1:-0.993169 2:-0.99209 
1 1:-0.993169 2:-0.99209 
1 1:-0.993169 2:-0.99209 
1 1:-0.993169 2:-0.99209 
1 1:-0.993169 2:-0.99209 
1 1:-0.993169 2:-0.99209 
1 1:-0.993169 2:-0.99209 
1 1:-0.993169 2:-0.99209 
1 1:-0.993169 2:-0.99209 
1 1:-0.993169 2:-0.99209 
1 1:-0.996677 2:-0.987756 
1 1:-0.996677 2:-0.987756 
1 1:-0.996677 2:-0.987756 
1 1:-0.996677 2:-0.987756 
1 1:-0.996677 2:-0.987756 
1 1:-0.996677 2:-0.987756 
1 1:-0.996677 2:-0.987756 
1 1:-0.996677 2:-0.987756 
1 1:-0.996677 2:-0.987756 
1 1:-0.996677 2:-0.987756 
1 1:-0.996677 2:-0.987756 
1 1:-0.996677 2:-0.987756 
1 1:-0.996677 2:-0.987756 
1 1:-0.996677 2:-0.987756 
1 1:-0.996677 2:-0.987756 
1 1:-0.996677 2:-0.987756 
1 1:-0.996677 2:-0.987756 
1 1:-0.996677 2:-0.987756 
1 1:-0.996677 2:-0.987756 
1 1:-0.996677 2:-0.987756 
1 1:-0.996677 2:-0.987756 
1 1:-0.996677 2:-0.987756 
1 1:-0.996677 2:-0.987756 
1 1:-0.996677 2:-0.987756 
1 1:-0.996677 2:-0.987756 
1 1:-0.996677 2:-0.987756 
1 1:-0.996677 2:-0.987756 
1 1:-0.996677 2:-0.987756 
1 1:-0.996677 2:-0.987756 
1 1:-0.996677 2:-0.987756 
1 1:-0.996677 2:-0.987756 
1 1:-0.996677 2:-0.987756 
1 1:-0.996677 2:-0.987756 
1 1:-0.996677 2:-0.987756 
1 1:-0.996677 2:-0.987756 
1 1:-0.996677 2:-0.987756 
1 1:-0.996677 2:-0.987756 
1 1:-0.996677 2:-0.987756 
1 1:-0.996677 2:-0.987756 
1 1:-0.996677 2:-0.987756 
1 1:-0.996677 2:-0.987756 
1 1:-0.996677 2:-0.987756 
1 1:-0.996677 2:-0.987756 
1 1:-0.996677 2:-0.987756 
1 1:-0.996677 2:-0.987756 
1 1:-0.996677 2:-0.987756 
1 1:-0.996677 2:-0.987756 
1 1:-0.996677 2:-0.987756 
1 1:-0.996677 2:-0.987756 
1 1:-0.996677 2:-0.987756 
1 1:-0.996677 2:-0.987756 
1 1:-0.996677 2:-0.987756 
1 1:-0.996677 2:-0.987756 
1 1:-0.996677 2:-0.987756 
1 1:-0.996677 2:-0.987756 
1 1:-0.996677 2:-0.987756 
1 1:-0.996677 2:-0.987756 
1 1:-0.996677 2:-0.987756 
1 1:-0.996677 2:-0.987756 
1 1:-0.996677 2:-0.987756 
1 1:-0.996677 2:-0.987756 
1 1:-0.996677 2:-0.987756 
1 1:-0.996677 2:-0.987756 
1 1:-0.996677 2:-0.987756 
1 1:-0.996677 2:-0.987756 
1 1:-0.996677 2:-0.987756 
1 1:-0.996677 2:-0.987756 
1 1:-0.996677 2:-0.987756 
1 1:-0.996677 2:-0.987756 
1 1:-0.996677 2:-0.987756 
1 1:-0.996677 2:-0.987756 
1 1:-0.996677 2:-0.987756 
1 1:-0.996677 2:-0.987756 
1 1:-0.996677 2:-0.987756 
1 1:-0.996677 2:-0.987756 
1 1:-0.996677 2:-0.987756 
1 1:-0.996677 2:-0.987756 
1 1:-0.996677 2:-0.987756 
1 1:-0.996677 2:-0.987756 
1 1:-0.996677 2:-0.987756 
1 1:-0.996677 2:-0.987756 
1 1:-0.996677 2:-0.987756 
1 1:-0.996677 2:-0.987756 
1 1:-0.996677 2:-0.987756 
1 1:-0.996677 2:-0.987756 
1 1:-0.996677 2:-0.987756 
1 1:-0.996677 2:-0.987756 
1 1:-0.996677 2:-0.987756 
1 1:-0.996677 2:-0.987756 
1 1:-0.996677 2:-0.987756 
1 1:-0.996677 2:-0.987756 
1 1:-0.996677 2:-0.987756 
1 1:-0.996677 2:-0.987756 
1 1:-0.994167 2:-0.991961 
1 1:-0.994167 2:-0.991961 
1 1:-0.994167 2:-0.991961 
1 1:-0.994167 2:-0.991961 
1 1:-0.994167 2:-0.991961 
1 1:-0.994167 2:-0.991961 
1 1:-0.994167 2:-0.991961 
1 1:-0.994167 2:-0.991961 
1 1:-0.994167 2:-0.991961 
1 1:-0.994167 2:-0.991961 
1 1:-0.994167 2:-0.991961 
1 1:-0.994167 2:-0.991961 
1 1:-0.994167 2:-0.991961 
1 1:-0.994167 2:-0.991961 
1 1:-0.994167 2:-0.991961 
1 1:-0.994167 2:-0.991961 
1 1:-0.994167 2:-0.991961 
1 1:-0.994167 2:-0.991961 
1 1:-0.994167 2:-0.991961 
1 1:-0.994167 2:-0.991961 
1 1:-0.994167 2:-0.991961 
1 1:-0.994167 2:-0.991961 
1 1:-0.994167 2:-0.991961 
1 1:-0.994167 2:-0.991961 
1 1:-0.994167 2:-0.991961 
1 1:-0.994167 2:-0.991961 
1 1:-0.994167 2:-0.991961 
1 1:-0.994167 2:-0.991961 
1 1:-0.994167 2:-0.991961 
1 1:-0.994167 2:-0.991961 
1 1:-0.994167 2:-0.991961 
1 1:-0.994167 2:-0.991961 
1 1:-0.994167 2:-0.991961 
1 1:-0.994167 2:-0.991961 
1 1:-0.994167 2:-0.991961 
1 1:-0.994167 2:-0.991961 
1 1:-0.994167 2:-0.991961 
1 1:-0.994167 2:-0.991961 
1 1:-0.994167 2:-0.991961 
1 1:-0.994167 2:-0.991961 
1 1:-0.994167 2:-0.991961 
1 1:-0.994167 2:-0.991961 
1 1:-0.994167 2:-0.991961 
1 1:-0.994167 2:-0.991961 
1 1:-0.994167 2:-0.991961 
1 1:-0.994167 2:-0.991961 
1 1:-0.994167 2:-0.991961 
1 1:-0.994167 2:-0.991961 
1 1:-0.994167 2:-0.991961 
1 1:-0.994167 2:-0.991961 
1 1:-0.994167 2:-0.991961 
1 1:-0.994167 2:-0.991961 
1 1:-0.994167 2:-0.991961 
1 1:-0.994167 2:-0.991961 
1 1:-0.994167 2:-0.991961 
1 1:-0.994167 2:-0.991961 
1 1:-0.994167 2:-0.991961 
1 1:-0.994167 2:-0.991961 
1 1:-0.994167 2:-0.991961 
1 1:-0.994167 2:-0.991961 
1 1:-0.994167 2:-0.991961 
1 1:-0.994167 2:-0.991961 
1 1:-0.994167 2:-0.991961 
1 1:-0.994167 2:-0.991961 
1 1:-0.994167 2:-0.991961 
1 1:-0.994167 2:-0.991961 
1 1:-0.994167 2:-0.991961 
1 1:-0.994167 2:-0.991961 
1 1:-0.994167 2:-0.991961 
1 1:-0.994167 2:-0.991961 
1 1:-0.994167 2:-0.991961 
1 1:-0.994167 2:-0.991961 
1 1:-0.994167 2:-0.991961 
1 1:-0.994167 2:-0.991961 
1 1:-0.994167 2:-0.991961 
1 1:-0.994167 2:-0.991961 
1 1:-0.994167 2:-0.991961 
1 1:-0.994167 2:-0.991961 
1 1:-0.994167 2:-0.991961 
1 1:-0.994167 2:-0.991961 
1 1:-0.994167 2:-0.991961 
1 1:-0.994167 2:-0.991961 
1 1:-0.994167 2:-0.991961 
1 1:-0.994167 2:-0.991961 
1 1:-0.994167 2:-0.991961 
1 1:-0.994167 2:-0.991961 
1 1:-0.994167 2:-0.991961 
1 1:-0.994167 2:-0.991961 
1 1:-0.994167 2:-0.991961 
1 1:-0.994167 2:-0.991961 
1 1:-0.994167 2:-0.991961 
1 1:-0.994167 2:-0.991961 
1 1:-0.994167 2:-0.991961 
1 1:-0.995037 2:-0.990616 
1 1:-0.995037 2:-0.990616 
1 1:-0.995037 2:-0.990616 
1 1:-0.995037 2:-0.990616 
1 1:-0.995037 2:-0.990616 
1 1:-0.995037 2:-0.990616 
1 1:-0.995037 2:-0.990616 
1 1:-0.995037 2:-0.990616 
1 1:-0.995037 2:-0.990616 
1 1:-0.995037 2:-0.990616 
1 1:-0.995037 2:-0.990616 
1 1:-0.995037 2:-0.990616 
1 1:-0.995037 2:-0.990616 
1 1:-0.995037 2:-0.990616 
1 1:-0.995037 2:-0.990616 
1 1:-0.995037 2:-0.990616 
1 1:-0.995037 2:-0.990616 
1 1:-0.995037 2:-0.990616 
1 1:-0.995037 2:-0.990616 
1 1:-0.995037 2:-0.990616 
1 1:-0.995037 2:-0.990616 
1 1:-0.995037 2:-0.990616 
1 1:-0.995037 2:-0.990616 
1 1:-0.995037 2:-0.990616 
1 1:-0.995037 2:-0.990616 
1 1:-0.995037 2:-0.990616 
1 1:-0.995037 2:-0.990616 
1 1:-0.995037 2:-0.990616 
1 1:-0.995037 2:-0.990616 
1 1:-0.995037 2:-0.990616 
1 1:-0.995037 2:-0.990616 
1 1:-0.995037 2:-0.990616 
1 1:-0.995037 2:-0.990616 
1 1:-0.995037 2:-0.990616 
1 1:-0.995037 2:-0.990616 
1 1:-0.995037 2:-0.990616 
1 1:-0.995037 2:-0.990616 
1 1:-0.995037 2:-0.990616 
1 1:-0.995037 2:-0.990616 
1 1:-0.995037 2:-0.990616 
1 1:-0.995037 2:-0.990616 
1 1:-0.995037 2:-0.990616 
1 1:-0.995037 2:-0.990616 
1 1:-0.995037 2:-0.990616 
1 1:-0.995037 2:-0.990616 
1 1:-0.995037 2:-0.990616 
1 1:-0.995037 2:-0.990616 
1 1:-0.995037 2:-0.990616 
1 1:-0.995037 2:-0.990616 
1 1:-0.995037 2:-0.990616 
1 1:-0.995037 2:-0.990616 
1 1:-0.995037 2:-0.990616 
1 1:-0.995037 2:-0.990616 
1 1:-0.995037 2:-0.990616 
1 1:-0.995037 2:-0.990616 
1 1:-0.995037 2:-0.990616 
1 1:-0.995037 2:-0.990616 
1 1:-0.995037 2:-0.990616 
1 1:-0.995037 2:-0.990616 
1 1:-0.995037 2:-0.990616 
1 1:-0.995037 2:-0.990616 
1 1:-0.995037 2:-0.990616 
1 1:-0.995037 2:-0.990616 
1 1:-0.995037 2:-0.990616 
1 1:-0.995037 2:-0.990616 
1 1:-0.995037 2:-0.990616 
1 1:-0.995037 2:-0.990616 
1 1:-0.995037 2:-0.990616 
1 1:-0.995037 2:-0.990616 
1 1:-0.995037 2:-0.990616 
1 1:-0.995037 2:-0.990616 
1 1:-0.995037 2:-0.990616 
1 1:-0.995037 2:-0.990616 
1 1:-0.995037 2:-0.990616 
1 1:-0.995037 2:-0.990616 
1 1:-0.995037 2:-0.990616 
1 1:-0.995037 2:-0.990616 
1 1:-0.995037 2:-0.990616 
1 1:-0.995037 2:-0.990616 
1 1:-0.995037 2:-0.990616 
1 1:-0.995037 2:-0.990616 
1 1:-0.995037 2:-0.990616 
1 1:-0.995037 2:-0.990616 
1 1:-0.995037 2:-0.990616 
1 1:-0.995037 2:-0.990616 
1 1:-0.995723 2:-0.995228 
1 1:-0.902821 2:-0.764104 
1 1:-0.995723 2:-0.995228 
1 1:-0.902821 2:-0.764104 
1 1:-0.995723 2:-0.995228 
1 1:-0.902821 2:-0.764104 
1 1:-0.995723 2:-0.995228 
1 1:-0.902821 2:-0.764104 
1 1:-0.995723 2:-0.995228 
1 1:-0.902821 2:-0.764104 
1 1:-0.995723 2:-0.995228 
1 1:-0.902821 2:-0.764104 
1 1:-0.995723 2:-0.995228 
1 1:-0.902821 2:-0.764104 
1 1:-0.995723 2:-0.995228 
1 1:-0.902821 2:-0.764104 
1 1:-0.995723 2:-0.995228 
1 1:-0.902821 2:-0.764104 
1 1:-0.995723 2:-0.995228 
1 1:-0.902821 2:-0.764104 
1 1:-0.995723 2:-0.995228 
1 1:-0.902821 2:-0.764104 
1 1:-0.995723 2:-0.995228 
1 1:-0.902821 2:-0.764104 
1 1:-0.995723 2:-0.995228 
1 1:-0.902821 2:-0.764104 
1 1:-0.995723 2:-0.995228 
1 1:-0.902821 2:-0.764104 
1 1:-0.995723 2:-0.995228 
1 1:-0.902821 2:-0.764104 
1 1:-0.995723 2:-0.995228 
1 1:-0.902821 2:-0.764104 
1 1:-0.995723 2:-0.995228 
1 1:-0.902821 2:-0.764104 
1 1:-0.995723 2:-0.995228 
1 1:-0.902821 2:-0.764104 
1 1:-0.995723 2:-0.995228 
1 1:-0.902821 2:-0.764104 
1 1:-0.995723 2:-0.995228 
1 1:-0.902821 2:-0.764104 
1 1:-0.995723 2:-0.995228 
1 1:-0.902821 2:-0.764104 
1 1:-0.995723 2:-0.995228 
1 1:-0.902821 2:-0.764104 
1 1:-0.995723 2:-0.995228 
1 1:-0.902821 2:-0.764104 
1 1:-0.995723 2:-0.995228 
1 1:-0.902821 2:-0.764104 
1 1:-0.995723 2:-0.995228 
1 1:-0.902821 2:-0.764104 
1 1:-0.995723 2:-0.995228 
1 1:-0.902821 2:-0.764104 
1 1:-0.995723 2:-0.995228 
1 1:-0.902821 2:-0.764104 
1 1:-0.995723 2:-0.995228 
1 1:-0.902821 2:-0.764104 
1 1:-0.995723 2:-0.995228 
1 1:-0.902821 2:-0.764104 
1 1:-0.995723 2:-0.995228 
1 1:-0.902821 2:-0.764104 
1 1:-0.995723 2:-0.995228 
1 1:-0.902821 2:-0.764104 
1 1:-0.995723 2:-0.995228 
1 1:-0.902821 2:-0.764104 
1 1:-0.995723 2:-0.995228 
1 1:-0.902821 2:-0.764104 
1 1:-0.995723 2:-0.995228 
1 1:-0.902821 2:-0.764104 
1 1:-0.995723 2:-0.995228 
1 1:-0.902821 2:-0.764104 
1 1:-0.995723 2:-0.995228 
1 1:-0.902821 2:-0.764104 
1 1:-0.995723 2:-0.995228 
1 1:-0.902821 2:-0.764104 
1 1:-0.995723 2:-0.995228 
1 1:-0.902821 2:-0.764104 
1 1:-0.995723 2:-0.995228 
1 1:-0.902821 2:-0.764104 
1 1:-0.995723 2:-0.995228 
1 1:-0.902821 2:-0.764104 
1 1:-0.995723 2:-0.995228 
1 1:-0.902821 2:-0.764104 
1 1:-0.995723 2:-0.995228 
1 1:-0.902821 2:-0.764104 
1 1:-0.995723 2:-0.995228 
1 1:-0.902821 2:-0.764104 
1 1:-0.995723 2:-0.995228 
1 1:-0.902821 2:-0.764104 
1 1:-0.995723 2:-0.995228 
1 1:-0.902821 2:-0.764104 
1 1:-0.995723 2:-0.995228 
1 1:-0.902821 2:-0.764104 
1 1:-0.995723 2:-0.995228 
1 1:-0.902821 2:-0.764104 
1 1:-0.995723 2:-0.995228 
1 1:-0.902821 2:-0.764104 
1 1:-0.995723 2:-0.995228 
1 1:-0.902821 2:-0.764104 
1 1:-0.995723 2:-0.995228 
1 1:-0.902821 2:-0.764104 
1 1:-0.995723 2:-0.995228 
1 1:-0.902821 2:-0.764104 
1 1:-0.995723 2:-0.995228 
1 1:-0.902821 2:-0.764104 
1 1:-0.995723 2:-0.995228 
1 1:-0.902821 2:-0.764104 
1 1:-0.995723 2:-0.995228 
1 1:-0.902821 2:-0.764104 
1 1:-0.995723 2:-0.995228 
1 1:-0.902821 2:-0.764104 
1 1:-0.995723 2:-0.995228 
1 1:-0.902821 2:-0.764104 
1 1:-0.995723 2:-0.995228 
1 1:-0.902821 2:-0.764104 
1 1:-0.995723 2:-0.995228 
1 1:-0.902821 2:-0.764104 
1 1:-0.995723 2:-0.995228 
1 1:-0.902821 2:-0.764104 
1 1:-0.995723 2:-0.995228 
1 1:-0.902821 2:-0.764104 
1 1:-0.995723 2:-0.995228 
1 1:-0.902821 2:-0.764104 
1 1:-0.995723 2:-0.995228 
1 1:-0.902821 2:-0.764104 
1 1:-0.995723 2:-0.995228 
1 1:-0.902821 2:-0.764104 
1 1:-0.995723 2:-0.995228 
1 1:-0.902821 2:-0.764104 
1 1:-0.995723 2:-0.995228 
1 1:-0.902821 2:-0.764104 
1 1:-0.995723 2:-0.995228 
1 1:-0.902821 2:-0.764104 
1 1:-0.995723 2:-0.995228 
1 1:-0.902821 2:-0.764104 
1 1:-0.995723 2:-0.995228 
1 1:-0.902821 2:-0.764104 
1 1:-0.995723 2:-0.995228 
1 1:-0.902821 2:-0.764104 
1 1:-0.995723 2:-0.995228 
1 1:-0.902821 2:-0.764104 
1 1:-0.995723 2:-0.995228 
1 1:-0.902821 2:-0.764104 
1 1:-0.995723 2:-0.995228 
1 1:-0.902821 2:-0.764104 
1 1:-0.995723 2:-0.995228 
1 1:-0.902821 2:-0.764104 
1 1:-0.995723 2:-0.995228 
1 1:-0.902821 2:-0.764104 
1 1:-0.995723 2:-0.995228 
1 1:-0.902821 2:-0.764104 
1 1:-0.995723 2:-0.995228 
1 1:-0.902821 2:-0.764104 
1 1:-0.852312 2:-0.737334 
1 1:-0.994859 2:-0.992066 
1 1:-0.880208 2:-0.74765 
1 1:-0.852312 2:-0.737334 
1 1:-0.994859 2:-0.992066 
1 1:-0.880208 2:-0.74765 
1 1:-0.852312 2:-0.737334 
1 1:-0.994859 2:-0.992066 
1 1:-0.880208 2:-0.74765 
1 1:-0.852312 2:-0.737334 
1 1:-0.994859 2:-0.992066 
1 1:-0.880208 2:-0.74765 
1 1:-0.852312 2:-0.737334 
1 1:-0.994859 2:-0.992066 
1 1:-0.880208 2:-0.74765 
1 1:-0.852312 2:-0.737334 
1 1:-0.994859 2:-0.992066 
1 1:-0.880208 2:-0.74765 
1 1:-0.852312 2:-0.737334 
1 1:-0.994859 2:-0.992066 
1 1:-0.880208 2:-0.74765 
1 1:-0.852312 2:-0.737334 
1 1:-0.994859 2:-0.992066 
1 1:-0.880208 2:-0.74765 
1 1:-0.852312 2:-0.737334 
1 1:-0.994859 2:-0.992066 
1 1:-0.880208 2:-0.74765 
1 1:-0.852312 2:-0.737334 
1 1:-0.994859 2:-0.992066 
1 1:-0.880208 2:-0.74765 
1 1:-0.852312 2:-0.737334 
1 1:-0.994859 2:-0.992066 
1 1:-0.880208 2:-0.74765 
1 1:-0.852312 2:-0.737334 
1 1:-0.994859 2:-0.992066 
1 1:-0.880208 2:-0.74765 
1 1:-0.852312 2:-0.737334 
1 1:-0.994859 2:-0.992066 
1 1:-0.880208 2:-0.74765 
1 1:-0.852312 2:-0.737334 
1 1:-0.994859 2:-0.992066 
1 1:-0.880208 2:-0.74765 
1 1:-0.852312 2:-0.737334 
1 1:-0.994859 2:-0.992066 
1 1:-0.880208 2:-0.74765 
1 1:-0.852312 2:-0.737334 
1 1:-0.994859 2:-0.992066 
1 1:-0.880208 2:-0.74765 
1 1:-0.852312 2:-0.737334 
1 1:-0.994859 2:-0.992066 
1 1:-0.880208 2:-0.74765 
1 1:-0.852312 2:-0.737334 
1 1:-0.994859 2:-0.992066 
1 1:-0.880208 2:-0.74765 
1 1:-0.852312 2:-0.737334 
1 1:-0.994859 2:-0.992066 
1 1:-0.880208 2:-0.74765 
1 1:-0.852312 2:-0.737334 
1 1:-0.994859 2:-0.992066 
1 1:-0.880208 2:-0.74765 
1 1:-0.852312 2:-0.737334 
1 1:-0.994859 2:-0.992066 
1 1:-0.880208 2:-0.74765 
1 1:-0.852312 2:-0.737334 
1 1:-0.994859 2:-0.992066 
1 1:-0.880208 2:-0.74765 
1 1:-0.852312 2:-0.737334 
1 1:-0.994859 2:-0.992066 
1 1:-0.880208 2:-0.74765 
1 1:-0.852312 2:-0.737334 
1 1:-0.994859 2:-0.992066 
1 1:-0.880208 2:-0.74765 
1 1:-0.852312 2:-0.737334 
1 1:-0.994859 2:-0.992066 
1 1:-0.880208 2:-0.74765 
1 1:-0.852312 2:-0.737334 
1 1:-0.994859 2:-0.992066 
1 1:-0.880208 2:-0.74765 
1 1:-0.852312 2:-0.737334 
1 1:-0.994859 2:-0.992066 
1 1:-0.880208 2:-0.74765 
1 1:-0.852312 2:-0.737334 
1 1:-0.994859 2:-0.992066 
1 1:-0.880208 2:-0.74765 
1 1:-0.852312 2:-0.737334 
1 1:-0.994859 2:-0.992066 
1 1:-0.880208 2:-0.74765 
1 1:-0.852312 2:-0.737334 
1 1:-0.994859 2:-0.992066 
1 1:-0.880208 2:-0.74765 
1 1:-0.852312 2:-0.737334 
1 1:-0.994859 2:-0.992066 
1 1:-0.880208 2:-0.74765 
1 1:-0.852312 2:-0.737334 
1 1:-0.994859 2:-0.992066 
1 1:-0.880208 2:-0.74765 
1 1:-0.852312 2:-0.737334 
1 1:-0.994859 2:-0.992066 
1 1:-0.880208 2:-0.74765 
1 1:-0.852312 2:-0.737334 
1 1:-0.994859 2:-0.992066 
1 1:-0.880208 2:-0.74765 
1 1:-0.852312 2:-0.737334 
1 1:-0.994859 2:-0.992066 
1 1:-0.880208 2:-0.74765 
1 1:-0.852312 2:-0.737334 
1 1:-0.994859 2:-0.992066 
1 1:-0.880208 2:-0.74765 
1 1:-0.852312 2:-0.737334 
1 1:-0.994859 2:-0.992066 
1 1:-0.880208 2:-0.74765 
1 1:-0.852312 2:-0.737334 
1 1:-0.994859 2:-0.992066 
1 1:-0.880208 2:-0.74765 
1 1:-0.852312 2:-0.737334 
1 1:-0.994859 2:-0.992066 
1 1:-0.880208 2:-0.74765 
1 1:-0.852312 2:-0.737334 
1 1:-0.994859 2:-0.992066 
1 1:-0.880208 2:-0.74765 
1 1:-0.852312 2:-0.737334 
1 1:-0.994859 2:-0.992066 
1 1:-0.880208 2:-0.74765 
1 1:-0.852312 2:-0.737334 
1 1:-0.994859 2:-0.992066 
1 1:-0.880208 2:-0.74765 
1 1:-0.852312 2:-0.737334 
1 1:-0.994859 2:-0.992066 
1 1:-0.880208 2:-0.74765 
1 1:-0.852312 2:-0.737334 
1 1:-0.994859 2:-0.992066 
1 1:-0.880208 2:-0.74765 
1 1:-0.852312 2:-0.737334 
1 1:-0.994859 2:-0.992066 
1 1:-0.880208 2:-0.74765 
1 1:-0.852312 2:-0.737334 
1 1:-0.994859 2:-0.992066 
1 1:-0.880208 2:-0.74765 
1 1:-0.852312 2:-0.737334 
1 1:-0.994859 2:-0.992066 
1 1:-0.880208 2:-0.74765 
1 1:-0.852312 2:-0.737334 
1 1:-0.994859 2:-0.992066 
1 1:-0.880208 2:-0.74765 
1 1:-0.852312 2:-0.737334 
1 1:-0.994859 2:-0.992066 
1 1:-0.880208 2:-0.74765 
1 1:-0.852312 2:-0.737334 
1 1:-0.994859 2:-0.992066 
1 1:-0.880208 2:-0.74765 
1 1:-0.852312 2:-0.737334 
1 1:-0.994859 2:-0.992066 
1 1:-0.880208 2:-0.74765 
1 1:-0.852312 2:-0.737334 
1 1:-0.994859 2:-0.992066 
1 1:-0.880208 2:-0.74765 
1 1:-0.852312 2:-0.737334 
1 1:-0.994859 2:-0.992066 
1 1:-0.880208 2:-0.74765 
1 1:-0.852312 2:-0.737334 
1 1:-0.994859 2:-0.992066 
1 1:-0.880208 2:-0.74765 
1 1:-0.852312 2:-0.737334 
1 1:-0.994859 2:-0.992066 
1 1:-0.880208 2:-0.74765 
1 1:-0.852312 2:-0.737334 
1 1:-0.994859 2:-0.992066 
1 1:-0.880208 2:-0.74765 
1 1:-0.852312 2:-0.737334 
1 1:-0.994859 2:-0.992066 
1 1:-0.880208 2:-0.74765 
1 1:-0.852312 2:-0.737334 
1 1:-0.994859 2:-0.992066 
1 1:-0.880208 2:-0.74765 
1 1:-0.852312 2:-0.737334 
1 1:-0.994859 2:-0.992066 
1 1:-0.880208 2:-0.74765 
1 1:-0.852312 2:-0.737334 
1 1:-0.994859 2:-0.992066 
1 1:-0.880208 2:-0.74765 
1 1:-0.852312 2:-0.737334 
1 1:-0.994859 2:-0.992066 
1 1:-0.880208 2:-0.74765 
1 1:-0.852312 2:-0.737334 
1 1:-0.994859 2:-0.992066 
1 1:-0.880208 2:-0.74765 
1 1:-0.852312 2:-0.737334 
1 1:-0.994859 2:-0.992066 
1 1:-0.880208 2:-0.74765 
1 1:-0.852312 2:-0.737334 
1 1:-0.994859 2:-0.992066 
1 1:-0.880208 2:-0.74765 
1 1:-0.852312 2:-0.737334 
1 1:-0.994859 2:-0.992066 
1 1:-0.880208 2:-0.74765 
1 1:-0.852312 2:-0.737334 
1 1:-0.994859 2:-0.992066 
1 1:-0.880208 2:-0.74765 
1 1:-0.852312 2:-0.737334 
1 1:-0.994859 2:-0.992066 
1 1:-0.880208 2:-0.74765 
1 1:-0.852312 2:-0.737334 
1 1:-0.994859 2:-0.992066 
1 1:-0.880208 2:-0.74765 
1 1:-0.852312 2:-0.737334 
1 1:-0.994859 2:-0.992066 
1 1:-0.880208 2:-0.74765 
1 1:-0.852312 2:-0.737334 
1 1:-0.994859 2:-0.992066 
1 1:-0.880208 2:-0.74765 
1 1:-0.852312 2:-0.737334 
1 1:-0.994859 2:-0.992066 
1 1:-0.880208 2:-0.74765 
1 1:-0.852312 2:-0.737334 
1 1:-0.994859 2:-0.992066 
1 1:-0.880208 2:-0.74765 
1 1:-0.852312 2:-0.737334 
1 1:-0.994859 2:-0.992066 
1 1:-0.880208 2:-0.74765 
1 1:-0.852312 2:-0.737334 
1 1:-0.994859 2:-0.992066 
1 1:-0.880208 2:-0.74765 
1 1:-0.852312 2:-0.737334 
1 1:-0.994859 2:-0.992066 
1 1:-0.880208 2:-0.74765 
1 1:-0.852312 2:-0.737334 
1 1:-0.994859 2:-0.992066 
1 1:-0.880208 2:-0.74765 
1 1:-0.852312 2:-0.737334 
1 1:-0.994859 2:-0.992066 
1 1:-0.880208 2:-0.74765 
1 1:-0.852312 2:-0.737334 
1 1:-0.994859 2:-0.992066 
1 1:-0.880208 2:-0.74765 
1 1:-0.852312 2:-0.737334 
1 1:-0.994859 2:-0.992066 
1 1:-0.880208 2:-0.74765 
1 1:-0.852312 2:-0.737334 
1 1:-0.994859 2:-0.992066 
1 1:-0.880208 2:-0.74765 
1 1:-0.852312 2:-0.737334 
1 1:-0.994859 2:-0.992066 
1 1:-0.880208 2:-0.74765 
1 1:-0.852312 2:-0.737334 
1 1:-0.994859 2:-0.992066 
1 1:-0.880208 2:-0.74765 
1 1:-0.852312 2:-0.737334 
1 1:-0.994859 2:-0.992066 
1 1:-0.880208 2:-0.74765 
1 1:-0.852312 2:-0.737334 
1 1:-0.994859 2:-0.992066 
1 1:-0.880208 2:-0.74765 
1 1:-0.852312 2:-0.737334 
1 1:-0.994859 2:-0.992066 
1 1:-0.880208 2:-0.74765 
1 1:-0.852312 2:-0.737334 
1 1:-0.994859 2:-0.992066 
1 1:-0.880208 2:-0.74765 
1 1:-0.852312 2:-0.737334 
1 1:-0.994859 2:-0.992066 
1 1:-0.880208 2:-0.74765 
1 1:-0.852312 2:-0.737334 
1 1:-0.994859 2:-0.992066 
1 1:-0.880208 2:-0.74765 
1 1:-0.852312 2:-0.737334 
1 1:-0.994859 2:-0.992066 
1 1:-0.880208 2:-0.74765 
1 1:-0.852312 2:-0.737334 
1 1:-0.994859 2:-0.992066 
1 1:-0.880208 2:-0.74765 
1 1:-0.852312 2:-0.737334 
1 1:-0.994859 2:-0.992066 
1 1:-0.880208 2:-0.74765 
1 1:-0.852312 2:-0.737334 
1 1:-0.994859 2:-0.992066 
1 1:-0.880208 2:-0.74765 
1 1:-0.852312 2:-0.737334 
1 1:-0.994859 2:-0.992066 
1 1:-0.880208 2:-0.74765 
1 1:-0.852312 2:-0.737334 
1 1:-0.994859 2:-0.992066 
1 1:-0.880208 2:-0.74765 
1 1:-0.852312 2:-0.737334 
1 1:-0.994859 2:-0.992066 
1 1:-0.880208 2:-0.74765 
1 1:-0.852312 2:-0.737334 
1 1:-0.994859 2:-0.992066 
1 1:-0.880208 2:-0.74765 
1 1:-0.852312 2:-0.737334 
1 1:-0.994859 2:-0.992066 
1 1:-0.880208 2:-0.74765 
1 1:-0.798578 2:-0.808762 
1 1:-0.798578 2:-0.808762 
1 1:-0.798578 2:-0.808762 
1 1:-0.798578 2:-0.808762 
1 1:-0.798578 2:-0.808762 
1 1:-0.798578 2:-0.808762 
1 1:-0.798578 2:-0.808762 
1 1:-0.798578 2:-0.808762 
1 1:-0.798578 2:-0.808762 
1 1:-0.798578 2:-0.808762 
1 1:-0.798578 2:-0.808762 
1 1:-0.798578 2:-0.808762 
1 1:-0.798578 2:-0.808762 
1 1:-0.798578 2:-0.808762 
1 1:-0.798578 2:-0.808762 
1 1:-0.798578 2:-0.808762 
1 1:-0.798578 2:-0.808762 
1 1:-0.798578 2:-0.808762 
1 1:-0.798578 2:-0.808762 
1 1:-0.798578 2:-0.808762 
1 1:-0.798578 2:-0.808762 
1 1:-0.798578 2:-0.808762 
1 1:-0.798578 2:-0.808762 
1 1:-0.798578 2:-0.808762 
1 1:-0.798578 2:-0.808762 
1 1:-0.798578 2:-0.808762 
1 1:-0.798578 2:-0.808762 
1 1:-0.798578 2:-0.808762 
1 1:-0.798578 2:-0.808762 
1 1:-0.798578 2:-0.808762 
1 1:-0.798578 2:-0.808762 
1 1:-0.798578 2:-0.808762 
1 1:-0.798578 2:-0.808762 
1 1:-0.798578 2:-0.808762 
1 1:-0.798578 2:-0.808762 
1 1:-0.798578 2:-0.808762 
1 1:-0.798578 2:-0.808762 
1 1:-0.798578 2:-0.808762 
1 1:-0.798578 2:-0.808762 
1 1:-0.798578 2:-0.808762 
1 1:-0.798578 2:-0.808762 
1 1:-0.798578 2:-0.808762 
1 1:-0.798578 2:-0.808762 
1 1:-0.798578 2:-0.808762 
1 1:-0.798578 2:-0.808762 
1 1:-0.798578 2:-0.808762 
1 1:-0.798578 2:-0.808762 
1 1:-0.798578 2:-0.808762 
1 1:-0.798578 2:-0.808762 
1 1:-0.798578 2:-0.808762 
1 1:-0.798578 2:-0.808762 
1 1:-0.798578 2:-0.808762 
1 1:-0.798578 2:-0.808762 
1 1:-0.798578 2:-0.808762 
1 1:-0.798578 2:-0.808762 
1 1:-0.798578 2:-0.808762 
1 1:-0.798578 2:-0.808762 
1 1:-0.798578 2:-0.808762 
1 1:-0.798578 2:-0.808762 
1 1:-0.798578 2:-0.808762 
1 1:-0.798578 2:-0.808762 
1 1:-0.798578 2:-0.808762 
1 1:-0.798578 2:-0.808762 
1 1:-0.798578 2:-0.808762 
1 1:-0.798578 2:-0.808762 
1 1:-0.798578 2:-0.808762 
1 1:-0.798578 2:-0.808762 
1 1:-0.798578 2:-0.808762 
1 1:-0.798578 2:-0.808762 
1 1:-0.798578 2:-0.808762 
1 1:-0.798578 2:-0.808762 
1 1:-0.798578 2:-0.808762 
1 1:-0.798578 2:-0.808762 
1 1:-0.798578 2:-0.808762 
1 1:-0.798578 2:-0.808762 
1 1:-0.798578 2:-0.808762 
1 1:-0.798578 2:-0.808762 
1 1:-0.798578 2:-0.808762 
1 1:-0.798578 2:-0.808762 
1 1:-0.798578 2:-0.808762 
1 1:-0.798578 2:-0.808762 
1 1:-0.798578 2:-0.808762 
1 1:-0.798578 2:-0.808762 
1 1:-0.798578 2:-0.808762 
1 1:-0.798578 2:-0.808762 
1 1:-0.798578 2:-0.808762 
1 1:-0.798578 2:-0.808762 
1 1:-0.798578 2:-0.808762 
1 1:-0.798578 2:-0.808762 
1 1:-0.798578 2:-0.808762 
1 1:-0.798578 2:-0.808762 
1 1:-0.798578 2:-0.808762 
1 1:-0.798578 2:-0.808762 
1 1:-0.798578 2:-0.808762 
1 1:-0.798578 2:-0.808762 
1 1:-0.798578 2:-0.808762 
1 1:-0.994189 2:-0.991443 
1 1:-0.994189 2:-0.991443 
1 1:-0.994189 2:-0.991443 
1 1:-0.994189 2:-0.991443 
1 1:-0.994189 2:-0.991443 
1 1:-0.994189 2:-0.991443 
1 1:-0.994189 2:-0.991443 
1 1:-0.994189 2:-0.991443 
1 1:-0.994189 2:-0.991443 
1 1:-0.994189 2:-0.991443 
1 1:-0.994189 2:-0.991443 
1 1:-0.994189 2:-0.991443 
1 1:-0.994189 2:-0.991443 
1 1:-0.994189 2:-0.991443 
1 1:-0.994189 2:-0.991443 
1 1:-0.994189 2:-0.991443 
1 1:-0.994189 2:-0.991443 
1 1:-0.994189 2:-0.991443 
1 1:-0.994189 2:-0.991443 
1 1:-0.994189 2:-0.991443 
1 1:-0.994189 2:-0.991443 
1 1:-0.994189 2:-0.991443 
1 1:-0.994189 2:-0.991443 
1 1:-0.994189 2:-0.991443 
1 1:-0.994189 2:-0.991443 
1 1:-0.994189 2:-0.991443 
1 1:-0.994189 2:-0.991443 
1 1:-0.994189 2:-0.991443 
1 1:-0.994189 2:-0.991443 
1 1:-0.994189 2:-0.991443 
1 1:-0.994189 2:-0.991443 
1 1:-0.994189 2:-0.991443 
1 1:-0.994189 2:-0.991443 
1 1:-0.994189 2:-0.991443 
1 1:-0.994189 2:-0.991443 
1 1:-0.994189 2:-0.991443 
1 1:-0.994189 2:-0.991443 
1 1:-0.994189 2:-0.991443 
1 1:-0.994189 2:-0.991443 
1 1:-0.994189 2:-0.991443 
1 1:-0.994189 2:-0.991443 
1 1:-0.994189 2:-0.991443 
1 1:-0.994189 2:-0.991443 
1 1:-0.994189 2:-0.991443 
1 1:-0.994189 2:-0.991443 
1 1:-0.994189 2:-0.991443 
1 1:-0.994189 2:-0.991443 
1 1:-0.994189 2:-0.991443 
1 1:-0.994189 2:-0.991443 
1 1:-0.994189 2:-0.991443 
1 1:-0.994189 2:-0.991443 
1 1:-0.994189 2:-0.991443 
1 1:-0.994189 2:-0.991443 
1 1:-0.994189 2:-0.991443 
1 1:-0.994189 2:-0.991443 
1 1:-0.994189 2:-0.991443 
1 1:-0.994189 2:-0.991443 
1 1:-0.994189 2:-0.991443 
1 1:-0.994189 2:-0.991443 
1 1:-0.994189 2:-0.991443 
1 1:-0.994189 2:-0.991443 
1 1:-0.994189 2:-0.991443 
1 1:-0.994189 2:-0.991443 
1 1:-0.994189 2:-0.991443 
1 1:-0.994189 2:-0.991443 
1 1:-0.994189 2:-0.991443 
1 1:-0.994189 2:-0.991443 
1 1:-0.994189 2:-0.991443 
1 1:-0.994189 2:-0.991443 
1 1:-0.994189 2:-0.991443 
1 1:-0.994189 2:-0.991443 
1 1:-0.994189 2:-0.991443 
1 1:-0.994189 2:-0.991443 
1 1:-0.994189 2:-0.991443 
1 1:-0.994189 2:-0.991443 
1 1:-0.994189 2:-0.991443 
1 1:-0.994189 2:-0.991443 
1 1:-0.994189 2:-0.991443 
1 1:-0.994189 2:-0.991443 
1 1:-0.994189 2:-0.991443 
1 1:-0.994189 2:-0.991443 
1 1:-0.994189 2:-0.991443 
1 1:-0.994189 2:-0.991443 
1 1:-0.994189 2:-0.991443 
1 1:-0.994189 2:-0.991443 
1 1:-0.994189 2:-0.991443 
1 1:-0.994189 2:-0.991443 
1 1:-0.994189 2:-0.991443 
1 1:-0.994189 2:-0.991443 
1 1:-0.994189 2:-0.991443 
1 1:-0.994189 2:-0.991443 
1 1:-0.994189 2:-0.991443 
1 1:-0.994189 2:-0.991443 
1 1:-0.994189 2:-0.991443 
1 1:-0.997896 2:-0.987816 
1 1:-0.912738 2:-0.781261 
1 1:-0.997896 2:-0.987816 
1 1:-0.912738 2:-0.781261 
1 1:-0.997896 2:-0.987816 
1 1:-0.912738 2:-0.781261 
1 1:-0.997896 2:-0.987816 
1 1:-0.912738 2:-0.781261 
1 1:-0.997896 2:-0.987816 
1 1:-0.912738 2:-0.781261 
1 1:-0.997896 2:-0.987816 
1 1:-0.912738 2:-0.781261 
1 1:-0.997896 2:-0.987816 
1 1:-0.912738 2:-0.781261 
1 1:-0.997896 2:-0.987816 
1 1:-0.912738 2:-0.781261 
1 1:-0.997896 2:-0.987816 
1 1:-0.912738 2:-0.781261 
1 1:-0.997896 2:-0.987816 
1 1:-0.912738 2:-0.781261 
1 1:-0.997896 2:-0.987816 
1 1:-0.912738 2:-0.781261 
1 1:-0.997896 2:-0.987816 
1 1:-0.912738 2:-0.781261 
1 1:-0.997896 2:-0.987816 
1 1:-0.912738 2:-0.781261 
1 1:-0.997896 2:-0.987816 
1 1:-0.912738 2:-0.781261 
1 1:-0.997896 2:-0.987816 
1 1:-0.912738 2:-0.781261 
1 1:-0.997896 2:-0.987816 
1 1:-0.912738 2:-0.781261 
1 1:-0.997896 2:-0.987816 
1 1:-0.912738 2:-0.781261 
1 1:-0.997896 2:-0.987816 
1 1:-0.912738 2:-0.781261 
1 1:-0.997896 2:-0.987816 
1 1:-0.912738 2:-0.781261 
1 1:-0.997896 2:-0.987816 
1 1:-0.912738 2:-0.781261 
1 1:-0.997896 2:-0.987816 
1 1:-0.912738 2:-0.781261 
1 1:-0.997896 2:-0.987816 
1 1:-0.912738 2:-0.781261 
1 1:-0.997896 2:-0.987816 
1 1:-0.912738 2:-0.781261 
1 1:-0.997896 2:-0.987816 
1 1:-0.912738 2:-0.781261 
1 1:-0.997896 2:-0.987816 
1 1:-0.912738 2:-0.781261 
1 1:-0.997896 2:-0.987816 
1 1:-0.912738 2:-0.781261 
1 1:-0.997896 2:-0.987816 
1 1:-0.912738 2:-0.781261 
1 1:-0.997896 2:-0.987816 
1 1:-0.912738 2:-0.781261 
1 1:-0.997896 2:-0.987816 
1 1:-0.912738 2:-0.781261 
1 1:-0.997896 2:-0.987816 
1 1:-0.912738 2:-0.781261 
1 1:-0.997896 2:-0.987816 
1 1:-0.912738 2:-0.781261 
1 1:-0.997896 2:-0.987816 
1 1:-0.912738 2:-0.781261 
1 1:-0.997896 2:-0.987816 
1 1:-0.912738 2:-0.781261 
1 1:-0.997896 2:-0.987816 
1 1:-0.912738 2:-0.781261 
1 1:-0.997896 2:-0.987816 
1 1:-0.912738 2:-0.781261 
1 1:-0.997896 2:-0.987816 
1 1:-0.912738 2:-0.781261 
1 1:-0.997896 2:-0.987816 
1 1:-0.912738 2:-0.781261 
1 1:-0.997896 2:-0.987816 
1 1:-0.912738 2:-0.781261 
1 1:-0.997896 2:-0.987816 
1 1:-0.912738 2:-0.781261 
1 1:-0.997896 2:-0.987816 
1 1:-0.912738 2:-0.781261 
1 1:-0.997896 2:-0.987816 
1 1:-0.912738 2:-0.781261 
1 1:-0.997896 2:-0.987816 
1 1:-0.912738 2:-0.781261 
1 1:-0.997896 2:-0.987816 
1 1:-0.912738 2:-0.781261 
1 1:-0.997896 2:-0.987816 
1 1:-0.912738 2:-0.781261 
1 1:-0.997896 2:-0.987816 
1 1:-0.912738 2:-0.781261 
1 1:-0.997896 2:-0.987816 
1 1:-0.912738 2:-0.781261 
1 1:-0.997896 2:-0.987816 
1 1:-0.912738 2:-0.781261 
1 1:-0.997896 2:-0.987816 
1 1:-0.912738 2:-0.781261 
1 1:-0.997896 2:-0.987816 
1 1:-0.912738 2:-0.781261 
1 1:-0.997896 2:-0.987816 
1 1:-0.912738 2:-0.781261 
1 1:-0.997896 2:-0.987816 
1 1:-0.912738 2:-0.781261 
1 1:-0.997896 2:-0.987816 
1 1:-0.912738 2:-0.781261 
1 1:-0.997896 2:-0.987816 
1 1:-0.912738 2:-0.781261 
1 1:-0.997896 2:-0.987816 
1 1:-0.912738 2:-0.781261 
1 1:-0.997896 2:-0.987816 
1 1:-0.912738 2:-0.781261 
1 1:-0.997896 2:-0.987816 
1 1:-0.912738 2:-0.781261 
1 1:-0.997896 2:-0.987816 
1 1:-0.912738 2:-0.781261 
1 1:-0.997896 2:-0.987816 
1 1:-0.912738 2:-0.781261 
1 1:-0.997896 2:-0.987816 
1 1:-0.912738 2:-0.781261 
1 1:-0.997896 2:-0.987816 
1 1:-0.912738 2:-0.781261 
1 1:-0.997896 2:-0.987816 
1 1:-0.912738 2:-0.781261 
1 1:-0.997896 2:-0.987816 
1 1:-0.912738 2:-0.781261 
1 1:-0.997896 2:-0.987816 
1 1:-0.912738 2:-0.781261 
1 1:-0.997896 2:-0.987816 
1 1:-0.912738 2:-0.781261 
1 1:-0.997896 2:-0.987816 
1 1:-0.912738 2:-0.781261 
1 1:-0.997896 2:-0.987816 
1 1:-0.912738 2:-0.781261 
1 1:-0.997896 2:-0.987816 
1 1:-0.912738 2:-0.781261 
1 1:-0.997896 2:-0.987816 
1 1:-0.912738 2:-0.781261 
1 1:-0.997896 2:-0.987816 
1 1:-0.912738 2:-0.781261 
1 1:-0.997896 2:-0.987816 
1 1:-0.912738 2:-0.781261 
1 1:-0.997896 2:-0.987816 
1 1:-0.912738 2:-0.781261 
1 1:-0.997896 2:-0.987816 
1 1:-0.912738 2:-0.781261 
1 1:-0.997896 2:-0.987816 
1 1:-0.912738 2:-0.781261 
1 1:-0.997896 2:-0.987816 
1 1:-0.912738 2:-0.781261 
1 1:-0.997896 2:-0.987816 
1 1:-0.912738 2:-0.781261 
1 1:-0.997896 2:-0.987816 
1 1:-0.912738 2:-0.781261 
1 1:-0.997896 2:-0.987816 
1 1:-0.912738 2:-0.781261 
1 1:-0.997896 2:-0.987816 
1 1:-0.912738 2:-0.781261 
1 1:-0.997896 2:-0.987816 
1 1:-0.912738 2:-0.781261 
1 1:-0.997896 2:-0.987816 
1 1:-0.912738 2:-0.781261 
1 1:-0.997896 2:-0.987816 
1 1:-0.912738 2:-0.781261 
1 1:-0.997896 2:-0.987816 
1 1:-0.912738 2:-0.781261 
1 1:-0.997896 2:-0.987816 
1 1:-0.912738 2:-0.781261 
1 1:-0.997896 2:-0.987816 
1 1:-0.912738 2:-0.781261 
1 1:-0.997896 2:-0.987816 
1 1:-0.912738 2:-0.781261 
1 1:-0.997896 2:-0.987816 
1 1:-0.912738 2:-0.781261 
1 1:-0.997896 2:-0.987816 
1 1:-0.912738 2:-0.781261 
1 1:-0.997896 2:-0.987816 
1 1:-0.912738 2:-0.781261 
1 1:-0.997896 2:-0.987816 
1 1:-0.912738 2:-0.781261 
1 1:-0.997896 2:-0.987816 
1 1:-0.912738 2:-0.781261 
1 1:-0.997896 2:-0.987816 
1 1:-0.912738 2:-0.781261 
1 1:-0.997896 2:-0.987816 
1 1:-0.912738 2:-0.781261 
1 1:-0.997896 2:-0.987816 
1 1:-0.912738 2:-0.781261 
1 1:-0.997896 2:-0.987816 
1 1:-0.912738 2:-0.781261 
1 1:-0.997896 2:-0.987816 
1 1:-0.912738 2:-0.781261 
1 1:-0.997896 2:-0.987816 
1 1:-0.912738 2:-0.781261 
1 1:-0.998351 2:-0.98506 
1 1:-0.902329 2:-0.676217 
1 1:-0.998351 2:-0.98506 
1 1:-0.902329 2:-0.676217 
1 1:-0.998351 2:-0.98506 
1 1:-0.902329 2:-0.676217 
1 1:-0.998351 2:-0.98506 
1 1:-0.902329 2:-0.676217 
1 1:-0.998351 2:-0.98506 
1 1:-0.902329 2:-0.676217 
1 1:-0.998351 2:-0.98506 
1 1:-0.902329 2:-0.676217 
1 1:-0.998351 2:-0.98506 
1 1:-0.902329 2:-0.676217 
1 1:-0.998351 2:-0.98506 
1 1:-0.902329 2:-0.676217 
1 1:-0.998351 2:-0.98506 
1 1:-0.902329 2:-0.676217 
1 1:-0.998351 2:-0.98506 
1 1:-0.902329 2:-0.676217 
1 1:-0.998351 2:-0.98506 
1 1:-0.902329 2:-0.676217 
1 1:-0.998351 2:-0.98506 
1 1:-0.902329 2:-0.676217 
1 1:-0.998351 2:-0.98506 
1 1:-0.902329 2:-0.676217 
1 1:-0.998351 2:-0.98506 
1 1:-0.902329 2:-0.676217 
1 1:-0.998351 2:-0.98506 
1 1:-0.902329 2:-0.676217 
1 1:-0.998351 2:-0.98506 
1 1:-0.902329 2:-0.676217 
1 1:-0.998351 2:-0.98506 
1 1:-0.902329 2:-0.676217 
1 1:-0.998351 2:-0.98506 
1 1:-0.902329 2:-0.676217 
1 1:-0.998351 2:-0.98506 
1 1:-0.902329 2:-0.676217 
1 1:-0.998351 2:-0.98506 
1 1:-0.902329 2:-0.676217 
1 1:-0.998351 2:-0.98506 
1 1:-0.902329 2:-0.676217 
1 1:-0.998351 2:-0.98506 
1 1:-0.902329 2:-0.676217 
1 1:-0.998351 2:-0.98506 
1 1:-0.902329 2:-0.676217 
1 1:-0.998351 2:-0.98506 
1 1:-0.902329 2:-0.676217 
1 1:-0.998351 2:-0.98506 
1 1:-0.902329 2:-0.676217 
1 1:-0.998351 2:-0.98506 
1 1:-0.902329 2:-0.676217 
1 1:-0.998351 2:-0.98506 
1 1:-0.902329 2:-0.676217 
1 1:-0.998351 2:-0.98506 
1 1:-0.902329 2:-0.676217 
1 1:-0.998351 2:-0.98506 
1 1:-0.902329 2:-0.676217 
1 1:-0.998351 2:-0.98506 
1 1:-0.902329 2:-0.676217 
1 1:-0.998351 2:-0.98506 
1 1:-0.902329 2:-0.676217 
1 1:-0.998351 2:-0.98506 
1 1:-0.902329 2:-0.676217 
1 1:-0.998351 2:-0.98506 
1 1:-0.902329 2:-0.676217 
1 1:-0.998351 2:-0.98506 
1 1:-0.902329 2:-0.676217 
1 1:-0.998351 2:-0.98506 
1 1:-0.902329 2:-0.676217 
1 1:-0.998351 2:-0.98506 
1 1:-0.902329 2:-0.676217 
1 1:-0.998351 2:-0.98506 
1 1:-0.902329 2:-0.676217 
1 1:-0.998351 2:-0.98506 
1 1:-0.902329 2:-0.676217 
0.4803984645211992 1:-0.880747 2:-0.783049 
1 1:-0.998351 2:-0.98506 
1 1:-0.902329 2:-0.676217 
1 1:-0.880747 2:-0.783049 
1 1:-0.998351 2:-0.98506 
1 1:-0.902329 2:-0.676217 
1 1:-0.880747 2:-0.783049 
1 1:-0.998351 2:-0.98506 
1 1:-0.902329 2:-0.676217 
1 1:-0.880747 2:-0.783049 
1 1:-0.998351 2:-0.98506 
1 1:-0.902329 2:-0.676217 
1 1:-0.880747 2:-0.783049 
1 1:-0.998351 2:-0.98506 
1 1:-0.902329 2:-0.676217 
1 1:-0.880747 2:-0.783049 
1 1:-0.998351 2:-0.98506 
1 1:-0.902329 2:-0.676217 
1 1:-0.880747 2:-0.783049 
1 1:-0.998351 2:-0.98506 
1 1:-0.902329 2:-0.676217 
1 1:-0.880747 2:-0.783049 
1 1:-0.998351 2:-0.98506 
1 1:-0.902329 2:-0.676217 
1 1:-0.880747 2:-0.783049 
1 1:-0.998351 2:-0.98506 
1 1:-0.902329 2:-0.676217 
1 1:-0.880747 2:-0.783049 
1 1:-0.998351 2:-0.98506 
1 1:-0.902329 2:-0.676217 
1 1:-0.880747 2:-0.783049 
1 1:-0.998351 2:-0.98506 
1 1:-0.902329 2:-0.676217 
1 1:-0.880747 2:-0.783049 
1 1:-0.998351 2:-0.98506 
1 1:-0.902329 2:-0.676217 
1 1:-0.880747 2:-0.783049 
1 1:-0.998351 2:-0.98506 
1 1:-0.902329 2:-0.676217 
1 1:-0.880747 2:-0.783049 
1 1:-0.998351 2:-0.98506 
1 1:-0.902329 2:-0.676217 
1 1:-0.880747 2:-0.783049 
1 1:-0.998351 2:-0.98506 
1 1:-0.902329 2:-0.676217 
1 1:-0.880747 2:-0.783049 
1 1:-0.998351 2:-0.98506 
1 1:-0.902329 2:-0.676217 
1 1:-0.880747 2:-0.783049 
1 1:-0.998351 2:-0.98506 
1 1:-0.902329 2:-0.676217 
1 1:-0.880747 2:-0.783049 
1 1:-0.998351 2:-0.98506 
1 1:-0.902329 2:-0.676217 
1 1:-0.880747 2:-0.783049 
1 1:-0.998351 2:-0.98506 
1 1:-0.902329 2:-0.676217 
1 1:-0.880747 2:-0.783049 
1 1:-0.998351 2:-0.98506 
1 1:-0.902329 2:-0.676217 
1 1:-0.880747 2:-0.783049 
1 1:-0.998351 2:-0.98506 
1 1:-0.902329 2:-0.676217 
1 1:-0.880747 2:-0.783049 
1 1:-0.998351 2:-0.98506 
1 1:-0.902329 2:-0.676217 
1 1:-0.880747 2:-0.783049 
1 1:-0.998351 2:-0.98506 
1 1:-0.902329 2:-0.676217 
1 1:-0.880747 2:-0.783049 
1 1:-0.998351 2:-0.98506 
1 1:-0.902329 2:-0.676217 
1 1:-0.880747 2:-0.783049 
1 1:-0.998351 2:-0.98506 
1 1:-0.902329 2:-0.676217 
1 1:-0.880747 2:-0.783049 
1 1:-0.998351 2:-0.98506 
1 1:-0.902329 2:-0.676217 
1 1:-0.880747 2:-0.783049 
1 1:-0.998351 2:-0.98506 
1 1:-0.902329 2:-0.676217 
1 1:-0.880747 2:-0.783049 
1 1:-0.998351 2:-0.98506 
1 1:-0.902329 2:-0.676217 
1 1:-0.880747 2:-0.783049 
1 1:-0.998351 2:-0.98506 
1 1:-0.902329 2:-0.676217 
1 1:-0.880747 2:-0.783049 
1 1:-0.998351 2:-0.98506 
1 1:-0.902329 2:-0.676217 
1 1:-0.880747 2:-0.783049 
1 1:-0.998351 2:-0.98506 
1 1:-0.902329 2:-0.676217 
1 1:-0.880747 2:-0.783049 
1 1:-0.998351 2:-0.98506 
1 1:-0.902329 2:-0.676217 
1 1:-0.880747 2:-0.783049 
1 1:-0.998351 2:-0.98506 
1 1:-0.902329 2:-0.676217 
1 1:-0.880747 2:-0.783049 
1 1:-0.998351 2:-0.98506 
1 1:-0.902329 2:-0.676217 
1 1:-0.880747 2:-0.783049 
1 1:-0.998351 2:-0.98506 
1 1:-0.902329 2:-0.676217 
1 1:-0.880747 2:-0.783049 
1 1:-0.998351 2:-0.98506 
1 1:-0.902329 2:-0.676217 
1 1:-0.880747 2:-0.783049 
1 1:-0.998351 2:-0.98506 
1 1:-0.902329 2:-0.676217 
1 1:-0.880747 2:-0.783049 
1 1:-0.998351 2:-0.98506 
1 1:-0.902329 2:-0.676217 
1 1:-0.880747 2:-0.783049 
1 1:-0.998351 2:-0.98506 
1 1:-0.902329 2:-0.676217 
1 1:-0.880747 2:-0.783049 
1 1:-0.998351 2:-0.98506 
1 1:-0.902329 2:-0.676217 
1 1:-0.880747 2:-0.783049 
1 1:-0.998351 2:-0.98506 
1 1:-0.902329 2:-0.676217 
1 1:-0.880747 2:-0.783049 
1 1:-0.998351 2:-0.98506 
1 1:-0.902329 2:-0.676217 
1 1:-0.880747 2:-0.783049 
1 1:-0.998351 2:-0.98506 
1 1:-0.902329 2:-0.676217 
1 1:-0.880747 2:-0.783049 
1 1:-0.998351 2:-0.98506 
1 1:-0.902329 2:-0.676217 
1 1:-0.880747 2:-0.783049 
1 1:-0.998351 2:-0.98506 
1 1:-0.902329 2:-0.676217 
1 1:-0.880747 2:-0.783049 
1 1:-0.998351 2:-0.98506 
1 1:-0.902329 2:-0.676217 
1 1:-0.880747 2:-0.783049 
1 1:-0.998351 2:-0.98506 
1 1:-0.902329 2:-0.676217 
1 1:-0.880747 2:-0.783049 
1 1:-0.998351 2:-0.98506 
1 1:-0.902329 2:-0.676217 
1 1:-0.880747 2:-0.783049 
1 1:-0.998351 2:-0.98506 
1 1:-0.902329 2:-0.676217 
1 1:-0.880747 2:-0.783049 
1 1:-0.998351 2:-0.98506 
1 1:-0.902329 2:-0.676217 
1 1:-0.880747 2:-0.783049 
1 1:-0.998351 2:-0.98506 
1 1:-0.902329 2:-0.676217 
1 1:-0.880747 2:-0.783049 
1 1:-0.998351 2:-0.98506 
1 1:-0.902329 2:-0.676217 
1 1:-0.880747 2:-0.783049 
1 1:-0.998351 2:-0.98506 
1 1:-0.902329 2:-0.676217 
1 1:-0.880747 2:-0.783049 
1 1:-0.998351 2:-0.98506 
1 1:-0.902329 2:-0.676217 
1 1:-0.880747 2:-0.783049 
1 1:-0.998351 2:-0.98506 
1 1:-0.902329 2:-0.676217 
1 1:-0.880747 2:-0.783049 
1 1:-0.998351 2:-0.98506 
1 1:-0.902329 2:-0.676217 
1 1:-0.880747 2:-0.783049 
1 1:-0.998351 2:-0.98506 
1 1:-0.902329 2:-0.676217 
1 1:-0.880747 2:-0.783049 
1 1:-0.998351 2:-0.98506 
1 1:-0.902329 2:-0.676217 
1 1:-0.993678 2:-0.991776 
1 1:-0.993678 2:-0.991776 
1 1:-0.993678 2:-0.991776 
1 1:-0.993678 2:-0.991776 
1 1:-0.993678 2:-0.991776 
1 1:-0.993678 2:-0.991776 
1 1:-0.993678 2:-0.991776 
1 1:-0.993678 2:-0.991776 
1 1:-0.993678 2:-0.991776 
1 1:-0.993678 2:-0.991776 
1 1:-0.993678 2:-0.991776 
1 1:-0.993678 2:-0.991776 
1 1:-0.993678 2:-0.991776 
1 1:-0.993678 2:-0.991776 
1 1:-0.993678 2:-0.991776 
1 1:-0.993678 2:-0.991776 
1 1:-0.993678 2:-0.991776 
1 1:-0.993678 2:-0.991776 
1 1:-0.993678 2:-0.991776 
1 1:-0.993678 2:-0.991776 
1 1:-0.993678 2:-0.991776 
1 1:-0.993678 2:-0.991776 
1 1:-0.993678 2:-0.991776 
1 1:-0.993678 2:-0.991776 
1 1:-0.993678 2:-0.991776 
1 1:-0.993678 2:-0.991776 
1 1:-0.993678 2:-0.991776 
1 1:-0.993678 2:-0.991776 
1 1:-0.993678 2:-0.991776 
1 1:-0.993678 2:-0.991776 
1 1:-0.993678 2:-0.991776 
1 1:-0.993678 2:-0.991776 
1 1:-0.993678 2:-0.991776 
1 1:-0.993678 2:-0.991776 
1 1:-0.993678 2:-0.991776 
1 1:-0.993678 2:-0.991776 
1 1:-0.993678 2:-0.991776 
1 1:-0.993678 2:-0.991776 
1 1:-0.993678 2:-0.991776 
1 1:-0.993678 2:-0.991776 
1 1:-0.993678 2:-0.991776 
1 1:-0.993678 2:-0.991776 
1 1:-0.993678 2:-0.991776 
1 1:-0.993678 2:-0.991776 
1 1:-0.993678 2:-0.991776 
1 1:-0.993678 2:-0.991776 
1 1:-0.993678 2:-0.991776 
1 1:-0.993678 2:-0.991776 
1 1:-0.993678 2:-0.991776 
1 1:-0.993678 2:-0.991776 
1 1:-0.993678 2:-0.991776 
1 1:-0.993678 2:-0.991776 
1 1:-0.993678 2:-0.991776 
1 1:-0.993678 2:-0.991776 
1 1:-0.993678 2:-0.991776 
1 1:-0.993678 2:-0.991776 
1 1:-0.993678 2:-0.991776 
1 1:-0.993678 2:-0.991776 
1 1:-0.993678 2:-0.991776 
1 1:-0.993678 2:-0.991776 
1 1:-0.993678 2:-0.991776 
1 1:-0.993678 2:-0.991776 
1 1:-0.993678 2:-0.991776 
1 1:-0.993678 2:-0.991776 
1 1:-0.993678 2:-0.991776 
1 1:-0.993678 2:-0.991776 
1 1:-0.993678 2:-0.991776 
1 1:-0.993678 2:-0.991776 
1 1:-0.993678 2:-0.991776 
1 1:-0.993678 2:-0.991776 
1 1:-0.993678 2:-0.991776 
1 1:-0.993678 2:-0.991776 
1 1:-0.993678 2:-0.991776 
1 1:-0.993678 2:-0.991776 
1 1:-0.993678 2:-0.991776 
1 1:-0.993678 2:-0.991776 
1 1:-0.993678 2:-0.991776 
1 1:-0.993678 2:-0.991776 
1 1:-0.993678 2:-0.991776 
1 1:-0.993678 2:-0.991776 
1 1:-0.993678 2:-0.991776 
1 1:-0.993678 2:-0.991776 
1 1:-0.993678 2:-0.991776 
1 1:-0.993678 2:-0.991776 
1 1:-0.993678 2:-0.991776 
1 1:-0.993678 2:-0.991776 
1 1:-0.993678 2:-0.991776 
1 1:-0.993678 2:-0.991776 
1 1:-0.993678 2:-0.991776 
1 1:-0.993678 2:-0.991776 
1 1:-0.993678 2:-0.991776 
1 1:-0.993678 2:-0.991776 
1 1:-0.993678 2:-0.991776 
1 1:-0.993678 2:-0.991776 
1 1:-0.993678 2:-0.991776 
1 1:-0.993678 2:-0.991776 
1 1:-0.83639 2:-0.765751 
1 1:-0.827308 2:-0.767199 
1 1:-0.83639 2:-0.765751 
1 1:-0.827308 2:-0.767199 
1 1:-0.83639 2:-0.765751 
1 1:-0.827308 2:-0.767199 
1 1:-0.83639 2:-0.765751 
1 1:-0.827308 2:-0.767199 
1 1:-0.83639 2:-0.765751 
1 1:-0.827308 2:-0.767199 
1 1:-0.83639 2:-0.765751 
1 1:-0.827308 2:-0.767199 
1 1:-0.83639 2:-0.765751 
1 1:-0.827308 2:-0.767199 
1 1:-0.83639 2:-0.765751 
1 1:-0.827308 2:-0.767199 
1 1:-0.83639 2:-0.765751 
1 1:-0.827308 2:-0.767199 
1 1:-0.83639 2:-0.765751 
1 1:-0.827308 2:-0.767199 
1 1:-0.83639 2:-0.765751 
1 1:-0.827308 2:-0.767199 
1 1:-0.83639 2:-0.765751 
1 1:-0.827308 2:-0.767199 
1 1:-0.83639 2:-0.765751 
1 1:-0.827308 2:-0.767199 
1 1:-0.83639 2:-0.765751 
1 1:-0.827308 2:-0.767199 
1 1:-0.83639 2:-0.765751 
1 1:-0.827308 2:-0.767199 
1 1:-0.83639 2:-0.765751 
1 1:-0.827308 2:-0.767199 
1 1:-0.83639 2:-0.765751 
1 1:-0.827308 2:-0.767199 
1 1:-0.83639 2:-0.765751 
1 1:-0.827308 2:-0.767199 
1 1:-0.83639 2:-0.765751 
1 1:-0.827308 2:-0.767199 
1 1:-0.83639 2:-0.765751 
1 1:-0.827308 2:-0.767199 
1 1:-0.83639 2:-0.765751 
1 1:-0.827308 2:-0.767199 
1 1:-0.83639 2:-0.765751 
1 1:-0.827308 2:-0.767199 
1 1:-0.83639 2:-0.765751 
1 1:-0.827308 2:-0.767199 
1 1:-0.83639 2:-0.765751 
1 1:-0.827308 2:-0.767199 
1 1:-0.83639 2:-0.765751 
1 1:-0.827308 2:-0.767199 
1 1:-0.83639 2:-0.765751 
1 1:-0.827308 2:-0.767199 
1 1:-0.83639 2:-0.765751 
1 1:-0.827308 2:-0.767199 
1 1:-0.83639 2:-0.765751 
1 1:-0.827308 2:-0.767199 
1 1:-0.83639 2:-0.765751 
1 1:-0.827308 2:-0.767199 
1 1:-0.83639 2:-0.765751 
1 1:-0.827308 2:-0.767199 
1 1:-0.83639 2:-0.765751 
1 1:-0.827308 2:-0.767199 
1 1:-0.83639 2:-0.765751 
1 1:-0.827308 2:-0.767199 
1 1:-0.83639 2:-0.765751 
1 1:-0.827308 2:-0.767199 
1 1:-0.83639 2:-0.765751 
1 1:-0.827308 2:-0.767199 
1 1:-0.83639 2:-0.765751 
1 1:-0.827308 2:-0.767199 
1 1:-0.83639 2:-0.765751 
1 1:-0.827308 2:-0.767199 
1 1:-0.83639 2:-0.765751 
1 1:-0.827308 2:-0.767199 
1 1:-0.83639 2:-0.765751 
1 1:-0.827308 2:-0.767199 
1 1:-0.83639 2:-0.765751 
1 1:-0.827308 2:-0.767199 
1 1:-0.83639 2:-0.765751 
1 1:-0.827308 2:-0.767199 
1 1:-0.83639 2:-0.765751 
1 1:-0.827308 2:-0.767199 
1 1:-0.83639 2:-0.765751 
1 1:-0.827308 2:-0.767199 
1 1:-0.83639 2:-0.765751 
1 1:-0.827308 2:-0.767199 
1 1:-0.83639 2:-0.765751 
1 1:-0.827308 2:-0.767199 
1 1:-0.83639 2:-0.765751 
1 1:-0.827308 2:-0.767199 
1 1:-0.83639 2:-0.765751 
1 1:-0.827308 2:-0.767199 
1 1:-0.83639 2:-0.765751 
1 1:-0.827308 2:-0.767199 
1 1:-0.83639 2:-0.765751 
1 1:-0.827308 2:-0.767199 
1 1:-0.83639 2:-0.765751 
1 1:-0.827308 2:-0.767199 
1 1:-0.83639 2:-0.765751 
1 1:-0.827308 2:-0.767199 
1 1:-0.83639 2:-0.765751 
1 1:-0.827308 2:-0.767199 
1 1:-0.83639 2:-0.765751 
1 1:-0.827308 2:-0.767199 
1 1:-0.83639 2:-0.765751 
1 1:-0.827308 2:-0.767199 
1 1:-0.83639 2:-0.765751 
1 1:-0.827308 2:-0.767199 
1 1:-0.83639 2:-0.765751 
1 1:-0.827308 2:-0.767199 
1 1:-0.83639 2:-0.765751 
1 1:-0.827308 2:-0.767199 
1 1:-0.83639 2:-0.765751 
1 1:-0.827308 2:-0.767199 
1 1:-0.83639 2:-0.765751 
1 1:-0.827308 2:-0.767199 
1 1:-0.83639 2:-0.765751 
1 1:-0.827308 2:-0.767199 
1 1:-0.83639 2:-0.765751 
1 1:-0.827308 2:-0.767199 
1 1:-0.83639 2:-0.765751 
1 1:-0.827308 2:-0.767199 
1 1:-0.83639 2:-0.765751 
1 1:-0.827308 2:-0.767199 
1 1:-0.83639 2:-0.765751 
1 1:-0.827308 2:-0.767199 
1 1:-0.83639 2:-0.765751 
1 1:-0.827308 2:-0.767199 
1 1:-0.83639 2:-0.765751 
1 1:-0.827308 2:-0.767199 
1 1:-0.83639 2:-0.765751 
1 1:-0.827308 2:-0.767199 
1 1:-0.83639 2:-0.765751 
1 1:-0.827308 2:-0.767199 
1 1:-0.83639 2:-0.765751 
1 1:-0.827308 2:-0.767199 
1 1:-0.83639 2:-0.765751 
1 1:-0.827308 2:-0.767199 
1 1:-0.83639 2:-0.765751 
1 1:-0.827308 2:-0.767199 
1 1:-0.83639 2:-0.765751 
1 1:-0.827308 2:-0.767199 
1 1:-0.83639 2:-0.765751 
1 1:-0.827308 2:-0.767199 
1 1:-0.83639 2:-0.765751 
1 1:-0.827308 2:-0.767199 
1 1:-0.83639 2:-0.765751 
1 1:-0.827308 2:-0.767199 
1 1:-0.83639 2:-0.765751 
1 1:-0.827308 2:-0.767199 
1 1:-0.83639 2:-0.765751 
1 1:-0.827308 2:-0.767199 
1 1:-0.83639 2:-0.765751 
1 1:-0.827308 2:-0.767199 
1 1:-0.83639 2:-0.765751 
1 1:-0.827308 2:-0.767199 
1 1:-0.83639 2:-0.765751 
1 1:-0.827308 2:-0.767199 
1 1:-0.83639 2:-0.765751 
1 1:-0.827308 2:-0.767199 
1 1:-0.83639 2:-0.765751 
1 1:-0.827308 2:-0.767199 
1 1:-0.83639 2:-0.765751 
1 1:-0.827308 2:-0.767199 
1 1:-0.83639 2:-0.765751 
1 1:-0.827308 2:-0.767199 
1 1:-0.83639 2:-0.765751 
1 1:-0.827308 2:-0.767199 
1 1:-0.83639 2:-0.765751 
1 1:-0.827308 2:-0.767199 
1 1:-0.83639 2:-0.765751 
1 1:-0.827308 2:-0.767199 
1 1:-0.83639 2:-0.765751 
1 1:-0.827308 2:-0.767199 
1 1:-0.83639 2:-0.765751 
1 1:-0.827308 2:-0.767199 
1 1:-0.83639 2:-0.765751 
1 1:-0.827308 2:-0.767199 
1 1:-0.83639 2:-0.765751 
1 1:-0.827308 2:-0.767199 
1 1:-0.83639 2:-0.765751 
1 1:-0.827308 2:-0.767199 
1 1:-0.83639 2:-0.765751 
1 1:-0.827308 2:-0.767199 
1 1:-0.83639 2:-0.765751 
1 1:-0.827308 2:-0.767199 
1 1:-0.83639 2:-0.765751 
1 1:-0.827308 2:-0.767199 
1 1:-0.83639 2:-0.765751 
1 1:-0.827308 2:-0.767199 
1 1:-0.83639 2:-0.765751 
1 1:-0.827308 2:-0.767199 
1 1:-0.748943 2:-0.897742 
1 1:-0.715228 2:-0.755773 
1 1:-0.840876 2:-0.781472 
1 1:-0.748943 2:-0.897742 
1 1:-0.715228 2:-0.755773 
1 1:-0.840876 2:-0.781472 
1 1:-0.748943 2:-0.897742 
1 1:-0.715228 2:-0.755773 
1 1:-0.840876 2:-0.781472 
1 1:-0.748943 2:-0.897742 
1 1:-0.715228 2:-0.755773 
1 1:-0.840876 2:-0.781472 
1 1:-0.748943 2:-0.897742 
1 1:-0.715228 2:-0.755773 
1 1:-0.840876 2:-0.781472 
1 1:-0.748943 2:-0.897742 
1 1:-0.715228 2:-0.755773 
1 1:-0.840876 2:-0.781472 
1 1:-0.748943 2:-0.897742 
1 1:-0.715228 2:-0.755773 
1 1:-0.840876 2:-0.781472 
1 1:-0.748943 2:-0.897742 
1 1:-0.715228 2:-0.755773 
1 1:-0.840876 2:-0.781472 
1 1:-0.748943 2:-0.897742 
1 1:-0.715228 2:-0.755773 
1 1:-0.840876 2:-0.781472 
1 1:-0.748943 2:-0.897742 
1 1:-0.715228 2:-0.755773 
1 1:-0.840876 2:-0.781472 
1 1:-0.748943 2:-0.897742 
1 1:-0.715228 2:-0.755773 
1 1:-0.840876 2:-0.781472 
1 1:-0.748943 2:-0.897742 
1 1:-0.715228 2:-0.755773 
1 1:-0.840876 2:-0.781472 
1 1:-0.748943 2:-0.897742 
1 1:-0.715228 2:-0.755773 
1 1:-0.840876 2:-0.781472 
1 1:-0.748943 2:-0.897742 
1 1:-0.715228 2:-0.755773 
1 1:-0.840876 2:-0.781472 
1 1:-0.748943 2:-0.897742 
1 1:-0.715228 2:-0.755773 
1 1:-0.840876 2:-0.781472 
1 1:-0.748943 2:-0.897742 
1 1:-0.715228 2:-0.755773 
1 1:-0.840876 2:-0.781472 
1 1:-0.748943 2:-0.897742 
1 1:-0.715228 2:-0.755773 
1 1:-0.840876 2:-0.781472 
1 1:-0.748943 2:-0.897742 
1 1:-0.715228 2:-0.755773 
1 1:-0.840876 2:-0.781472 
1 1:-0.748943 2:-0.897742 
1 1:-0.715228 2:-0.755773 
1 1:-0.840876 2:-0.781472 
1 1:-0.748943 2:-0.897742 
1 1:-0.715228 2:-0.755773 
1 1:-0.840876 2:-0.781472 
1 1:-0.748943 2:-0.897742 
1 1:-0.715228 2:-0.755773 
1 1:-0.840876 2:-0.781472 
1 1:-0.748943 2:-0.897742 
1 1:-0.715228 2:-0.755773 
1 1:-0.840876 2:-0.781472 
1 1:-0.748943 2:-0.897742 
1 1:-0.715228 2:-0.755773 
1 1:-0.840876 2:-0.781472 
1 1:-0.748943 2:-0.897742 
1 1:-0.715228 2:-0.755773 
1 1:-0.840876 2:-0.781472 
1 1:-0.748943 2:-0.897742 
1 1:-0.715228 2:-0.755773 
1 1:-0.840876 2:-0.781472 
1 1:-0.748943 2:-0.897742 
1 1:-0.715228 2:-0.755773 
1 1:-0.840876 2:-0.781472 
1 1:-0.748943 2:-0.897742 
1 1:-0.715228 2:-0.755773 
1 1:-0.840876 2:-0.781472 
1 1:-0.748943 2:-0.897742 
1 1:-0.715228 2:-0.755773 
1 1:-0.840876 2:-0.781472 
1 1:-0.748943 2:-0.897742 
1 1:-0.715228 2:-0.755773 
1 1:-0.840876 2:-0.781472 
1 1:-0.748943 2:-0.897742 
1 1:-0.715228 2:-0.755773 
1 1:-0.840876 2:-0.781472 
1 1:-0.748943 2:-0.897742 
1 1:-0.715228 2:-0.755773 
1 1:-0.840876 2:-0.781472 
1 1:-0.748943 2:-0.897742 
1 1:-0.715228 2:-0.755773 
1 1:-0.840876 2:-0.781472 
1 1:-0.748943 2:-0.897742 
1 1:-0.715228 2:-0.755773 
1 1:-0.840876 2:-0.781472 
1 1:-0.748943 2:-0.897742 
1 1:-0.715228 2:-0.755773 
1 1:-0.840876 2:-0.781472 
1 1:-0.748943 2:-0.897742 
1 1:-0.715228 2:-0.755773 
1 1:-0.840876 2:-0.781472 
1 1:-0.748943 2:-0.897742 
1 1:-0.715228 2:-0.755773 
1 1:-0.840876 2:-0.781472 
1 1:-0.748943 2:-0.897742 
1 1:-0.715228 2:-0.755773 
1 1:-0.840876 2:-0.781472 
1 1:-0.748943 2:-0.897742 
1 1:-0.715228 2:-0.755773 
1 1:-0.840876 2:-0.781472 
1 1:-0.748943 2:-0.897742 
1 1:-0.715228 2:-0.755773 
1 1:-0.840876 2:-0.781472 
1 1:-0.748943 2:-0.897742 
1 1:-0.715228 2:-0.755773 
1 1:-0.840876 2:-0.781472 
1 1:-0.748943 2:-0.897742 
1 1:-0.715228 2:-0.755773 
1 1:-0.840876 2:-0.781472 
1 1:-0.748943 2:-0.897742 
1 1:-0.715228 2:-0.755773 
1 1:-0.840876 2:-0.781472 
1 1:-0.748943 2:-0.897742 
1 1:-0.715228 2:-0.755773 
1 1:-0.840876 2:-0.781472 
1 1:-0.748943 2:-0.897742 
1 1:-0.715228 2:-0.755773 
1 1:-0.840876 2:-0.781472 
1 1:-0.748943 2:-0.897742 
1 1:-0.715228 2:-0.755773 
1 1:-0.840876 2:-0.781472 
1 1:-0.748943 2:-0.897742 
1 1:-0.715228 2:-0.755773 
1 1:-0.840876 2:-0.781472 
1 1:-0.748943 2:-0.897742 
1 1:-0.715228 2:-0.755773 
1 1:-0.840876 2:-0.781472 
1 1:-0.748943 2:-0.897742 
1 1:-0.715228 2:-0.755773 
1 1:-0.840876 2:-0.781472 
1 1:-0.748943 2:-0.897742 
1 1:-0.715228 2:-0.755773 
1 1:-0.840876 2:-0.781472 
1 1:-0.748943 2:-0.897742 
1 1:-0.715228 2:-0.755773 
1 1:-0.840876 2:-0.781472 
1 1:-0.748943 2:-0.897742 
1 1:-0.715228 2:-0.755773 
1 1:-0.840876 2:-0.781472 
1 1:-0.748943 2:-0.897742 
1 1:-0.715228 2:-0.755773 
1 1:-0.840876 2:-0.781472 
1 1:-0.748943 2:-0.897742 
1 1:-0.715228 2:-0.755773 
1 1:-0.840876 2:-0.781472 
1 1:-0.748943 2:-0.897742 
1 1:-0.715228 2:-0.755773 
1 1:-0.840876 2:-0.781472 
1 1:-0.748943 2:-0.897742 
1 1:-0.715228 2:-0.755773 
1 1:-0.840876 2:-0.781472 
1 1:-0.748943 2:-0.897742 
1 1:-0.715228 2:-0.755773 
1 1:-0.840876 2:-0.781472 
1 1:-0.748943 2:-0.897742 
1 1:-0.715228 2:-0.755773 
1 1:-0.840876 2:-0.781472 
1 1:-0.748943 2:-0.897742 
1 1:-0.715228 2:-0.755773 
1 1:-0.840876 2:-0.781472 
1 1:-0.748943 2:-0.897742 
1 1:-0.715228 2:-0.755773 
1 1:-0.840876 2:-0.781472 
1 1:-0.748943 2:-0.897742 
1 1:-0.715228 2:-0.755773 
1 1:-0.840876 2:-0.781472 
1 1:-0.748943 2:-0.897742 
1 1:-0.715228 2:-0.755773 
1 1:-0.840876 2:-0.781472 
1 1:-0.748943 2:-0.897742 
1 1:-0.715228 2:-0.755773 
1 1:-0.840876 2:-0.781472 
1 1:-0.748943 2:-0.897742 
1 1:-0.715228 2:-0.755773 
1 1:-0.840876 2:-0.781472 
1 1:-0.748943 2:-0.897742 
1 1:-0.715228 2:-0.755773 
1 1:-0.840876 2:-0.781472 
1 1:-0.748943 2:-0.897742 
1 1:-0.715228 2:-0.755773 
1 1:-0.840876 2:-0.781472 
1 1:-0.748943 2:-0.897742 
1 1:-0.715228 2:-0.755773 
1 1:-0.840876 2:-0.781472 
1 1:-0.748943 2:-0.897742 
1 1:-0.715228 2:-0.755773 
1 1:-0.840876 2:-0.781472 
1 1:-0.748943 2:-0.897742 
1 1:-0.715228 2:-0.755773 
1 1:-0.840876 2:-0.781472 
1 1:-0.748943 2:-0.897742 
1 1:-0.715228 2:-0.755773 
1 1:-0.840876 2:-0.781472 
1 1:-0.748943 2:-0.897742 
1 1:-0.715228 2:-0.755773 
1 1:-0.840876 2:-0.781472 
1 1:-0.748943 2:-0.897742 
1 1:-0.715228 2:-0.755773 
1 1:-0.840876 2:-0.781472 
1 1:-0.748943 2:-0.897742 
1 1:-0.715228 2:-0.755773 
1 1:-0.840876 2:-0.781472 
1 1:-0.748943 2:-0.897742 
1 1:-0.715228 2:-0.755773 
1 1:-0.840876 2:-0.781472 
1 1:-0.748943 2:-0.897742 
1 1:-0.715228 2:-0.755773 
1 1:-0.840876 2:-0.781472 
1 1:-0.748943 2:-0.897742 
1 1:-0.715228 2:-0.755773 
1 1:-0.840876 2:-0.781472 
1 1:-0.748943 2:-0.897742 
1 1:-0.715228 2:-0.755773 
1 1:-0.840876 2:-0.781472 
1 1:-0.748943 2:-0.897742 
1 1:-0.715228 2:-0.755773 
1 1:-0.840876 2:-0.781472 
1 1:-0.748943 2:-0.897742 
1 1:-0.715228 2:-0.755773 
1 1:-0.840876 2:-0.781472 
1 1:-0.748943 2:-0.897742 
1 1:-0.715228 2:-0.755773 
1 1:-0.840876 2:-0.781472 
1 1:-0.748943 2:-0.897742 
1 1:-0.715228 2:-0.755773 
1 1:-0.840876 2:-0.781472 
1 1:-0.748943 2:-0.897742 
1 1:-0.715228 2:-0.755773 
1 1:-0.840876 2:-0.781472 
1 1:-0.748943 2:-0.897742 
1 1:-0.715228 2:-0.755773 
1 1:-0.840876 2:-0.781472 
1 1:-0.748943 2:-0.897742 
1 1:-0.715228 2:-0.755773 
1 1:-0.840876 2:-0.781472 
1 1:-0.748943 2:-0.897742 
1 1:-0.715228 2:-0.755773 
1 1:-0.840876 2:-0.781472 
1 1:-0.748943 2:-0.897742 
1 1:-0.715228 2:-0.755773 
1 1:-0.840876 2:-0.781472 
1 1:-0.748943 2:-0.897742 
1 1:-0.715228 2:-0.755773 
1 1:-0.840876 2:-0.781472 
1 1:-0.748943 2:-0.897742 
1 1:-0.715228 2:-0.755773 
1 1:-0.840876 2:-0.781472 
1 1:-0.748943 2:-0.897742 
1 1:-0.715228 2:-0.755773 
1 1:-0.840876 2:-0.781472 
1 1:-0.748943 2:-0.897742 
1 1:-0.715228 2:-0.755773 
1 1:-0.840876 2:-0.781472 
1 1:-0.748943 2:-0.897742 
1 1:-0.715228 2:-0.755773 
1 1:-0.840876 2:-0.781472 
1 1:-0.748943 2:-0.897742 
1 1:-0.715228 2:-0.755773 
1 1:-0.840876 2:-0.781472 
1 1:-0.748943 2:-0.897742 
1 1:-0.715228 2:-0.755773 
1 1:-0.840876 2:-0.781472 
1 1:-0.748943 2:-0.897742 
1 1:-0.715228 2:-0.755773 
1 1:-0.840876 2:-0.781472 
1 1:-0.748943 2:-0.897742 
1 1:-0.715228 2:-0.755773 
1 1:-0.840876 2:-0.781472 
1 1:-0.748943 2:-0.897742 
1 1:-0.715228 2:-0.755773 
1 1:-0.840876 2:-0.781472 
1 1:-0.748943 2:-0.897742 
1 1:-0.715228 2:-0.755773 
1 1:-0.994496 2:-0.99396 
1 1:-0.994496 2:-0.99396 
1 1:-0.994496 2:-0.99396 
1 1:-0.994496 2:-0.99396 
1 1:-0.994496 2:-0.99396 
1 1:-0.994496 2:-0.99396 
1 1:-0.994496 2:-0.99396 
1 1:-0.994496 2:-0.99396 
1 1:-0.994496 2:-0.99396 
1 1:-0.994496 2:-0.99396 
1 1:-0.994496 2:-0.99396 
1 1:-0.994496 2:-0.99396 
1 1:-0.994496 2:-0.99396 
1 1:-0.994496 2:-0.99396 
1 1:-0.994496 2:-0.99396 
1 1:-0.994496 2:-0.99396 
1 1:-0.994496 2:-0.99396 
1 1:-0.994496 2:-0.99396 
1 1:-0.994496 2:-0.99396 
1 1:-0.994496 2:-0.99396 
1 1:-0.994496 2:-0.99396 
1 1:-0.994496 2:-0.99396 
1 1:-0.994496 2:-0.99396 
1 1:-0.994496 2:-0.99396 
1 1:-0.994496 2:-0.99396 
1 1:-0.994496 2:-0.99396 
1 1:-0.994496 2:-0.99396 
1 1:-0.994496 2:-0.99396 
1 1:-0.994496 2:-0.99396 
1 1:-0.994496 2:-0.99396 
1 1:-0.994496 2:-0.99396 
1 1:-0.994496 2:-0.99396 
1 1:-0.994496 2:-0.99396 
1 1:-0.994496 2:-0.99396 
1 1:-0.994496 2:-0.99396 
1 1:-0.994496 2:-0.99396 
1 1:-0.994496 2:-0.99396 
1 1:-0.994496 2:-0.99396 
1 1:-0.994496 2:-0.99396 
1 1:-0.994496 2:-0.99396 
1 1:-0.994496 2:-0.99396 
1 1:-0.994496 2:-0.99396 
1 1:-0.994496 2:-0.99396 
1 1:-0.994496 2:-0.99396 
1 1:-0.994496 2:-0.99396 
1 1:-0.994496 2:-0.99396 
1 1:-0.994496 2:-0.99396 
1 1:-0.994496 2:-0.99396 
1 1:-0.994496 2:-0.99396 
1 1:-0.994496 2:-0.99396 
1 1:-0.994496 2:-0.99396 
1 1:-0.994496 2:-0.99396 
1 1:-0.994496 2:-0.99396 
1 1:-0.994496 2:-0.99396 
1 1:-0.994496 2:-0.99396 
1 1:-0.994496 2:-0.99396 
1 1:-0.994496 2:-0.99396 
1 1:-0.994496 2:-0.99396 
1 1:-0.994496 2:-0.99396 
1 1:-0.994496 2:-0.99396 
1 1:-0.994496 2:-0.99396 
1 1:-0.994496 2:-0.99396 
1 1:-0.994496 2:-0.99396 
1 1:-0.994496 2:-0.99396 
1 1:-0.994496 2:-0.99396 
1 1:-0.994496 2:-0.99396 
1 1:-0.994496 2:-0.99396 
1 1:-0.994496 2:-0.99396 
1 1:-0.994496 2:-0.99396 
1 1:-0.994496 2:-0.99396 
1 1:-0.994496 2:-0.99396 
1 1:-0.994496 2:-0.99396 
1 1:-0.994496 2:-0.99396 
1 1:-0.994496 2:-0.99396 
1 1:-0.994496 2:-0.99396 
1 1:-0.994496 2:-0.99396 
1 1:-0.994496 2:-0.99396 
1 1:-0.994496 2:-0.99396 
1 1:-0.994496 2:-0.99396 
1 1:-0.994496 2:-0.99396 
1 1:-0.994496 2:-0.99396 
1 1:-0.994496 2:-0.99396 
1 1:-0.994496 2:-0.99396 
1 1:-0.994496 2:-0.99396 
1 1:-0.994496 2:-0.99396 
1 1:-0.994496 2:-0.99396 
1 1:-0.994496 2:-0.99396 
1 1:-0.994496 2:-0.99396 
1 1:-0.994496 2:-0.99396 
1 1:-0.994496 2:-0.99396 
1 1:-0.994496 2:-0.99396 
1 1:-0.994496 2:-0.99396 
1 1:-0.994496 2:-0.99396 
1 1:-0.994496 2:-0.99396 
1 1:-0.994496 2:-0.99396 
1 1:-0.994496 2:-0.99396 
1 1:-0.994563 2:-0.996348 
1 1:-0.994563 2:-0.996348 
1 1:-0.994563 2:-0.996348 
1 1:-0.994563 2:-0.996348 
1 1:-0.994563 2:-0.996348 
1 1:-0.994563 2:-0.996348 
1 1:-0.994563 2:-0.996348 
1 1:-0.994563 2:-0.996348 
1 1:-0.994563 2:-0.996348 
1 1:-0.994563 2:-0.996348 
1 1:-0.994563 2:-0.996348 
1 1:-0.994563 2:-0.996348 
1 1:-0.994563 2:-0.996348 
1 1:-0.994563 2:-0.996348 
1 1:-0.994563 2:-0.996348 
1 1:-0.994563 2:-0.996348 
1 1:-0.994563 2:-0.996348 
1 1:-0.994563 2:-0.996348 
1 1:-0.994563 2:-0.996348 
1 1:-0.994563 2:-0.996348 
1 1:-0.994563 2:-0.996348 
1 1:-0.994563 2:-0.996348 
1 1:-0.994563 2:-0.996348 
1 1:-0.994563 2:-0.996348 
1 1:-0.994563 2:-0.996348 
1 1:-0.994563 2:-0.996348 
1 1:-0.994563 2:-0.996348 
1 1:-0.994563 2:-0.996348 
1 1:-0.994563 2:-0.996348 
1 1:-0.994563 2:-0.996348 
1 1:-0.994563 2:-0.996348 
1 1:-0.994563 2:-0.996348 
1 1:-0.994563 2:-0.996348 
1 1:-0.994563 2:-0.996348 
1 1:-0.994563 2:-0.996348 
1 1:-0.994563 2:-0.996348 
1 1:-0.994563 2:-0.996348 
1 1:-0.994563 2:-0.996348 
1 1:-0.994563 2:-0.996348 
1 1:-0.994563 2:-0.996348 
1 1:-0.994563 2:-0.996348 
1 1:-0.994563 2:-0.996348 
1 1:-0.994563 2:-0.996348 
1 1:-0.994563 2:-0.996348 
1 1:-0.994563 2:-0.996348 
1 1:-0.994563 2:-0.996348 
1 1:-0.994563 2:-0.996348 
1 1:-0.994563 2:-0.996348 
1 1:-0.994563 2:-0.996348 
1 1:-0.994563 2:-0.996348 
1 1:-0.994563 2:-0.996348 
1 1:-0.994563 2:-0.996348 
1 1:-0.994563 2:-0.996348 
1 1:-0.994563 2:-0.996348 
1 1:-0.994563 2:-0.996348 
1 1:-0.994563 2:-0.996348 
1 1:-0.994563 2:-0.996348 
1 1:-0.994563 2:-0.996348 
1 1:-0.994563 2:-0.996348 
1 1:-0.994563 2:-0.996348 
1 1:-0.994563 2:-0.996348 
1 1:-0.994563 2:-0.996348 
1 1:-0.994563 2:-0.996348 
1 1:-0.994563 2:-0.996348 
1 1:-0.994563 2:-0.996348 
1 1:-0.994563 2:-0.996348 
1 1:-0.994563 2:-0.996348 
1 1:-0.994563 2:-0.996348 
1 1:-0.994563 2:-0.996348 
1 1:-0.994563 2:-0.996348 
1 1:-0.994563 2:-0.996348 
1 1:-0.994563 2:-0.996348 
1 1:-0.994563 2:-0.996348 
1 1:-0.994563 2:-0.996348 
1 1:-0.994563 2:-0.996348 
1 1:-0.994563 2:-0.996348 
1 1:-0.994563 2:-0.996348 
1 1:-0.994563 2:-0.996348 
1 1:-0.994563 2:-0.996348 
1 1:-0.994563 2:-0.996348 
1 1:-0.994563 2:-0.996348 
1 1:-0.994563 2:-0.996348 
1 1:-0.994563 2:-0.996348 
1 1:-0.994563 2:-0.996348 
1 1:-0.994563 2:-0.996348 
1 1:-0.994563 2:-0.996348 
1 1:-0.994563 2:-0.996348 
1 1:-0.994563 2:-0.996348 
1 1:-0.994563 2:-0.996348 
1 1:-0.994563 2:-0.996348 
1 1:-0.994563 2:-0.996348 
1 1:-0.994563 2:-0.996348 
1 1:-0.994563 2:-0.996348 
1 1:-0.994563 2:-0.996348 
1 1:-0.994563 2:-0.996348 
1 1:-0.996169 2:-0.996078 
1 1:-0.996169 2:-0.996078 
1 1:-0.996169 2:-0.996078 
1 1:-0.996169 2:-0.996078 
1 1:-0.996169 2:-0.996078 
1 1:-0.996169 2:-0.996078 
1 1:-0.996169 2:-0.996078 
1 1:-0.996169 2:-0.996078 
1 1:-0.996169 2:-0.996078 
1 1:-0.996169 2:-0.996078 
1 1:-0.996169 2:-0.996078 
1 1:-0.996169 2:-0.996078 
1 1:-0.996169 2:-0.996078 
1 1:-0.996169 2:-0.996078 
1 1:-0.996169 2:-0.996078 
1 1:-0.996169 2:-0.996078 
1 1:-0.996169 2:-0.996078 
1 1:-0.996169 2:-0.996078 
1 1:-0.996169 2:-0.996078 
1 1:-0.996169 2:-0.996078 
1 1:-0.996169 2:-0.996078 
1 1:-0.996169 2:-0.996078 
1 1:-0.996169 2:-0.996078 
1 1:-0.996169 2:-0.996078 
1 1:-0.996169 2:-0.996078 
1 1:-0.996169 2:-0.996078 
1 1:-0.996169 2:-0.996078 
1 1:-0.996169 2:-0.996078 
1 1:-0.996169 2:-0.996078 
1 1:-0.996169 2:-0.996078 
1 1:-0.996169 2:-0.996078 
1 1:-0.996169 2:-0.996078 
1 1:-0.996169 2:-0.996078 
1 1:-0.996169 2:-0.996078 
1 1:-0.996169 2:-0.996078 
1 1:-0.996169 2:-0.996078 
1 1:-0.996169 2:-0.996078 
1 1:-0.996169 2:-0.996078 
1 1:-0.996169 2:-0.996078 
1 1:-0.996169 2:-0.996078 
1 1:-0.996169 2:-0.996078 
1 1:-0.996169 2:-0.996078 
1 1:-0.996169 2:-0.996078 
1 1:-0.996169 2:-0.996078 
1 1:-0.996169 2:-0.996078 
1 1:-0.996169 2:-0.996078 
1 1:-0.996169 2:-0.996078 
1 1:-0.996169 2:-0.996078 
1 1:-0.996169 2:-0.996078 
1 1:-0.996169 2:-0.996078 
1 1:-0.996169 2:-0.996078 
1 1:-0.996169 2:-0.996078 
1 1:-0.996169 2:-0.996078 
1 1:-0.996169 2:-0.996078 
1 1:-0.996169 2:-0.996078 
1 1:-0.996169 2:-0.996078 
1 1:-0.996169 2:-0.996078 
1 1:-0.996169 2:-0.996078 
1 1:-0.996169 2:-0.996078 
1 1:-0.996169 2:-0.996078 
1 1:-0.996169 2:-0.996078 
1 1:-0.996169 2:-0.996078 
1 1:-0.996169 2:-0.996078 
1 1:-0.996169 2:-0.996078 
1 1:-0.996169 2:-0.996078 
1 1:-0.996169 2:-0.996078 
1 1:-0.996169 2:-0.996078 
1 1:-0.996169 2:-0.996078 
1 1:-0.996169 2:-0.996078 
1 1:-0.996169 2:-0.996078 
1 1:-0.996169 2:-0.996078 
1 1:-0.996169 2:-0.996078 
1 1:-0.996169 2:-0.996078 
1 1:-0.996169 2:-0.996078 
1 1:-0.996169 2:-0.996078 
1 1:-0.996169 2:-0.996078 
1 1:-0.996169 2:-0.996078 
1 1:-0.996169 2:-0.996078 
1 1:-0.996169 2:-0.996078 
1 1:-0.996169 2:-0.996078 
1 1:-0.996169 2:-0.996078 
1 1:-0.996169 2:-0.996078 
1 1:-0.996169 2:-0.996078 
1 1:-0.996169 2:-0.996078 
1 1:-0.996169 2:-0.996078 
1 1:-0.996169 2:-0.996078 
1 1:-0.996169 2:-0.996078 
1 1:-0.996169 2:-0.996078 
1 1:-0.996169 2:-0.996078 
1 1:-0.996169 2:-0.996078 
1 1:-0.996169 2:-0.996078 
1 1:-0.996169 2:-0.996078 
1 1:-0.996169 2:-0.996078 
1 1:-0.996169 2:-0.996078 
1 1:-0.996169 2:-0.996078 
1 1:-0.997695 2:-0.997125 
1 1:-0.997695 2:-0.997125 
1 1:-0.997695 2:-0.997125 
1 1:-0.997695 2:-0.997125 
1 1:-0.997695 2:-0.997125 
1 1:-0.997695 2:-0.997125 
1 1:-0.997695 2:-0.997125 
1 1:-0.997695 2:-0.997125 
1 1:-0.997695 2:-0.997125 
1 1:-0.997695 2:-0.997125 
1 1:-0.997695 2:-0.997125 
1 1:-0.997695 2:-0.997125 
1 1:-0.997695 2:-0.997125 
1 1:-0.997695 2:-0.997125 
1 1:-0.997695 2:-0.997125 
1 1:-0.997695 2:-0.997125 
1 1:-0.997695 2:-0.997125 
1 1:-0.997695 2:-0.997125 
1 1:-0.997695 2:-0.997125 
1 1:-0.997695 2:-0.997125 
1 1:-0.997695 2:-0.997125 
1 1:-0.997695 2:-0.997125 
1 1:-0.997695 2:-0.997125 
1 1:-0.997695 2:-0.997125 
1 1:-0.997695 2:-0.997125 
1 1:-0.997695 2:-0.997125 
1 1:-0.997695 2:-0.997125 
1 1:-0.997695 2:-0.997125 
1 1:-0.997695 2:-0.997125 
1 1:-0.997695 2:-0.997125 
1 1:-0.997695 2:-0.997125 
1 1:-0.997695 2:-0.997125 
1 1:-0.997695 2:-0.997125 
1 1:-0.997695 2:-0.997125 
1 1:-0.997695 2:-0.997125 
1 1:-0.997695 2:-0.997125 
1 1:-0.997695 2:-0.997125 
1 1:-0.997695 2:-0.997125 
1 1:-0.997695 2:-0.997125 
1 1:-0.997695 2:-0.997125 
1 1:-0.997695 2:-0.997125 
1 1:-0.997695 2:-0.997125 
1 1:-0.997695 2:-0.997125 
1 1:-0.997695 2:-0.997125 
1 1:-0.997695 2:-0.997125 
1 1:-0.997695 2:-0.997125 
1 1:-0.997695 2:-0.997125 
1 1:-0.997695 2:-0.997125 
1 1:-0.997695 2:-0.997125 
1 1:-0.997695 2:-0.997125 
1 1:-0.997695 2:-0.997125 
1 1:-0.997695 2:-0.997125 
1 1:-0.997695 2:-0.997125 
1 1:-0.997695 2:-0.997125 
1 1:-0.997695 2:-0.997125 
1 1:-0.997695 2:-0.997125 
1 1:-0.997695 2:-0.997125 
1 1:-0.997695 2:-0.997125 
1 1:-0.997695 2:-0.997125 
1 1:-0.997695 2:-0.997125 
1 1:-0.997695 2:-0.997125 
1 1:-0.997695 2:-0.997125 
1 1:-0.997695 2:-0.997125 
1 1:-0.997695 2:-0.997125 
1 1:-0.997695 2:-0.997125 
1 1:-0.997695 2:-0.997125 
1 1:-0.997695 2:-0.997125 
1 1:-0.997695 2:-0.997125 
1 1:-0.997695 2:-0.997125 
1 1:-0.997695 2:-0.997125 
1 1:-0.997695 2:-0.997125 
1 1:-0.997695 2:-0.997125 
1 1:-0.997695 2:-0.997125 
1 1:-0.997695 2:-0.997125 
1 1:-0.997695 2:-0.997125 
1 1:-0.997695 2:-0.997125 
1 1:-0.997695 2:-0.997125 
1 1:-0.997695 2:-0.997125 
1 1:-0.997695 2:-0.997125 
1 1:-0.997695 2:-0.997125 
1 1:-0.997695 2:-0.997125 
1 1:-0.997695 2:-0.997125 
1 1:-0.997695 2:-0.997125 
1 1:-0.997695 2:-0.997125 
1 1:-0.997695 2:-0.997125 
1 1:-0.997695 2:-0.997125 
1 1:-0.997695 2:-0.997125 
1 1:-0.997695 2:-0.997125 
1 1:-0.997695 2:-0.997125 
1 1:-0.997695 2:-0.997125 
1 1:-0.997695 2:-0.997125 
1 1:-0.997695 2:-0.997125 
1 1:-0.997695 2:-0.997125 
1 1:-0.997695 2:-0.997125 
1 1:-0.997695 2:-0.997125 
1 1:-0.997695 2:-0.997125 
1 1:-0.999187 2:-0.998708 
1 1:-0.999187 2:-0.998708 
1 1:-0.999187 2:-0.998708 
1 1:-0.999187 2:-0.998708 
1 1:-0.999187 2:-0.998708 
1 1:-0.999187 2:-0.998708 
1 1:-0.999187 2:-0.998708 
1 1:-0.999187 2:-0.998708 
1 1:-0.999187 2:-0.998708 
1 1:-0.999187 2:-0.998708 
1 1:-0.999187 2:-0.998708 
1 1:-0.999187 2:-0.998708 
1 1:-0.999187 2:-0.998708 
1 1:-0.999187 2:-0.998708 
1 1:-0.999187 2:-0.998708 
1 1:-0.999187 2:-0.998708 
1 1:-0.999187 2:-0.998708 
1 1:-0.999187 2:-0.998708 
1 1:-0.999187 2:-0.998708 
1 1:-0.999187 2:-0.998708 
1 1:-0.999187 2:-0.998708 
1 1:-0.999187 2:-0.998708 
1 1:-0.999187 2:-0.998708 
1 1:-0.999187 2:-0.998708 
1 1:-0.999187 2:-0.998708 
1 1:-0.999187 2:-0.998708 
1 1:-0.999187 2:-0.998708 
1 1:-0.999187 2:-0.998708 
1 1:-0.999187 2:-0.998708 
1 1:-0.999187 2:-0.998708 
1 1:-0.999187 2:-0.998708 
1 1:-0.999187 2:-0.998708 
1 1:-0.999187 2:-0.998708 
1 1:-0.999187 2:-0.998708 
1 1:-0.999187 2:-0.998708 
1 1:-0.999187 2:-0.998708 
1 1:-0.999187 2:-0.998708 
1 1:-0.999187 2:-0.998708 
1 1:-0.999187 2:-0.998708 
1 1:-0.999187 2:-0.998708 
1 1:-0.999187 2:-0.998708 
1 1:-0.999187 2:-0.998708 
1 1:-0.999187 2:-0.998708 
1 1:-0.999187 2:-0.998708 
1 1:-0.999187 2:-0.998708 
1 1:-0.999187 2:-0.998708 
1 1:-0.999187 2:-0.998708 
1 1:-0.999187 2:-0.998708 
1 1:-0.999187 2:-0.998708 
1 1:-0.999187 2:-0.998708 
1 1:-0.999187 2:-0.998708 
1 1:-0.999187 2:-0.998708 
1 1:-0.999187 2:-0.998708 
1 1:-0.999187 2:-0.998708 
1 1:-0.999187 2:-0.998708 
1 1:-0.999187 2:-0.998708 
1 1:-0.999187 2:-0.998708 
1 1:-0.999187 2:-0.998708 
1 1:-0.999187 2:-0.998708 
1 1:-0.999187 2:-0.998708 
1 1:-0.999187 2:-0.998708 
1 1:-0.999187 2:-0.998708 
1 1:-0.999187 2:-0.998708 
1 1:-0.999187 2:-0.998708 
1 1:-0.999187 2:-0.998708 
1 1:-0.999187 2:-0.998708 
1 1:-0.999187 2:-0.998708 
1 1:-0.999187 2:-0.998708 
1 1:-0.999187 2:-0.998708 
1 1:-0.999187 2:-0.998708 
1 1:-0.999187 2:-0.998708 
1 1:-0.999187 2:-0.998708 
1 1:-0.999187 2:-0.998708 
1 1:-0.999187 2:-0.998708 
1 1:-0.999187 2:-0.998708 
1 1:-0.999187 2:-0.998708 
1 1:-0.999187 2:-0.998708 
1 1:-0.999187 2:-0.998708 
1 1:-0.999187 2:-0.998708 
1 1:-0.999187 2:-0.998708 
1 1:-0.999187 2:-0.998708 
1 1:-0.999187 2:-0.998708 
1 1:-0.999187 2:-0.998708 
1 1:-0.999187 2:-0.998708 
1 1:-0.999187 2:-0.998708 
1 1:-0.999187 2:-0.998708 
1 1:-0.999187 2:-0.998708 
1 1:-0.999187 2:-0.998708 
1 1:-0.999187 2:-0.998708 
1 1:-0.999187 2:-0.998708 
1 1:-0.999187 2:-0.998708 
1 1:-0.999187 2:-0.998708 
1 1:-0.999187 2:-0.998708 
1 1:-0.999187 2:-0.998708 
1 1:-0.998633 2:-0.996448 
1 1:-0.998633 2:-0.996448 
1 1:-0.998633 2:-0.996448 
1 1:-0.998633 2:-0.996448 
1 1:-0.998633 2:-0.996448 
1 1:-0.998633 2:-0.996448 
1 1:-0.998633 2:-0.996448 
1 1:-0.998633 2:-0.996448 
1 1:-0.998633 2:-0.996448 
1 1:-0.998633 2:-0.996448 
1 1:-0.998633 2:-0.996448 
1 1:-0.998633 2:-0.996448 
1 1:-0.998633 2:-0.996448 
1 1:-0.998633 2:-0.996448 
1 1:-0.998633 2:-0.996448 
1 1:-0.998633 2:-0.996448 
1 1:-0.998633 2:-0.996448 
1 1:-0.998633 2:-0.996448 
1 1:-0.998633 2:-0.996448 
1 1:-0.998633 2:-0.996448 
1 1:-0.998633 2:-0.996448 
1 1:-0.998633 2:-0.996448 
1 1:-0.998633 2:-0.996448 
1 1:-0.998633 2:-0.996448 
1 1:-0.998633 2:-0.996448 
1 1:-0.998633 2:-0.996448 
1 1:-0.998633 2:-0.996448 
1 1:-0.998633 2:-0.996448 
1 1:-0.998633 2:-0.996448 
1 1:-0.998633 2:-0.996448 
1 1:-0.998633 2:-0.996448 
1 1:-0.998633 2:-0.996448 
1 1:-0.998633 2:-0.996448 
1 1:-0.998633 2:-0.996448 
1 1:-0.998633 2:-0.996448 
1 1:-0.998633 2:-0.996448 
1 1:-0.998633 2:-0.996448 
1 1:-0.998633 2:-0.996448 
1 1:-0.998633 2:-0.996448 
1 1:-0.998633 2:-0.996448 
1 1:-0.998633 2:-0.996448 
1 1:-0.998633 2:-0.996448 
1 1:-0.998633 2:-0.996448 
1 1:-0.998633 2:-0.996448 
1 1:-0.998633 2:-0.996448 
1 1:-0.998633 2:-0.996448 
1 1:-0.998633 2:-0.996448 
1 1:-0.998633 2:-0.996448 
1 1:-0.998633 2:-0.996448 
1 1:-0.998633 2:-0.996448 
1 1:-0.998633 2:-0.996448 
1 1:-0.998633 2:-0.996448 
1 1:-0.998633 2:-0.996448 
1 1:-0.998633 2:-0.996448 
1 1:-0.998633 2:-0.996448 
1 1:-0.998633 2:-0.996448 
1 1:-0.998633 2:-0.996448 
1 1:-0.998633 2:-0.996448 
1 1:-0.998633 2:-0.996448 
1 1:-0.998633 2:-0.996448 
1 1:-0.998633 2:-0.996448 
1 1:-0.998633 2:-0.996448 
1 1:-0.998633 2:-0.996448 
1 1:-0.998633 2:-0.996448 
1 1:-0.998633 2:-0.996448 
1 1:-0.998633 2:-0.996448 
1 1:-0.998633 2:-0.996448 
1 1:-0.998633 2:-0.996448 
1 1:-0.998633 2:-0.996448 
1 1:-0.998633 2:-0.996448 
1 1:-0.998633 2:-0.996448 
1 1:-0.998633 2:-0.996448 
1 1:-0.998633 2:-0.996448 
1 1:-0.998633 2:-0.996448 
1 1:-0.998633 2:-0.996448 
1 1:-0.998633 2:-0.996448 
1 1:-0.998633 2:-0.996448 
1 1:-0.998633 2:-0.996448 
1 1:-0.998633 2:-0.996448 
1 1:-0.998633 2:-0.996448 
1 1:-0.998633 2:-0.996448 
1 1:-0.998633 2:-0.996448 
1 1:-0.998633 2:-0.996448 
1 1:-0.998633 2:-0.996448 
1 1:-0.998633 2:-0.996448 
1 1:-0.998633 2:-0.996448 
1 1:-0.998633 2:-0.996448 
1 1:-0.998633 2:-0.996448 
1 1:-0.998633 2:-0.996448 
1 1:-0.998633 2:-0.996448 
1 1:-0.998633 2:-0.996448 
1 1:-0.998633 2:-0.996448 
1 1:-0.998633 2:-0.996448 
1 1:-0.998633 2:-0.996448 
1 1:-0.998633 2:-0.996448 
1 1:-0.997075 2:-0.998267 
1 1:-0.997075 2:-0.998267 
1 1:-0.997075 2:-0.998267 
1 1:-0.997075 2:-0.998267 
1 1:-0.997075 2:-0.998267 
1 1:-0.997075 2:-0.998267 
1 1:-0.997075 2:-0.998267 
1 1:-0.997075 2:-0.998267 
1 1:-0.997075 2:-0.998267 
1 1:-0.997075 2:-0.998267 
1 1:-0.997075 2:-0.998267 
1 1:-0.997075 2:-0.998267 
1 1:-0.997075 2:-0.998267 
1 1:-0.997075 2:-0.998267 
1 1:-0.997075 2:-0.998267 
1 1:-0.997075 2:-0.998267 
1 1:-0.997075 2:-0.998267 
1 1:-0.997075 2:-0.998267 
1 1:-0.997075 2:-0.998267 
1 1:-0.997075 2:-0.998267 
1 1:-0.997075 2:-0.998267 
1 1:-0.997075 2:-0.998267 
1 1:-0.997075 2:-0.998267 
1 1:-0.997075 2:-0.998267 
1 1:-0.997075 2:-0.998267 
1 1:-0.997075 2:-0.998267 
1 1:-0.997075 2:-0.998267 
1 1:-0.997075 2:-0.998267 
1 1:-0.997075 2:-0.998267 
1 1:-0.997075 2:-0.998267 
1 1:-0.997075 2:-0.998267 
1 1:-0.997075 2:-0.998267 
1 1:-0.997075 2:-0.998267 
1 1:-0.997075 2:-0.998267 
1 1:-0.997075 2:-0.998267 
1 1:-0.997075 2:-0.998267 
1 1:-0.997075 2:-0.998267 
1 1:-0.997075 2:-0.998267 
1 1:-0.997075 2:-0.998267 
1 1:-0.997075 2:-0.998267 
1 1:-0.997075 2:-0.998267 
1 1:-0.997075 2:-0.998267 
1 1:-0.997075 2:-0.998267 
1 1:-0.997075 2:-0.998267 
1 1:-0.997075 2:-0.998267 
1 1:-0.997075 2:-0.998267 
1 1:-0.997075 2:-0.998267 
1 1:-0.997075 2:-0.998267 
1 1:-0.997075 2:-0.998267 
1 1:-0.991795 2:-0.994714 
1 1:-0.733293 2:-0.878392 
1 1:-0.739989 2:-0.798274 
1 1:-0.991795 2:-0.994714 
1 1:-0.733293 2:-0.878392 
1 1:-0.739989 2:-0.798274 
1 1:-0.991795 2:-0.994714 
1 1:-0.733293 2:-0.878392 
1 1:-0.739989 2:-0.798274 
1 1:-0.991795 2:-0.994714 
1 1:-0.733293 2:-0.878392 
1 1:-0.739989 2:-0.798274 
1 1:-0.991795 2:-0.994714 
1 1:-0.733293 2:-0.878392 
1 1:-0.739989 2:-0.798274 
1 1:-0.991795 2:-0.994714 
1 1:-0.733293 2:-0.878392 
1 1:-0.739989 2:-0.798274 
1 1:-0.99111 2:-0.998297 
1 1:-0.710543 2:-0.852416 
1 1:-0.692213 2:-0.795859 
1 1:-0.99111 2:-0.998297 
1 1:-0.710543 2:-0.852416 
1 1:-0.692213 2:-0.795859 
1 1:-0.99111 2:-0.998297 
1 1:-0.710543 2:-0.852416 
1 1:-0.692213 2:-0.795859 
1 1:-0.99111 2:-0.998297 
1 1:-0.710543 2:-0.852416 
1 1:-0.692213 2:-0.795859 
1 1:-0.99111 2:-0.998297 
1 1:-0.710543 2:-0.852416 
1 1:-0.692213 2:-0.795859 
1 1:-0.99111 2:-0.998297 
1 1:-0.710543 2:-0.852416 
1 1:-0.692213 2:-0.795859 
1 1:-0.99111 2:-0.998297 
1 1:-0.710543 2:-0.852416 
1 1:-0.692213 2:-0.795859 
1 1:-0.99111 2:-0.998297 
1 1:-0.710543 2:-0.852416 
1 1:-0.692213 2:-0.795859 
1 1:-0.99111 2:-0.998297 
1 1:-0.710543 2:-0.852416 
1 1:-0.692213 2:-0.795859 
1 1:-0.99111 2:-0.998297 
1 1:-0.710543 2:-0.852416 
1 1:-0.692213 2:-0.795859 
1 1:-0.99111 2:-0.998297 
1 1:-0.710543 2:-0.852416 
1 1:-0.692213 2:-0.795859 
1 1:-0.99111 2:-0.998297 
1 1:-0.710543 2:-0.852416 
1 1:-0.692213 2:-0.795859 
1 1:-0.99111 2:-0.998297 
1 1:-0.710543 2:-0.852416 
1 1:-0.692213 2:-0.795859 
1 1:-0.99111 2:-0.998297 
1 1:-0.710543 2:-0.852416 
1 1:-0.692213 2:-0.795859 
1 1:-0.99111 2:-0.998297 
1 1:-0.710543 2:-0.852416 
1 1:-0.692213 2:-0.795859 
1 1:-0.99111 2:-0.998297 
1 1:-0.710543 2:-0.852416 
1 1:-0.692213 2:-0.795859 
1 1:-0.99111 2:-0.998297 
1 1:-0.710543 2:-0.852416 
1 1:-0.692213 2:-0.795859 
1 1:-0.99111 2:-0.998297 
1 1:-0.710543 2:-0.852416 
1 1:-0.692213 2:-0.795859 
1 1:-0.99111 2:-0.998297 
1 1:-0.710543 2:-0.852416 
1 1:-0.692213 2:-0.795859 
1 1:-0.99111 2:-0.998297 
1 1:-0.710543 2:-0.852416 
1 1:-0.692213 2:-0.795859 
1 1:-0.99111 2:-0.998297 
1 1:-0.710543 2:-0.852416 
1 1:-0.692213 2:-0.795859 
1 1:-0.99111 2:-0.998297 
1 1:-0.710543 2:-0.852416 
1 1:-0.692213 2:-0.795859 
1 1:-0.99111 2:-0.998297 
1 1:-0.710543 2:-0.852416 
1 1:-0.692213 2:-0.795859 
1 1:-0.99111 2:-0.998297 
1 1:-0.710543 2:-0.852416 
1 1:-0.692213 2:-0.795859 
1 1:-0.99111 2:-0.998297 
1 1:-0.710543 2:-0.852416 
1 1:-0.692213 2:-0.795859 
1 1:-0.99111 2:-0.998297 
1 1:-0.710543 2:-0.852416 
1 1:-0.692213 2:-0.795859 
1 1:-0.99111 2:-0.998297 
1 1:-0.710543 2:-0.852416 
1 1:-0.692213 2:-0.795859 
1 1:-0.99111 2:-0.998297 
1 1:-0.710543 2:-0.852416 
1 1:-0.692213 2:-0.795859 
1 1:-0.99111 2:-0.998297 
1 1:-0.710543 2:-0.852416 
1 1:-0.692213 2:-0.795859 
1 1:-0.99111 2:-0.998297 
1 1:-0.710543 2:-0.852416 
1 1:-0.692213 2:-0.795859 
1 1:-0.99111 2:-0.998297 
1 1:-0.710543 2:-0.852416 
1 1:-0.692213 2:-0.795859 
1 1:-0.99111 2:-0.998297 
1 1:-0.710543 2:-0.852416 
1 1:-0.692213 2:-0.795859 
1 1:-0.99111 2:-0.998297 
1 1:-0.710543 2:-0.852416 
1 1:-0.692213 2:-0.795859 
1 1:-0.99111 2:-0.998297 
1 1:-0.710543 2:-0.852416 
1 1:-0.692213 2:-0.795859 
1 1:-0.99111 2:-0.998297 
1 1:-0.710543 2:-0.852416 
1 1:-0.692213 2:-0.795859 
1 1:-0.99111 2:-0.998297 
1 1:-0.710543 2:-0.852416 
1 1:-0.692213 2:-0.795859 
1 1:-0.99111 2:-0.998297 
1 1:-0.710543 2:-0.852416 
1 1:-0.692213 2:-0.795859 
1 1:-0.99111 2:-0.998297 
1 1:-0.710543 2:-0.852416 
1 1:-0.692213 2:-0.795859 
1 1:-0.99111 2:-0.998297 
1 1:-0.710543 2:-0.852416 
1 1:-0.692213 2:-0.795859 
1 1:-0.99111 2:-0.998297 
1 1:-0.710543 2:-0.852416 
1 1:-0.692213 2:-0.795859 
1 1:-0.99111 2:-0.998297 
1 1:-0.710543 2:-0.852416 
1 1:-0.692213 2:-0.795859 
1 1:-0.99111 2:-0.998297 
1 1:-0.710543 2:-0.852416 
1 1:-0.692213 2:-0.795859 
1 1:-0.99111 2:-0.998297 
1 1:-0.710543 2:-0.852416 
1 1:-0.692213 2:-0.795859 
1 1:-0.99111 2:-0.998297 
1 1:-0.710543 2:-0.852416 
1 1:-0.692213 2:-0.795859 
1 1:-0.99111 2:-0.998297 
1 1:-0.710543 2:-0.852416 
1 1:-0.692213 2:-0.795859 
1 1:-0.99111 2:-0.998297 
1 1:-0.710543 2:-0.852416 
1 1:-0.692213 2:-0.795859 
1 1:-0.99111 2:-0.998297 
1 1:-0.710543 2:-0.852416 
1 1:-0.692213 2:-0.795859 
1 1:-0.99111 2:-0.998297 
1 1:-0.710543 2:-0.852416 
1 1:-0.692213 2:-0.795859 
1 1:-0.99111 2:-0.998297 
1 1:-0.710543 2:-0.852416 
1 1:-0.692213 2:-0.795859 
1 1:-0.99111 2:-0.998297 
1 1:-0.710543 2:-0.852416 
1 1:-0.692213 2:-0.795859 
1 1:-0.99111 2:-0.998297 
1 1:-0.710543 2:-0.852416 
1 1:-0.692213 2:-0.795859 
1 1:-0.99111 2:-0.998297 
1 1:-0.710543 2:-0.852416 
1 1:-0.692213 2:-0.795859 
1 1:-0.99111 2:-0.998297 
1 1:-0.710543 2:-0.852416 
1 1:-0.692213 2:-0.795859 
1 1:-0.99111 2:-0.998297 
1 1:-0.710543 2:-0.852416 
1 1:-0.692213 2:-0.795859 
1 1:-0.99111 2:-0.998297 
1 1:-0.710543 2:-0.852416 
1 1:-0.692213 2:-0.795859 
1 1:-0.99111 2:-0.998297 
1 1:-0.710543 2:-0.852416 
1 1:-0.692213 2:-0.795859 
1 1:-0.99111 2:-0.998297 
1 1:-0.710543 2:-0.852416 
1 1:-0.692213 2:-0.795859 
1 1:-0.99111 2:-0.998297 
1 1:-0.710543 2:-0.852416 
1 1:-0.692213 2:-0.795859 
1 1:-0.99111 2:-0.998297 
1 1:-0.710543 2:-0.852416 
1 1:-0.692213 2:-0.795859 
1 1:-0.99111 2:-0.998297 
1 1:-0.710543 2:-0.852416 
1 1:-0.692213 2:-0.795859 
1 1:-0.99111 2:-0.998297 
1 1:-0.710543 2:-0.852416 
1 1:-0.692213 2:-0.795859 
1 1:-0.99111 2:-0.998297 
1 1:-0.710543 2:-0.852416 
1 1:-0.692213 2:-0.795859 
1 1:-0.99111 2:-0.998297 
1 1:-0.710543 2:-0.852416 
1 1:-0.692213 2:-0.795859 
1 1:-0.99111 2:-0.998297 
1 1:-0.710543 2:-0.852416 
1 1:-0.692213 2:-0.795859 
1 1:-0.99111 2:-0.998297 
1 1:-0.710543 2:-0.852416 
1 1:-0.692213 2:-0.795859 
1 1:-0.99111 2:-0.998297 
1 1:-0.710543 2:-0.852416 
1 1:-0.692213 2:-0.795859 
1 1:-0.99111 2:-0.998297 
1 1:-0.710543 2:-0.852416 
1 1:-0.692213 2:-0.795859 
1 1:-0.99111 2:-0.998297 
1 1:-0.710543 2:-0.852416 
1 1:-0.692213 2:-0.795859 
1 1:-0.99111 2:-0.998297 
1 1:-0.710543 2:-0.852416 
1 1:-0.692213 2:-0.795859 
1 1:-0.99111 2:-0.998297 
1 1:-0.710543 2:-0.852416 
1 1:-0.692213 2:-0.795859 
1 1:-0.99111 2:-0.998297 
1 1:-0.710543 2:-0.852416 
1 1:-0.692213 2:-0.795859 
1 1:-0.99111 2:-0.998297 
1 1:-0.710543 2:-0.852416 
1 1:-0.692213 2:-0.795859 
1 1:-0.99111 2:-0.998297 
1 1:-0.710543 2:-0.852416 
1 1:-0.692213 2:-0.795859 
1 1:-0.99111 2:-0.998297 
1 1:-0.710543 2:-0.852416 
1 1:-0.692213 2:-0.795859 
1 1:-0.99111 2:-0.998297 
1 1:-0.710543 2:-0.852416 
1 1:-0.692213 2:-0.795859 
1 1:-0.99111 2:-0.998297 
1 1:-0.710543 2:-0.852416 
1 1:-0.692213 2:-0.795859 
1 1:-0.99111 2:-0.998297 
1 1:-0.710543 2:-0.852416 
1 1:-0.692213 2:-0.795859 
1 1:-0.99111 2:-0.998297 
1 1:-0.710543 2:-0.852416 
1 1:-0.692213 2:-0.795859 
1 1:-0.99111 2:-0.998297 
1 1:-0.710543 2:-0.852416 
1 1:-0.692213 2:-0.795859 
1 1:-0.99111 2:-0.998297 
1 1:-0.710543 2:-0.852416 
1 1:-0.692213 2:-0.795859 
1 1:-0.99111 2:-0.998297 
1 1:-0.710543 2:-0.852416 
1 1:-0.692213 2:-0.795859 
1 1:-0.99111 2:-0.998297 
1 1:-0.710543 2:-0.852416 
1 1:-0.692213 2:-0.795859 
1 1:-0.99111 2:-0.998297 
1 1:-0.710543 2:-0.852416 
1 1:-0.692213 2:-0.795859 
1 1:-0.99111 2:-0.998297 
1 1:-0.710543 2:-0.852416 
1 1:-0.692213 2:-0.795859 
1 1:-0.99111 2:-0.998297 
1 1:-0.710543 2:-0.852416 
1 1:-0.692213 2:-0.795859 
1 1:-0.99111 2:-0.998297 
1 1:-0.710543 2:-0.852416 
1 1:-0.692213 2:-0.795859 
1 1:-0.99111 2:-0.998297 
1 1:-0.710543 2:-0.852416 
1 1:-0.692213 2:-0.795859 
1 1:-0.99111 2:-0.998297 
1 1:-0.710543 2:-0.852416 
1 1:-0.692213 2:-0.795859 
1 1:-0.99111 2:-0.998297 
1 1:-0.710543 2:-0.852416 
1 1:-0.692213 2:-0.795859 
1 1:-0.99111 2:-0.998297 
1 1:-0.710543 2:-0.852416 
1 1:-0.692213 2:-0.795859 
1 1:-0.99111 2:-0.998297 
1 1:-0.710543 2:-0.852416 
1 1:-0.692213 2:-0.795859 
1 1:-0.99111 2:-0.998297 
1 1:-0.710543 2:-0.852416 
1 1:-0.692213 2:-0.795859 
1 1:-0.99111 2:-0.998297 
1 1:-0.710543 2:-0.852416 
1 1:-0.692213 2:-0.795859 
1 1:-0.99111 2:-0.998297 
1 1:-0.710543 2:-0.852416 
1 1:-0.692213 2:-0.795859 
1 1:-0.998348 2:-0.998226 
1 1:-0.998348 2:-0.998226 
1 1:-0.998348 2:-0.998226 
1 1:-0.998348 2:-0.998226 
1 1:-0.998348 2:-0.998226 
1 1:-0.998348 2:-0.998226 
1 1:-0.998348 2:-0.998226 
1 1:-0.998348 2:-0.998226 
1 1:-0.998348 2:-0.998226 
1 1:-0.998348 2:-0.998226 
1 1:-0.998348 2:-0.998226 
1 1:-0.998348 2:-0.998226 
1 1:-0.998348 2:-0.998226 
1 1:-0.998348 2:-0.998226 
1 1:-0.998348 2:-0.998226 
1 1:-0.998348 2:-0.998226 
1 1:-0.998348 2:-0.998226 
1 1:-0.998348 2:-0.998226 
1 1:-0.998348 2:-0.998226 
1 1:-0.998348 2:-0.998226 
1 1:-0.998348 2:-0.998226 
1 1:-0.998348 2:-0.998226 
1 1:-0.998348 2:-0.998226 
1 1:-0.998348 2:-0.998226 
1 1:-0.998348 2:-0.998226 
1 1:-0.998348 2:-0.998226 
1 1:-0.998348 2:-0.998226 
1 1:-0.998348 2:-0.998226 
1 1:-0.998348 2:-0.998226 
1 1:-0.998348 2:-0.998226 
1 1:-0.998348 2:-0.998226 
1 1:-0.998348 2:-0.998226 
1 1:-0.998348 2:-0.998226 
1 1:-0.998348 2:-0.998226 
1 1:-0.998348 2:-0.998226 
1 1:-0.998348 2:-0.998226 
1 1:-0.998348 2:-0.998226 
1 1:-0.998348 2:-0.998226 
1 1:-0.998348 2:-0.998226 
1 1:-0.998348 2:-0.998226 
1 1:-0.998348 2:-0.998226 
1 1:-0.998348 2:-0.998226 
1 1:-0.998348 2:-0.998226 
1 1:-0.998348 2:-0.998226 
1 1:-0.998348 2:-0.998226 
1 1:-0.998348 2:-0.998226 
1 1:-0.998348 2:-0.998226 
1 1:-0.998348 2:-0.998226 
1 1:-0.998348 2:-0.998226 
1 1:-0.998348 2:-0.998226 
1 1:-0.998348 2:-0.998226 
1 1:-0.998348 2:-0.998226 
1 1:-0.998348 2:-0.998226 
1 1:-0.998348 2:-0.998226 
1 1:-0.998348 2:-0.998226 
1 1:-0.998348 2:-0.998226 
1 1:-0.998348 2:-0.998226 
1 1:-0.998348 2:-0.998226 
1 1:-0.998348 2:-0.998226 
1 1:-0.998348 2:-0.998226 
1 1:-0.998348 2:-0.998226 
1 1:-0.998348 2:-0.998226 
1 1:-0.998348 2:-0.998226 
1 1:-0.998348 2:-0.998226 
1 1:-0.998348 2:-0.998226 
1 1:-0.998348 2:-0.998226 
1 1:-0.998348 2:-0.998226 
1 1:-0.998348 2:-0.998226 
1 1:-0.998348 2:-0.998226 
1 1:-0.998348 2:-0.998226 
1 1:-0.998348 2:-0.998226 
1 1:-0.998348 2:-0.998226 
1 1:-0.998348 2:-0.998226 
1 1:-0.998348 2:-0.998226 
1 1:-0.998348 2:-0.998226 
1 1:-0.998348 2:-0.998226 
1 1:-0.998348 2:-0.998226 
1 1:-0.998348 2:-0.998226 
1 1:-0.998348 2:-0.998226 
1 1:-0.998348 2:-0.998226 
1 1:-0.998348 2:-0.998226 
1 1:-0.998348 2:-0.998226 
1 1:-0.998348 2:-0.998226 
1 1:-0.998348 2:-0.998226 
1 1:-0.998348 2:-0.998226 
1 1:-0.998348 2:-0.998226 
1 1:-0.998348 2:-0.998226 
1 1:-0.998348 2:-0.998226 
1 1:-0.998348 2:-0.998226 
1 1:-0.998348 2:-0.998226 
1 1:-0.998348 2:-0.998226 
1 1:-0.998348 2:-0.998226 
1 1:-0.998348 2:-0.998226 
1 1:-0.994556 2:-0.995096 
1 1:-0.994556 2:-0.995096 
1 1:-0.994556 2:-0.995096 
1 1:-0.994556 2:-0.995096 
1 1:-0.994556 2:-0.995096 
1 1:-0.994556 2:-0.995096 
1 1:-0.994556 2:-0.995096 
1 1:-0.994556 2:-0.995096 
1 1:-0.994556 2:-0.995096 
1 1:-0.994556 2:-0.995096 
1 1:-0.994556 2:-0.995096 
1 1:-0.994556 2:-0.995096 
1 1:-0.994556 2:-0.995096 
1 1:-0.994556 2:-0.995096 
1 1:-0.994556 2:-0.995096 
1 1:-0.994556 2:-0.995096 
1 1:-0.994556 2:-0.995096 
1 1:-0.994556 2:-0.995096 
1 1:-0.994556 2:-0.995096 
1 1:-0.994556 2:-0.995096 
1 1:-0.994556 2:-0.995096 
1 1:-0.994556 2:-0.995096 
1 1:-0.994556 2:-0.995096 
1 1:-0.994556 2:-0.995096 
1 1:-0.994556 2:-0.995096 
1 1:-0.994556 2:-0.995096 
1 1:-0.994556 2:-0.995096 
1 1:-0.994556 2:-0.995096 
1 1:-0.994556 2:-0.995096 
1 1:-0.994556 2:-0.995096 
1 1:-0.994556 2:-0.995096 
1 1:-0.994556 2:-0.995096 
1 1:-0.994556 2:-0.995096 
1 1:-0.994556 2:-0.995096 
1 1:-0.994556 2:-0.995096 
1 1:-0.994556 2:-0.995096 
1 1:-0.994556 2:-0.995096 
1 1:-0.994556 2:-0.995096 
1 1:-0.994556 2:-0.995096 
1 1:-0.994556 2:-0.995096 
1 1:-0.994556 2:-0.995096 
1 1:-0.994556 2:-0.995096 
1 1:-0.994556 2:-0.995096 
1 1:-0.994556 2:-0.995096 
1 1:-0.994556 2:-0.995096 
1 1:-0.994556 2:-0.995096 
1 1:-0.994556 2:-0.995096 
1 1:-0.994556 2:-0.995096 
1 1:-0.994556 2:-0.995096 
1 1:-0.994556 2:-0.995096 
1 1:-0.994556 2:-0.995096 
1 1:-0.994556 2:-0.995096 
1 1:-0.994556 2:-0.995096 
1 1:-0.994556 2:-0.995096 
1 1:-0.994556 2:-0.995096 
1 1:-0.994556 2:-0.995096 
1 1:-0.994556 2:-0.995096 
1 1:-0.994556 2:-0.995096 
1 1:-0.994556 2:-0.995096 
1 1:-0.994556 2:-0.995096 
1 1:-0.994556 2:-0.995096 
1 1:-0.994556 2:-0.995096 
1 1:-0.994556 2:-0.995096 
1 1:-0.994556 2:-0.995096 
1 1:-0.994556 2:-0.995096 
1 1:-0.994556 2:-0.995096 
1 1:-0.994556 2:-0.995096 
1 1:-0.994556 2:-0.995096 
1 1:-0.994556 2:-0.995096 
1 1:-0.994556 2:-0.995096 
1 1:-0.994556 2:-0.995096 
1 1:-0.994556 2:-0.995096 
1 1:-0.994556 2:-0.995096 
1 1:-0.994556 2:-0.995096 
1 1:-0.994556 2:-0.995096 
1 1:-0.994556 2:-0.995096 
1 1:-0.994556 2:-0.995096 
1 1:-0.994556 2:-0.995096 
1 1:-0.994556 2:-0.995096 
1 1:-0.994556 2:-0.995096 
1 1:-0.994556 2:-0.995096 
1 1:-0.994556 2:-0.995096 
1 1:-0.994556 2:-0.995096 
1 1:-0.994556 2:-0.995096 
1 1:-0.994556 2:-0.995096 
1 1:-0.994556 2:-0.995096 
1 1:-0.994556 2:-0.995096 
1 1:-0.994556 2:-0.995096 
1 1:-0.994556 2:-0.995096 
1 1:-0.994556 2:-0.995096 
1 1:-0.994556 2:-0.995096 
1 1:-0.994556 2:-0.995096 
1 1:-0.994556 2:-0.995096 
1 1:-0.994556 2:-0.995096 
1 1:-0.996659 2:-0.997932 
1 1:-0.996659 2:-0.997932 
1 1:-0.996659 2:-0.997932 
1 1:-0.996659 2:-0.997932 
1 1:-0.996659 2:-0.997932 
1 1:-0.996659 2:-0.997932 
1 1:-0.996659 2:-0.997932 
1 1:-0.996659 2:-0.997932 
1 1:-0.996659 2:-0.997932 
1 1:-0.996659 2:-0.997932 
1 1:-0.996659 2:-0.997932 
1 1:-0.996659 2:-0.997932 
1 1:-0.996659 2:-0.997932 
1 1:-0.996659 2:-0.997932 
1 1:-0.996659 2:-0.997932 
1 1:-0.996659 2:-0.997932 
1 1:-0.996659 2:-0.997932 
1 1:-0.996659 2:-0.997932 
1 1:-0.996659 2:-0.997932 
1 1:-0.996659 2:-0.997932 
1 1:-0.996659 2:-0.997932 
1 1:-0.996659 2:-0.997932 
1 1:-0.996659 2:-0.997932 
1 1:-0.996659 2:-0.997932 
1 1:-0.996659 2:-0.997932 
1 1:-0.996659 2:-0.997932 
1 1:-0.996659 2:-0.997932 
1 1:-0.996659 2:-0.997932 
1 1:-0.996659 2:-0.997932 
1 1:-0.996659 2:-0.997932 
1 1:-0.996659 2:-0.997932 
1 1:-0.996659 2:-0.997932 
1 1:-0.996659 2:-0.997932 
1 1:-0.996659 2:-0.997932 
1 1:-0.996659 2:-0.997932 
1 1:-0.996659 2:-0.997932 
1 1:-0.996659 2:-0.997932 
1 1:-0.996659 2:-0.997932 
1 1:-0.996659 2:-0.997932 
1 1:-0.996659 2:-0.997932 
1 1:-0.996659 2:-0.997932 
1 1:-0.996659 2:-0.997932 
1 1:-0.996659 2:-0.997932 
1 1:-0.996659 2:-0.997932 
1 1:-0.996659 2:-0.997932 
1 1:-0.996659 2:-0.997932 
1 1:-0.996659 2:-0.997932 
1 1:-0.996659 2:-0.997932 
1 1:-0.996659 2:-0.997932 
1 1:-0.996659 2:-0.997932 
1 1:-0.996659 2:-0.997932 
1 1:-0.996659 2:-0.997932 
1 1:-0.996659 2:-0.997932 
1 1:-0.996659 2:-0.997932 
1 1:-0.996659 2:-0.997932 
1 1:-0.996659 2:-0.997932 
1 1:-0.996659 2:-0.997932 
1 1:-0.996659 2:-0.997932 
1 1:-0.996659 2:-0.997932 
1 1:-0.996659 2:-0.997932 
1 1:-0.996659 2:-0.997932 
1 1:-0.996659 2:-0.997932 
1 1:-0.996659 2:-0.997932 
1 1:-0.996659 2:-0.997932 
1 1:-0.996659 2:-0.997932 
1 1:-0.996659 2:-0.997932 
1 1:-0.996659 2:-0.997932 
1 1:-0.996659 2:-0.997932 
1 1:-0.996659 2:-0.997932 
1 1:-0.996659 2:-0.997932 
1 1:-0.996659 2:-0.997932 
1 1:-0.996659 2:-0.997932 
1 1:-0.996659 2:-0.997932 
1 1:-0.996659 2:-0.997932 
1 1:-0.996659 2:-0.997932 
1 1:-0.996659 2:-0.997932 
1 1:-0.996659 2:-0.997932 
1 1:-0.996659 2:-0.997932 
1 1:-0.996659 2:-0.997932 
1 1:-0.996659 2:-0.997932 
1 1:-0.996659 2:-0.997932 
1 1:-0.996659 2:-0.997932 
1 1:-0.996659 2:-0.997932 
1 1:-0.996659 2:-0.997932 
1 1:-0.996659 2:-0.997932 
1 1:-0.996659 2:-0.997932 
1 1:-0.996659 2:-0.997932 
1 1:-0.996659 2:-0.997932 
1 1:-0.996659 2:-0.997932 
1 1:-0.996659 2:-0.997932 
1 1:-0.997548 2:-0.997445 
1 1:-0.997548 2:-0.997445 
1 1:-0.997548 2:-0.997445 
1 1:-0.997548 2:-0.997445 
1 1:-0.997548 2:-0.997445 
1 1:-0.997548 2:-0.997445 
1 1:-0.997548 2:-0.997445 
1 1:-0.997548 2:-0.997445 
1 1:-0.997548 2:-0.997445 
1 1:-0.997548 2:-0.997445 
1 1:-0.997548 2:-0.997445 
1 1:-0.997548 2:-0.997445 
1 1:-0.997548 2:-0.997445 
1 1:-0.997548 2:-0.997445 
1 1:-0.997548 2:-0.997445 
1 1:-0.997548 2:-0.997445 
1 1:-0.997548 2:-0.997445 
1 1:-0.997548 2:-0.997445 
1 1:-0.997548 2:-0.997445 
1 1:-0.997548 2:-0.997445 
1 1:-0.997548 2:-0.997445 
1 1:-0.997548 2:-0.997445 
1 1:-0.997548 2:-0.997445 
1 1:-0.997548 2:-0.997445 
1 1:-0.997548 2:-0.997445 
1 1:-0.997548 2:-0.997445 
1 1:-0.997548 2:-0.997445 
1 1:-0.997548 2:-0.997445 
1 1:-0.997548 2:-0.997445 
1 1:-0.997548 2:-0.997445 
1 1:-0.997548 2:-0.997445 
1 1:-0.997548 2:-0.997445 
1 1:-0.997548 2:-0.997445 
1 1:-0.997548 2:-0.997445 
1 1:-0.997548 2:-0.997445 
1 1:-0.997548 2:-0.997445 
1 1:-0.997548 2:-0.997445 
1 1:-0.997548 2:-0.997445 
1 1:-0.997548 2:-0.997445 
1 1:-0.997548 2:-0.997445 
1 1:-0.997548 2:-0.997445 
1 1:-0.997548 2:-0.997445 
1 1:-0.997548 2:-0.997445 
1 1:-0.997548 2:-0.997445 
1 1:-0.997548 2:-0.997445 
1 1:-0.997548 2:-0.997445 
1 1:-0.997548 2:-0.997445 
1 1:-0.997548 2:-0.997445 
1 1:-0.997548 2:-0.997445 
1 1:-0.997548 2:-0.997445 
1 1:-0.997548 2:-0.997445 
1 1:-0.997548 2:-0.997445 
1 1:-0.997548 2:-0.997445 
1 1:-0.997548 2:-0.997445 
1 1:-0.997548 2:-0.997445 
1 1:-0.997548 2:-0.997445 
1 1:-0.997548 2:-0.997445 
1 1:-0.997548 2:-0.997445 
1 1:-0.997548 2:-0.997445 
1 1:-0.997548 2:-0.997445 
1 1:-0.997548 2:-0.997445 
1 1:-0.997548 2:-0.997445 
1 1:-0.997548 2:-0.997445 
1 1:-0.997548 2:-0.997445 
1 1:-0.997548 2:-0.997445 
1 1:-0.997548 2:-0.997445 
1 1:-0.997548 2:-0.997445 
1 1:-0.997548 2:-0.997445 
1 1:-0.997548 2:-0.997445 
1 1:-0.997548 2:-0.997445 
1 1:-0.997548 2:-0.997445 
1 1:-0.997548 2:-0.997445 
1 1:-0.997548 2:-0.997445 
1 1:-0.997548 2:-0.997445 
1 1:-0.997548 2:-0.997445 
1 1:-0.997548 2:-0.997445 
1 1:-0.997548 2:-0.997445 
1 1:-0.997548 2:-0.997445 
1 1:-0.997548 2:-0.997445 
1 1:-0.997548 2:-0.997445 
1 1:-0.997548 2:-0.997445 
1 1:-0.997548 2:-0.997445 
1 1:-0.997548 2:-0.997445 
1 1:-0.997548 2:-0.997445 
1 1:-0.997548 2:-0.997445 
1 1:-0.997548 2:-0.997445 
1 1:-0.997548 2:-0.997445 
1 1:-0.997548 2:-0.997445 
1 1:-0.996873 2:-0.996944 
1 1:-0.996873 2:-0.996944 
1 1:-0.996873 2:-0.996944 
1 1:-0.996873 2:-0.996944 
1 1:-0.996873 2:-0.996944 
1 1:-0.996873 2:-0.996944 
1 1:-0.996873 2:-0.996944 
1 1:-0.996873 2:-0.996944 
1 1:-0.996873 2:-0.996944 
1 1:-0.996873 2:-0.996944 
1 1:-0.996873 2:-0.996944 
1 1:-0.996873 2:-0.996944 
1 1:-0.996873 2:-0.996944 
1 1:-0.996873 2:-0.996944 
1 1:-0.996873 2:-0.996944 
1 1:-0.996873 2:-0.996944 
1 1:-0.996873 2:-0.996944 
1 1:-0.996873 2:-0.996944 
1 1:-0.996873 2:-0.996944 
1 1:-0.996873 2:-0.996944 
1 1:-0.996873 2:-0.996944 
1 1:-0.996873 2:-0.996944 
1 1:-0.996873 2:-0.996944 
1 1:-0.996873 2:-0.996944 
1 1:-0.996873 2:-0.996944 
1 1:-0.996873 2:-0.996944 
1 1:-0.996873 2:-0.996944 
1 1:-0.996873 2:-0.996944 
1 1:-0.996873 2:-0.996944 
1 1:-0.996873 2:-0.996944 
1 1:-0.996873 2:-0.996944 
1 1:-0.996873 2:-0.996944 
1 1:-0.996873 2:-0.996944 
1 1:-0.996873 2:-0.996944 
1 1:-0.996873 2:-0.996944 
1 1:-0.996873 2:-0.996944 
1 1:-0.996873 2:-0.996944 
1 1:-0.996873 2:-0.996944 
1 1:-0.996873 2:-0.996944 
1 1:-0.996873 2:-0.996944 
1 1:-0.996873 2:-0.996944 
1 1:-0.996873 2:-0.996944 
1 1:-0.996873 2:-0.996944 
1 1:-0.996873 2:-0.996944 
1 1:-0.996873 2:-0.996944 
1 1:-0.996873 2:-0.996944 
1 1:-0.996873 2:-0.996944 
1 1:-0.996873 2:-0.996944 
1 1:-0.996873 2:-0.996944 
1 1:-0.996873 2:-0.996944 
1 1:-0.996873 2:-0.996944 
1 1:-0.996873 2:-0.996944 
1 1:-0.996873 2:-0.996944 
1 1:-0.996873 2:-0.996944 
1 1:-0.996873 2:-0.996944 
1 1:-0.996873 2:-0.996944 
1 1:-0.996873 2:-0.996944 
1 1:-0.996873 2:-0.996944 
1 1:-0.996873 2:-0.996944 
1 1:-0.996873 2:-0.996944 
1 1:-0.996873 2:-0.996944 
1 1:-0.996873 2:-0.996944 
1 1:-0.996873 2:-0.996944 
1 1:-0.996873 2:-0.996944 
1 1:-0.996873 2:-0.996944 
1 1:-0.996873 2:-0.996944 
1 1:-0.996873 2:-0.996944 
1 1:-0.996873 2:-0.996944 
1 1:-0.996873 2:-0.996944 
1 1:-0.996873 2:-0.996944 
1 1:-0.996873 2:-0.996944 
1 1:-0.996873 2:-0.996944 
1 1:-0.996873 2:-0.996944 
1 1:-0.996873 2:-0.996944 
1 1:-0.996873 2:-0.996944 
1 1:-0.996873 2:-0.996944 
1 1:-0.996873 2:-0.996944 
1 1:-0.996873 2:-0.996944 
1 1:-0.996873 2:-0.996944 
1 1:-0.996873 2:-0.996944 
1 1:-0.996873 2:-0.996944 
1 1:-0.996873 2:-0.996944 
1 1:-0.996873 2:-0.996944 
1 1:-0.996873 2:-0.996944 
1 1:-0.996873 2:-0.996944 
1 1:-0.996873 2:-0.996944 
1 1:-0.996873 2:-0.996944 
1 1:-0.996873 2:-0.996944 
1 1:-0.996873 2:-0.996944 
1 1:-0.996873 2:-0.996944 
1 1:-0.996873 2:-0.996944 
1 1:-0.996873 2:-0.996944 
1 1:-0.996873 2:-0.996944 
1 1:-0.996873 2:-0.996944 
1 1:-0.996873 2:-0.996944 
1 1:-0.996873 2:-0.996944 
1 1:-0.996911 2:-0.996399 
1 1:-0.996911 2:-0.996399 
1 1:-0.996911 2:-0.996399 
1 1:-0.996911 2:-0.996399 
1 1:-0.996911 2:-0.996399 
1 1:-0.996911 2:-0.996399 
1 1:-0.996911 2:-0.996399 
1 1:-0.996911 2:-0.996399 
1 1:-0.996911 2:-0.996399 
1 1:-0.996911 2:-0.996399 
1 1:-0.996911 2:-0.996399 
1 1:-0.996911 2:-0.996399 
1 1:-0.996911 2:-0.996399 
1 1:-0.996911 2:-0.996399 
1 1:-0.996911 2:-0.996399 
1 1:-0.996911 2:-0.996399 
1 1:-0.996911 2:-0.996399 
1 1:-0.996911 2:-0.996399 
1 1:-0.996911 2:-0.996399 
1 1:-0.996911 2:-0.996399 
1 1:-0.996911 2:-0.996399 
1 1:-0.996911 2:-0.996399 
1 1:-0.996911 2:-0.996399 
1 1:-0.996911 2:-0.996399 
1 1:-0.996911 2:-0.996399 
1 1:-0.996911 2:-0.996399 
1 1:-0.996911 2:-0.996399 
1 1:-0.996911 2:-0.996399 
1 1:-0.996911 2:-0.996399 
1 1:-0.996911 2:-0.996399 
1 1:-0.996911 2:-0.996399 
1 1:-0.996911 2:-0.996399 
1 1:-0.996911 2:-0.996399 
1 1:-0.996911 2:-0.996399 
1 1:-0.996911 2:-0.996399 
1 1:-0.996911 2:-0.996399 
1 1:-0.996911 2:-0.996399 
1 1:-0.996911 2:-0.996399 
1 1:-0.996911 2:-0.996399 
1 1:-0.996911 2:-0.996399 
1 1:-0.996911 2:-0.996399 
1 1:-0.996911 2:-0.996399 
1 1:-0.996911 2:-0.996399 
1 1:-0.996911 2:-0.996399 
1 1:-0.996911 2:-0.996399 
1 1:-0.996911 2:-0.996399 
1 1:-0.996911 2:-0.996399 
1 1:-0.996911 2:-0.996399 
1 1:-0.996911 2:-0.996399 
1 1:-0.996911 2:-0.996399 
1 1:-0.996911 2:-0.996399 
1 1:-0.996911 2:-0.996399 
1 1:-0.996911 2:-0.996399 
1 1:-0.996911 2:-0.996399 
1 1:-0.996911 2:-0.996399 
1 1:-0.996911 2:-0.996399 
1 1:-0.996911 2:-0.996399 
1 1:-0.996911 2:-0.996399 
1 1:-0.996911 2:-0.996399 
1 1:-0.996911 2:-0.996399 
1 1:-0.996911 2:-0.996399 
1 1:-0.996911 2:-0.996399 
1 1:-0.996911 2:-0.996399 
1 1:-0.996911 2:-0.996399 
1 1:-0.996911 2:-0.996399 
1 1:-0.996911 2:-0.996399 
1 1:-0.996911 2:-0.996399 
1 1:-0.996911 2:-0.996399 
1 1:-0.996911 2:-0.996399 
1 1:-0.996911 2:-0.996399 
1 1:-0.996911 2:-0.996399 
1 1:-0.996911 2:-0.996399 
1 1:-0.996911 2:-0.996399 
1 1:-0.996911 2:-0.996399 
1 1:-0.996911 2:-0.996399 
1 1:-0.996911 2:-0.996399 
1 1:-0.996911 2:-0.996399 
1 1:-0.996911 2:-0.996399 
1 1:-0.996911 2:-0.996399 
1 1:-0.996911 2:-0.996399 
1 1:-0.996911 2:-0.996399 
1 1:-0.996911 2:-0.996399 
1 1:-0.996911 2:-0.996399 
1 1:-0.996911 2:-0.996399 
1 1:-0.996911 2:-0.996399 
1 1:-0.996911 2:-0.996399 
1 1:-0.996911 2:-0.996399 
1 1:-0.996911 2:-0.996399 
1 1:-0.996911 2:-0.996399 
1 1:-0.996911 2:-0.996399 
1 1:-0.996911 2:-0.996399 
1 1:-0.998107 2:-0.99514 
1 1:-0.998107 2:-0.99514 
1 1:-0.998107 2:-0.99514 
1 1:-0.998107 2:-0.99514 
1 1:-0.998107 2:-0.99514 
1 1:-0.998107 2:-0.99514 
1 1:-0.998107 2:-0.99514 
1 1:-0.998107 2:-0.99514 
1 1:-0.998107 2:-0.99514 
1 1:-0.998107 2:-0.99514 
1 1:-0.998107 2:-0.99514 
1 1:-0.998107 2:-0.99514 
1 1:-0.998107 2:-0.99514 
1 1:-0.998107 2:-0.99514 
1 1:-0.998107 2:-0.99514 
1 1:-0.998107 2:-0.99514 
1 1:-0.998107 2:-0.99514 
1 1:-0.998107 2:-0.99514 
1 1:-0.998107 2:-0.99514 
1 1:-0.998107 2:-0.99514 
1 1:-0.998107 2:-0.99514 
1 1:-0.998107 2:-0.99514 
1 1:-0.998107 2:-0.99514 
1 1:-0.998107 2:-0.99514 
1 1:-0.998107 2:-0.99514 
1 1:-0.998107 2:-0.99514 
1 1:-0.998107 2:-0.99514 
1 1:-0.998107 2:-0.99514 
1 1:-0.998107 2:-0.99514 
1 1:-0.998107 2:-0.99514 
1 1:-0.998107 2:-0.99514 
1 1:-0.998107 2:-0.99514 
1 1:-0.998107 2:-0.99514 
1 1:-0.998107 2:-0.99514 
1 1:-0.998107 2:-0.99514 
1 1:-0.998107 2:-0.99514 
1 1:-0.998107 2:-0.99514 
1 1:-0.998107 2:-0.99514 
1 1:-0.998107 2:-0.99514 
1 1:-0.998107 2:-0.99514 
1 1:-0.998107 2:-0.99514 
1 1:-0.998107 2:-0.99514 
1 1:-0.998107 2:-0.99514 
1 1:-0.998107 2:-0.99514 
1 1:-0.998107 2:-0.99514 
1 1:-0.998107 2:-0.99514 
1 1:-0.998107 2:-0.99514 
