svm_type c_svc
kernel_type rbf
gamma 0.5
nr_class 2
total_sv 44457
rho 16.1249
label 1 2
nr_sv 22229 22228
SV
1 1:-0.919802 2:-0.826224 
1 1:-0.919802 2:-0.826224 
1 1:-0.919802 2:-0.826224 
1 1:-0.919802 2:-0.826224 
1 1:-0.919802 2:-0.826224 
1 1:-0.919802 2:-0.826224 
1 1:-0.919802 2:-0.826224 
1 1:-0.919802 2:-0.826224 
1 1:-0.919802 2:-0.826224 
1 1:-0.919802 2:-0.826224 
1 1:-0.919802 2:-0.826224 
1 1:-0.919802 2:-0.826224 
1 1:-0.919802 2:-0.826224 
1 1:-0.919802 2:-0.826224 
1 1:-0.919802 2:-0.826224 
1 1:-0.919802 2:-0.826224 
1 1:-0.919802 2:-0.826224 
1 1:-0.919802 2:-0.826224 
1 1:-0.919802 2:-0.826224 
1 1:-0.919802 2:-0.826224 
1 1:-0.919802 2:-0.826224 
1 1:-0.919802 2:-0.826224 
1 1:-0.919802 2:-0.826224 
1 1:-0.919802 2:-0.826224 
1 1:-0.919802 2:-0.826224 
1 1:-0.919802 2:-0.826224 
1 1:-0.919802 2:-0.826224 
1 1:-0.919802 2:-0.826224 
1 1:-0.919802 2:-0.826224 
1 1:-0.919802 2:-0.826224 
1 1:-0.919802 2:-0.826224 
1 1:-0.919802 2:-0.826224 
1 1:-0.919802 2:-0.826224 
1 1:-0.919802 2:-0.826224 
1 1:-0.919802 2:-0.826224 
1 1:-0.919802 2:-0.826224 
1 1:-0.919802 2:-0.826224 
1 1:-0.919802 2:-0.826224 
1 1:-0.919802 2:-0.826224 
1 1:-0.919802 2:-0.826224 
1 1:-0.919802 2:-0.826224 
1 1:-0.919802 2:-0.826224 
1 1:-0.919802 2:-0.826224 
1 1:-0.919802 2:-0.826224 
1 1:-0.919802 2:-0.826224 
1 1:-0.919802 2:-0.826224 
1 1:-0.919802 2:-0.826224 
1 1:-0.919802 2:-0.826224 
1 1:-0.919802 2:-0.826224 
1 1:-0.919802 2:-0.826224 
1 1:-0.919802 2:-0.826224 
1 1:-0.919802 2:-0.826224 
1 1:-0.919802 2:-0.826224 
1 1:-0.919802 2:-0.826224 
1 1:-0.919802 2:-0.826224 
1 1:-0.919802 2:-0.826224 
1 1:-0.919802 2:-0.826224 
1 1:-0.919802 2:-0.826224 
1 1:-0.919802 2:-0.826224 
1 1:-0.919802 2:-0.826224 
1 1:-0.919802 2:-0.826224 
1 1:-0.919802 2:-0.826224 
1 1:-0.919802 2:-0.826224 
1 1:-0.919802 2:-0.826224 
1 1:-0.919802 2:-0.826224 
1 1:-0.919802 2:-0.826224 
1 1:-0.919802 2:-0.826224 
1 1:-0.919802 2:-0.826224 
1 1:-0.919802 2:-0.826224 
1 1:-0.919802 2:-0.826224 
1 1:-0.919802 2:-0.826224 
1 1:-0.919802 2:-0.826224 
1 1:-0.919802 2:-0.826224 
1 1:-0.919802 2:-0.826224 
1 1:-0.919802 2:-0.826224 
1 1:-0.919802 2:-0.826224 
1 1:-0.919802 2:-0.826224 
1 1:-0.919802 2:-0.826224 
1 1:-0.919802 2:-0.826224 
1 1:-0.919802 2:-0.826224 
1 1:-0.919802 2:-0.826224 
1 1:-0.919802 2:-0.826224 
1 1:-0.919802 2:-0.826224 
1 1:-0.919802 2:-0.826224 
1 1:-0.919802 2:-0.826224 
1 1:-0.919802 2:-0.826224 
1 1:-0.919802 2:-0.826224 
1 1:-0.919802 2:-0.826224 
1 1:-0.919802 2:-0.826224 
1 1:-0.919802 2:-0.826224 
1 1:-0.919802 2:-0.826224 
1 1:-0.919802 2:-0.826224 
1 1:-0.919802 2:-0.826224 
1 1:-0.919802 2:-0.826224 
1 1:-0.919802 2:-0.826224 
1 1:-0.919802 2:-0.826224 
1 1:-0.919802 2:-0.826224 
1 1:-0.919802 2:-0.826224 
1 1:-0.919802 2:-0.826224 
1 1:-0.915006 2:-0.831796 
1 1:-0.877659 2:-0.817409 
1 1:-0.915006 2:-0.831796 
1 1:-0.877659 2:-0.817409 
1 1:-0.915006 2:-0.831796 
1 1:-0.877659 2:-0.817409 
1 1:-0.915006 2:-0.831796 
1 1:-0.877659 2:-0.817409 
1 1:-0.915006 2:-0.831796 
1 1:-0.877659 2:-0.817409 
1 1:-0.915006 2:-0.831796 
1 1:-0.877659 2:-0.817409 
1 1:-0.915006 2:-0.831796 
1 1:-0.877659 2:-0.817409 
1 1:-0.915006 2:-0.831796 
1 1:-0.877659 2:-0.817409 
1 1:-0.915006 2:-0.831796 
1 1:-0.877659 2:-0.817409 
1 1:-0.915006 2:-0.831796 
1 1:-0.877659 2:-0.817409 
1 1:-0.915006 2:-0.831796 
1 1:-0.877659 2:-0.817409 
1 1:-0.915006 2:-0.831796 
1 1:-0.877659 2:-0.817409 
1 1:-0.915006 2:-0.831796 
1 1:-0.877659 2:-0.817409 
1 1:-0.915006 2:-0.831796 
1 1:-0.877659 2:-0.817409 
1 1:-0.915006 2:-0.831796 
1 1:-0.877659 2:-0.817409 
1 1:-0.915006 2:-0.831796 
1 1:-0.877659 2:-0.817409 
1 1:-0.915006 2:-0.831796 
1 1:-0.877659 2:-0.817409 
1 1:-0.915006 2:-0.831796 
1 1:-0.877659 2:-0.817409 
1 1:-0.915006 2:-0.831796 
1 1:-0.877659 2:-0.817409 
1 1:-0.915006 2:-0.831796 
1 1:-0.877659 2:-0.817409 
1 1:-0.915006 2:-0.831796 
1 1:-0.877659 2:-0.817409 
1 1:-0.915006 2:-0.831796 
1 1:-0.877659 2:-0.817409 
1 1:-0.915006 2:-0.831796 
1 1:-0.877659 2:-0.817409 
1 1:-0.915006 2:-0.831796 
1 1:-0.877659 2:-0.817409 
1 1:-0.915006 2:-0.831796 
1 1:-0.877659 2:-0.817409 
1 1:-0.915006 2:-0.831796 
1 1:-0.877659 2:-0.817409 
1 1:-0.915006 2:-0.831796 
1 1:-0.877659 2:-0.817409 
1 1:-0.915006 2:-0.831796 
1 1:-0.877659 2:-0.817409 
1 1:-0.915006 2:-0.831796 
1 1:-0.877659 2:-0.817409 
1 1:-0.915006 2:-0.831796 
1 1:-0.877659 2:-0.817409 
1 1:-0.915006 2:-0.831796 
1 1:-0.877659 2:-0.817409 
1 1:-0.915006 2:-0.831796 
1 1:-0.877659 2:-0.817409 
1 1:-0.915006 2:-0.831796 
1 1:-0.877659 2:-0.817409 
1 1:-0.915006 2:-0.831796 
1 1:-0.877659 2:-0.817409 
1 1:-0.915006 2:-0.831796 
1 1:-0.877659 2:-0.817409 
1 1:-0.915006 2:-0.831796 
1 1:-0.877659 2:-0.817409 
1 1:-0.915006 2:-0.831796 
1 1:-0.877659 2:-0.817409 
1 1:-0.915006 2:-0.831796 
1 1:-0.877659 2:-0.817409 
1 1:-0.915006 2:-0.831796 
1 1:-0.877659 2:-0.817409 
1 1:-0.915006 2:-0.831796 
1 1:-0.877659 2:-0.817409 
1 1:-0.915006 2:-0.831796 
1 1:-0.877659 2:-0.817409 
1 1:-0.915006 2:-0.831796 
1 1:-0.877659 2:-0.817409 
1 1:-0.915006 2:-0.831796 
1 1:-0.877659 2:-0.817409 
1 1:-0.915006 2:-0.831796 
1 1:-0.877659 2:-0.817409 
1 1:-0.915006 2:-0.831796 
1 1:-0.877659 2:-0.817409 
1 1:-0.915006 2:-0.831796 
1 1:-0.877659 2:-0.817409 
1 1:-0.915006 2:-0.831796 
1 1:-0.877659 2:-0.817409 
1 1:-0.915006 2:-0.831796 
1 1:-0.877659 2:-0.817409 
1 1:-0.915006 2:-0.831796 
1 1:-0.877659 2:-0.817409 
1 1:-0.915006 2:-0.831796 
1 1:-0.877659 2:-0.817409 
1 1:-0.915006 2:-0.831796 
1 1:-0.877659 2:-0.817409 
1 1:-0.915006 2:-0.831796 
1 1:-0.877659 2:-0.817409 
1 1:-0.915006 2:-0.831796 
1 1:-0.877659 2:-0.817409 
1 1:-0.915006 2:-0.831796 
1 1:-0.877659 2:-0.817409 
1 1:-0.915006 2:-0.831796 
1 1:-0.877659 2:-0.817409 
1 1:-0.915006 2:-0.831796 
1 1:-0.877659 2:-0.817409 
1 1:-0.915006 2:-0.831796 
1 1:-0.877659 2:-0.817409 
1 1:-0.915006 2:-0.831796 
1 1:-0.877659 2:-0.817409 
1 1:-0.915006 2:-0.831796 
1 1:-0.877659 2:-0.817409 
1 1:-0.915006 2:-0.831796 
1 1:-0.877659 2:-0.817409 
1 1:-0.915006 2:-0.831796 
1 1:-0.877659 2:-0.817409 
1 1:-0.915006 2:-0.831796 
1 1:-0.877659 2:-0.817409 
1 1:-0.915006 2:-0.831796 
1 1:-0.877659 2:-0.817409 
1 1:-0.915006 2:-0.831796 
1 1:-0.877659 2:-0.817409 
1 1:-0.915006 2:-0.831796 
1 1:-0.877659 2:-0.817409 
1 1:-0.915006 2:-0.831796 
1 1:-0.877659 2:-0.817409 
1 1:-0.915006 2:-0.831796 
1 1:-0.877659 2:-0.817409 
1 1:-0.915006 2:-0.831796 
1 1:-0.877659 2:-0.817409 
1 1:-0.915006 2:-0.831796 
1 1:-0.877659 2:-0.817409 
1 1:-0.915006 2:-0.831796 
1 1:-0.877659 2:-0.817409 
1 1:-0.915006 2:-0.831796 
1 1:-0.877659 2:-0.817409 
1 1:-0.915006 2:-0.831796 
1 1:-0.877659 2:-0.817409 
1 1:-0.915006 2:-0.831796 
1 1:-0.877659 2:-0.817409 
1 1:-0.915006 2:-0.831796 
1 1:-0.877659 2:-0.817409 
1 1:-0.915006 2:-0.831796 
1 1:-0.877659 2:-0.817409 
1 1:-0.915006 2:-0.831796 
1 1:-0.877659 2:-0.817409 
1 1:-0.915006 2:-0.831796 
1 1:-0.877659 2:-0.817409 
1 1:-0.915006 2:-0.831796 
1 1:-0.877659 2:-0.817409 
1 1:-0.915006 2:-0.831796 
1 1:-0.877659 2:-0.817409 
1 1:-0.915006 2:-0.831796 
1 1:-0.877659 2:-0.817409 
1 1:-0.915006 2:-0.831796 
1 1:-0.877659 2:-0.817409 
1 1:-0.915006 2:-0.831796 
1 1:-0.877659 2:-0.817409 
1 1:-0.915006 2:-0.831796 
1 1:-0.877659 2:-0.817409 
1 1:-0.915006 2:-0.831796 
1 1:-0.877659 2:-0.817409 
1 1:-0.915006 2:-0.831796 
1 1:-0.877659 2:-0.817409 
1 1:-0.915006 2:-0.831796 
1 1:-0.877659 2:-0.817409 
1 1:-0.915006 2:-0.831796 
1 1:-0.877659 2:-0.817409 
1 1:-0.915006 2:-0.831796 
1 1:-0.877659 2:-0.817409 
1 1:-0.915006 2:-0.831796 
1 1:-0.877659 2:-0.817409 
1 1:-0.902821 2:-0.764104 
1 1:-0.902821 2:-0.764104 
1 1:-0.902821 2:-0.764104 
1 1:-0.902821 2:-0.764104 
1 1:-0.902821 2:-0.764104 
1 1:-0.902821 2:-0.764104 
1 1:-0.902821 2:-0.764104 
1 1:-0.902821 2:-0.764104 
1 1:-0.902821 2:-0.764104 
1 1:-0.902821 2:-0.764104 
1 1:-0.902821 2:-0.764104 
1 1:-0.902821 2:-0.764104 
1 1:-0.902821 2:-0.764104 
1 1:-0.902821 2:-0.764104 
1 1:-0.902821 2:-0.764104 
1 1:-0.902821 2:-0.764104 
1 1:-0.902821 2:-0.764104 
1 1:-0.902821 2:-0.764104 
1 1:-0.902821 2:-0.764104 
1 1:-0.902821 2:-0.764104 
1 1:-0.902821 2:-0.764104 
1 1:-0.902821 2:-0.764104 
1 1:-0.902821 2:-0.764104 
1 1:-0.902821 2:-0.764104 
1 1:-0.902821 2:-0.764104 
1 1:-0.902821 2:-0.764104 
1 1:-0.902821 2:-0.764104 
1 1:-0.902821 2:-0.764104 
1 1:-0.902821 2:-0.764104 
1 1:-0.902821 2:-0.764104 
1 1:-0.902821 2:-0.764104 
1 1:-0.902821 2:-0.764104 
1 1:-0.902821 2:-0.764104 
1 1:-0.902821 2:-0.764104 
1 1:-0.902821 2:-0.764104 
1 1:-0.902821 2:-0.764104 
1 1:-0.902821 2:-0.764104 
1 1:-0.902821 2:-0.764104 
1 1:-0.902821 2:-0.764104 
1 1:-0.902821 2:-0.764104 
1 1:-0.902821 2:-0.764104 
1 1:-0.902821 2:-0.764104 
1 1:-0.902821 2:-0.764104 
1 1:-0.902821 2:-0.764104 
1 1:-0.902821 2:-0.764104 
1 1:-0.902821 2:-0.764104 
1 1:-0.902821 2:-0.764104 
1 1:-0.902821 2:-0.764104 
1 1:-0.902821 2:-0.764104 
1 1:-0.902821 2:-0.764104 
1 1:-0.902821 2:-0.764104 
1 1:-0.902821 2:-0.764104 
1 1:-0.902821 2:-0.764104 
1 1:-0.902821 2:-0.764104 
1 1:-0.902821 2:-0.764104 
1 1:-0.902821 2:-0.764104 
1 1:-0.902821 2:-0.764104 
1 1:-0.902821 2:-0.764104 
1 1:-0.902821 2:-0.764104 
1 1:-0.902821 2:-0.764104 
1 1:-0.902821 2:-0.764104 
1 1:-0.902821 2:-0.764104 
1 1:-0.902821 2:-0.764104 
1 1:-0.902821 2:-0.764104 
1 1:-0.902821 2:-0.764104 
1 1:-0.902821 2:-0.764104 
1 1:-0.902821 2:-0.764104 
1 1:-0.902821 2:-0.764104 
1 1:-0.902821 2:-0.764104 
1 1:-0.902821 2:-0.764104 
1 1:-0.902821 2:-0.764104 
1 1:-0.902821 2:-0.764104 
1 1:-0.902821 2:-0.764104 
1 1:-0.902821 2:-0.764104 
1 1:-0.902821 2:-0.764104 
1 1:-0.902821 2:-0.764104 
1 1:-0.852312 2:-0.737334 
1 1:-0.880208 2:-0.74765 
1 1:-0.852312 2:-0.737334 
1 1:-0.880208 2:-0.74765 
1 1:-0.852312 2:-0.737334 
1 1:-0.880208 2:-0.74765 
1 1:-0.852312 2:-0.737334 
1 1:-0.880208 2:-0.74765 
1 1:-0.852312 2:-0.737334 
1 1:-0.880208 2:-0.74765 
1 1:-0.852312 2:-0.737334 
1 1:-0.880208 2:-0.74765 
1 1:-0.852312 2:-0.737334 
1 1:-0.880208 2:-0.74765 
1 1:-0.852312 2:-0.737334 
1 1:-0.880208 2:-0.74765 
1 1:-0.852312 2:-0.737334 
1 1:-0.880208 2:-0.74765 
1 1:-0.852312 2:-0.737334 
1 1:-0.880208 2:-0.74765 
1 1:-0.852312 2:-0.737334 
1 1:-0.880208 2:-0.74765 
1 1:-0.852312 2:-0.737334 
1 1:-0.880208 2:-0.74765 
1 1:-0.852312 2:-0.737334 
1 1:-0.880208 2:-0.74765 
1 1:-0.852312 2:-0.737334 
1 1:-0.880208 2:-0.74765 
1 1:-0.852312 2:-0.737334 
1 1:-0.880208 2:-0.74765 
1 1:-0.852312 2:-0.737334 
1 1:-0.880208 2:-0.74765 
1 1:-0.852312 2:-0.737334 
1 1:-0.880208 2:-0.74765 
1 1:-0.852312 2:-0.737334 
1 1:-0.880208 2:-0.74765 
1 1:-0.852312 2:-0.737334 
1 1:-0.880208 2:-0.74765 
1 1:-0.852312 2:-0.737334 
1 1:-0.880208 2:-0.74765 
1 1:-0.852312 2:-0.737334 
1 1:-0.880208 2:-0.74765 
1 1:-0.852312 2:-0.737334 
1 1:-0.880208 2:-0.74765 
1 1:-0.852312 2:-0.737334 
1 1:-0.880208 2:-0.74765 
1 1:-0.852312 2:-0.737334 
1 1:-0.880208 2:-0.74765 
1 1:-0.852312 2:-0.737334 
1 1:-0.880208 2:-0.74765 
1 1:-0.852312 2:-0.737334 
1 1:-0.880208 2:-0.74765 
1 1:-0.852312 2:-0.737334 
1 1:-0.880208 2:-0.74765 
0.5230804450201925 1:-0.931452 2:-0.837481 
1 1:-0.852312 2:-0.737334 
1 1:-0.880208 2:-0.74765 
1 1:-0.931452 2:-0.837481 
1 1:-0.852312 2:-0.737334 
1 1:-0.880208 2:-0.74765 
1 1:-0.931452 2:-0.837481 
1 1:-0.852312 2:-0.737334 
1 1:-0.880208 2:-0.74765 
1 1:-0.931452 2:-0.837481 
1 1:-0.852312 2:-0.737334 
1 1:-0.880208 2:-0.74765 
1 1:-0.931452 2:-0.837481 
1 1:-0.852312 2:-0.737334 
1 1:-0.880208 2:-0.74765 
1 1:-0.931452 2:-0.837481 
1 1:-0.852312 2:-0.737334 
1 1:-0.880208 2:-0.74765 
1 1:-0.931452 2:-0.837481 
1 1:-0.852312 2:-0.737334 
1 1:-0.880208 2:-0.74765 
1 1:-0.931452 2:-0.837481 
1 1:-0.852312 2:-0.737334 
1 1:-0.880208 2:-0.74765 
1 1:-0.931452 2:-0.837481 
1 1:-0.852312 2:-0.737334 
1 1:-0.880208 2:-0.74765 
1 1:-0.931452 2:-0.837481 
1 1:-0.852312 2:-0.737334 
1 1:-0.880208 2:-0.74765 
1 1:-0.931452 2:-0.837481 
1 1:-0.852312 2:-0.737334 
1 1:-0.880208 2:-0.74765 
1 1:-0.931452 2:-0.837481 
1 1:-0.852312 2:-0.737334 
1 1:-0.880208 2:-0.74765 
1 1:-0.931452 2:-0.837481 
1 1:-0.852312 2:-0.737334 
1 1:-0.880208 2:-0.74765 
1 1:-0.931452 2:-0.837481 
1 1:-0.852312 2:-0.737334 
1 1:-0.880208 2:-0.74765 
1 1:-0.931452 2:-0.837481 
1 1:-0.852312 2:-0.737334 
1 1:-0.880208 2:-0.74765 
1 1:-0.931452 2:-0.837481 
1 1:-0.852312 2:-0.737334 
1 1:-0.880208 2:-0.74765 
1 1:-0.931452 2:-0.837481 
1 1:-0.852312 2:-0.737334 
1 1:-0.880208 2:-0.74765 
1 1:-0.931452 2:-0.837481 
1 1:-0.852312 2:-0.737334 
1 1:-0.880208 2:-0.74765 
1 1:-0.931452 2:-0.837481 
1 1:-0.852312 2:-0.737334 
1 1:-0.880208 2:-0.74765 
1 1:-0.931452 2:-0.837481 
1 1:-0.852312 2:-0.737334 
1 1:-0.880208 2:-0.74765 
1 1:-0.931452 2:-0.837481 
1 1:-0.852312 2:-0.737334 
1 1:-0.880208 2:-0.74765 
1 1:-0.931452 2:-0.837481 
1 1:-0.852312 2:-0.737334 
1 1:-0.880208 2:-0.74765 
1 1:-0.931452 2:-0.837481 
1 1:-0.852312 2:-0.737334 
1 1:-0.880208 2:-0.74765 
1 1:-0.931452 2:-0.837481 
1 1:-0.852312 2:-0.737334 
1 1:-0.880208 2:-0.74765 
1 1:-0.931452 2:-0.837481 
1 1:-0.852312 2:-0.737334 
1 1:-0.880208 2:-0.74765 
1 1:-0.931452 2:-0.837481 
1 1:-0.852312 2:-0.737334 
1 1:-0.880208 2:-0.74765 
1 1:-0.931452 2:-0.837481 
1 1:-0.852312 2:-0.737334 
1 1:-0.880208 2:-0.74765 
1 1:-0.931452 2:-0.837481 
1 1:-0.852312 2:-0.737334 
1 1:-0.880208 2:-0.74765 
1 1:-0.931452 2:-0.837481 
1 1:-0.852312 2:-0.737334 
1 1:-0.880208 2:-0.74765 
1 1:-0.931452 2:-0.837481 
1 1:-0.852312 2:-0.737334 
1 1:-0.880208 2:-0.74765 
1 1:-0.931452 2:-0.837481 
1 1:-0.852312 2:-0.737334 
1 1:-0.880208 2:-0.74765 
1 1:-0.931452 2:-0.837481 
1 1:-0.852312 2:-0.737334 
1 1:-0.880208 2:-0.74765 
1 1:-0.931452 2:-0.837481 
1 1:-0.852312 2:-0.737334 
1 1:-0.880208 2:-0.74765 
1 1:-0.931452 2:-0.837481 
1 1:-0.852312 2:-0.737334 
1 1:-0.880208 2:-0.74765 
1 1:-0.931452 2:-0.837481 
1 1:-0.852312 2:-0.737334 
1 1:-0.880208 2:-0.74765 
1 1:-0.931452 2:-0.837481 
1 1:-0.852312 2:-0.737334 
1 1:-0.880208 2:-0.74765 
1 1:-0.931452 2:-0.837481 
1 1:-0.852312 2:-0.737334 
1 1:-0.880208 2:-0.74765 
1 1:-0.931452 2:-0.837481 
1 1:-0.852312 2:-0.737334 
1 1:-0.880208 2:-0.74765 
1 1:-0.931452 2:-0.837481 
1 1:-0.852312 2:-0.737334 
1 1:-0.880208 2:-0.74765 
1 1:-0.931452 2:-0.837481 
1 1:-0.852312 2:-0.737334 
1 1:-0.880208 2:-0.74765 
0.2752013045395539 1:-0.931452 2:-0.837481 
1 1:-0.852312 2:-0.737334 
1 1:-0.880208 2:-0.74765 
1 1:-0.852312 2:-0.737334 
1 1:-0.880208 2:-0.74765 
1 1:-0.852312 2:-0.737334 
1 1:-0.880208 2:-0.74765 
1 1:-0.852312 2:-0.737334 
1 1:-0.880208 2:-0.74765 
1 1:-0.852312 2:-0.737334 
1 1:-0.880208 2:-0.74765 
1 1:-0.852312 2:-0.737334 
1 1:-0.880208 2:-0.74765 
1 1:-0.852312 2:-0.737334 
1 1:-0.880208 2:-0.74765 
1 1:-0.852312 2:-0.737334 
1 1:-0.880208 2:-0.74765 
1 1:-0.852312 2:-0.737334 
1 1:-0.880208 2:-0.74765 
1 1:-0.852312 2:-0.737334 
1 1:-0.880208 2:-0.74765 
1 1:-0.852312 2:-0.737334 
1 1:-0.880208 2:-0.74765 
1 1:-0.852312 2:-0.737334 
1 1:-0.880208 2:-0.74765 
1 1:-0.852312 2:-0.737334 
1 1:-0.880208 2:-0.74765 
1 1:-0.852312 2:-0.737334 
1 1:-0.880208 2:-0.74765 
1 1:-0.852312 2:-0.737334 
1 1:-0.880208 2:-0.74765 
1 1:-0.852312 2:-0.737334 
1 1:-0.880208 2:-0.74765 
1 1:-0.852312 2:-0.737334 
1 1:-0.880208 2:-0.74765 
1 1:-0.852312 2:-0.737334 
1 1:-0.880208 2:-0.74765 
1 1:-0.852312 2:-0.737334 
1 1:-0.880208 2:-0.74765 
1 1:-0.852312 2:-0.737334 
1 1:-0.880208 2:-0.74765 
1 1:-0.852312 2:-0.737334 
1 1:-0.880208 2:-0.74765 
1 1:-0.852312 2:-0.737334 
1 1:-0.880208 2:-0.74765 
1 1:-0.852312 2:-0.737334 
1 1:-0.880208 2:-0.74765 
1 1:-0.852312 2:-0.737334 
1 1:-0.880208 2:-0.74765 
1 1:-0.852312 2:-0.737334 
1 1:-0.880208 2:-0.74765 
1 1:-0.852312 2:-0.737334 
1 1:-0.880208 2:-0.74765 
1 1:-0.852312 2:-0.737334 
1 1:-0.880208 2:-0.74765 
1 1:-0.852312 2:-0.737334 
1 1:-0.880208 2:-0.74765 
1 1:-0.852312 2:-0.737334 
1 1:-0.880208 2:-0.74765 
1 1:-0.852312 2:-0.737334 
1 1:-0.880208 2:-0.74765 
1 1:-0.849168 2:-0.826192 
1 1:-0.798578 2:-0.808762 
1 1:-0.849168 2:-0.826192 
1 1:-0.798578 2:-0.808762 
1 1:-0.849168 2:-0.826192 
1 1:-0.798578 2:-0.808762 
1 1:-0.849168 2:-0.826192 
1 1:-0.798578 2:-0.808762 
1 1:-0.849168 2:-0.826192 
1 1:-0.798578 2:-0.808762 
1 1:-0.849168 2:-0.826192 
1 1:-0.798578 2:-0.808762 
1 1:-0.849168 2:-0.826192 
1 1:-0.798578 2:-0.808762 
1 1:-0.849168 2:-0.826192 
1 1:-0.798578 2:-0.808762 
1 1:-0.849168 2:-0.826192 
1 1:-0.798578 2:-0.808762 
1 1:-0.849168 2:-0.826192 
1 1:-0.798578 2:-0.808762 
1 1:-0.849168 2:-0.826192 
1 1:-0.798578 2:-0.808762 
1 1:-0.849168 2:-0.826192 
1 1:-0.798578 2:-0.808762 
1 1:-0.849168 2:-0.826192 
1 1:-0.798578 2:-0.808762 
1 1:-0.849168 2:-0.826192 
1 1:-0.798578 2:-0.808762 
1 1:-0.849168 2:-0.826192 
1 1:-0.798578 2:-0.808762 
1 1:-0.849168 2:-0.826192 
1 1:-0.798578 2:-0.808762 
1 1:-0.849168 2:-0.826192 
1 1:-0.798578 2:-0.808762 
1 1:-0.849168 2:-0.826192 
1 1:-0.798578 2:-0.808762 
1 1:-0.849168 2:-0.826192 
1 1:-0.798578 2:-0.808762 
1 1:-0.849168 2:-0.826192 
1 1:-0.798578 2:-0.808762 
1 1:-0.849168 2:-0.826192 
1 1:-0.798578 2:-0.808762 
1 1:-0.849168 2:-0.826192 
1 1:-0.798578 2:-0.808762 
1 1:-0.849168 2:-0.826192 
1 1:-0.798578 2:-0.808762 
1 1:-0.849168 2:-0.826192 
1 1:-0.798578 2:-0.808762 
1 1:-0.849168 2:-0.826192 
1 1:-0.798578 2:-0.808762 
1 1:-0.849168 2:-0.826192 
1 1:-0.798578 2:-0.808762 
1 1:-0.849168 2:-0.826192 
1 1:-0.798578 2:-0.808762 
1 1:-0.849168 2:-0.826192 
1 1:-0.798578 2:-0.808762 
1 1:-0.849168 2:-0.826192 
1 1:-0.798578 2:-0.808762 
1 1:-0.849168 2:-0.826192 
1 1:-0.798578 2:-0.808762 
1 1:-0.849168 2:-0.826192 
1 1:-0.798578 2:-0.808762 
1 1:-0.849168 2:-0.826192 
1 1:-0.798578 2:-0.808762 
1 1:-0.849168 2:-0.826192 
1 1:-0.798578 2:-0.808762 
1 1:-0.849168 2:-0.826192 
1 1:-0.798578 2:-0.808762 
1 1:-0.849168 2:-0.826192 
1 1:-0.798578 2:-0.808762 
1 1:-0.849168 2:-0.826192 
1 1:-0.798578 2:-0.808762 
1 1:-0.849168 2:-0.826192 
1 1:-0.798578 2:-0.808762 
1 1:-0.849168 2:-0.826192 
1 1:-0.798578 2:-0.808762 
1 1:-0.849168 2:-0.826192 
1 1:-0.798578 2:-0.808762 
1 1:-0.849168 2:-0.826192 
1 1:-0.798578 2:-0.808762 
1 1:-0.849168 2:-0.826192 
1 1:-0.798578 2:-0.808762 
1 1:-0.849168 2:-0.826192 
1 1:-0.798578 2:-0.808762 
1 1:-0.849168 2:-0.826192 
1 1:-0.798578 2:-0.808762 
1 1:-0.849168 2:-0.826192 
1 1:-0.798578 2:-0.808762 
1 1:-0.849168 2:-0.826192 
1 1:-0.798578 2:-0.808762 
1 1:-0.849168 2:-0.826192 
1 1:-0.798578 2:-0.808762 
1 1:-0.849168 2:-0.826192 
1 1:-0.798578 2:-0.808762 
1 1:-0.849168 2:-0.826192 
1 1:-0.798578 2:-0.808762 
1 1:-0.849168 2:-0.826192 
1 1:-0.798578 2:-0.808762 
1 1:-0.849168 2:-0.826192 
1 1:-0.798578 2:-0.808762 
1 1:-0.849168 2:-0.826192 
1 1:-0.798578 2:-0.808762 
1 1:-0.849168 2:-0.826192 
1 1:-0.798578 2:-0.808762 
1 1:-0.849168 2:-0.826192 
1 1:-0.798578 2:-0.808762 
1 1:-0.849168 2:-0.826192 
1 1:-0.798578 2:-0.808762 
1 1:-0.849168 2:-0.826192 
1 1:-0.798578 2:-0.808762 
1 1:-0.849168 2:-0.826192 
1 1:-0.798578 2:-0.808762 
1 1:-0.849168 2:-0.826192 
1 1:-0.798578 2:-0.808762 
1 1:-0.849168 2:-0.826192 
1 1:-0.798578 2:-0.808762 
1 1:-0.849168 2:-0.826192 
1 1:-0.798578 2:-0.808762 
1 1:-0.849168 2:-0.826192 
1 1:-0.798578 2:-0.808762 
1 1:-0.849168 2:-0.826192 
1 1:-0.798578 2:-0.808762 
1 1:-0.849168 2:-0.826192 
1 1:-0.798578 2:-0.808762 
1 1:-0.849168 2:-0.826192 
1 1:-0.798578 2:-0.808762 
1 1:-0.849168 2:-0.826192 
1 1:-0.798578 2:-0.808762 
1 1:-0.849168 2:-0.826192 
1 1:-0.798578 2:-0.808762 
1 1:-0.849168 2:-0.826192 
1 1:-0.798578 2:-0.808762 
1 1:-0.849168 2:-0.826192 
1 1:-0.798578 2:-0.808762 
1 1:-0.849168 2:-0.826192 
1 1:-0.798578 2:-0.808762 
1 1:-0.849168 2:-0.826192 
1 1:-0.798578 2:-0.808762 
1 1:-0.849168 2:-0.826192 
1 1:-0.798578 2:-0.808762 
1 1:-0.849168 2:-0.826192 
1 1:-0.798578 2:-0.808762 
1 1:-0.849168 2:-0.826192 
1 1:-0.798578 2:-0.808762 
1 1:-0.849168 2:-0.826192 
1 1:-0.798578 2:-0.808762 
1 1:-0.849168 2:-0.826192 
1 1:-0.798578 2:-0.808762 
1 1:-0.849168 2:-0.826192 
1 1:-0.798578 2:-0.808762 
1 1:-0.849168 2:-0.826192 
1 1:-0.798578 2:-0.808762 
1 1:-0.849168 2:-0.826192 
1 1:-0.798578 2:-0.808762 
1 1:-0.849168 2:-0.826192 
1 1:-0.798578 2:-0.808762 
1 1:-0.849168 2:-0.826192 
1 1:-0.798578 2:-0.808762 
1 1:-0.849168 2:-0.826192 
1 1:-0.798578 2:-0.808762 
1 1:-0.849168 2:-0.826192 
1 1:-0.798578 2:-0.808762 
1 1:-0.849168 2:-0.826192 
1 1:-0.798578 2:-0.808762 
1 1:-0.849168 2:-0.826192 
1 1:-0.798578 2:-0.808762 
1 1:-0.849168 2:-0.826192 
1 1:-0.798578 2:-0.808762 
1 1:-0.849168 2:-0.826192 
1 1:-0.798578 2:-0.808762 
1 1:-0.849168 2:-0.826192 
1 1:-0.798578 2:-0.808762 
1 1:-0.849168 2:-0.826192 
1 1:-0.798578 2:-0.808762 
1 1:-0.849168 2:-0.826192 
1 1:-0.798578 2:-0.808762 
1 1:-0.849168 2:-0.826192 
1 1:-0.798578 2:-0.808762 
1 1:-0.849168 2:-0.826192 
1 1:-0.798578 2:-0.808762 
1 1:-0.849168 2:-0.826192 
1 1:-0.798578 2:-0.808762 
1 1:-0.849168 2:-0.826192 
1 1:-0.798578 2:-0.808762 
1 1:-0.849168 2:-0.826192 
1 1:-0.798578 2:-0.808762 
1 1:-0.849168 2:-0.826192 
1 1:-0.798578 2:-0.808762 
1 1:-0.849168 2:-0.826192 
1 1:-0.798578 2:-0.808762 
1 1:-0.849168 2:-0.826192 
1 1:-0.798578 2:-0.808762 
1 1:-0.975666 2:-0.833205 
1 1:-0.912738 2:-0.781261 
1 1:-0.975666 2:-0.833205 
1 1:-0.912738 2:-0.781261 
1 1:-0.975666 2:-0.833205 
1 1:-0.912738 2:-0.781261 
1 1:-0.975666 2:-0.833205 
1 1:-0.912738 2:-0.781261 
1 1:-0.975666 2:-0.833205 
1 1:-0.912738 2:-0.781261 
1 1:-0.975666 2:-0.833205 
1 1:-0.912738 2:-0.781261 
1 1:-0.975666 2:-0.833205 
1 1:-0.912738 2:-0.781261 
1 1:-0.975666 2:-0.833205 
1 1:-0.912738 2:-0.781261 
1 1:-0.975666 2:-0.833205 
1 1:-0.912738 2:-0.781261 
1 1:-0.975666 2:-0.833205 
1 1:-0.912738 2:-0.781261 
1 1:-0.975666 2:-0.833205 
1 1:-0.912738 2:-0.781261 
1 1:-0.975666 2:-0.833205 
1 1:-0.912738 2:-0.781261 
1 1:-0.975666 2:-0.833205 
1 1:-0.912738 2:-0.781261 
1 1:-0.975666 2:-0.833205 
1 1:-0.912738 2:-0.781261 
1 1:-0.975666 2:-0.833205 
1 1:-0.912738 2:-0.781261 
1 1:-0.975666 2:-0.833205 
1 1:-0.912738 2:-0.781261 
1 1:-0.975666 2:-0.833205 
1 1:-0.912738 2:-0.781261 
1 1:-0.975666 2:-0.833205 
1 1:-0.912738 2:-0.781261 
1 1:-0.975666 2:-0.833205 
1 1:-0.912738 2:-0.781261 
1 1:-0.975666 2:-0.833205 
1 1:-0.912738 2:-0.781261 
1 1:-0.975666 2:-0.833205 
1 1:-0.912738 2:-0.781261 
1 1:-0.975666 2:-0.833205 
1 1:-0.912738 2:-0.781261 
1 1:-0.975666 2:-0.833205 
1 1:-0.912738 2:-0.781261 
1 1:-0.975666 2:-0.833205 
1 1:-0.912738 2:-0.781261 
1 1:-0.975666 2:-0.833205 
1 1:-0.912738 2:-0.781261 
1 1:-0.975666 2:-0.833205 
1 1:-0.912738 2:-0.781261 
1 1:-0.975666 2:-0.833205 
1 1:-0.912738 2:-0.781261 
1 1:-0.975666 2:-0.833205 
1 1:-0.912738 2:-0.781261 
1 1:-0.975666 2:-0.833205 
1 1:-0.912738 2:-0.781261 
1 1:-0.975666 2:-0.833205 
1 1:-0.912738 2:-0.781261 
1 1:-0.975666 2:-0.833205 
1 1:-0.912738 2:-0.781261 
1 1:-0.975666 2:-0.833205 
1 1:-0.912738 2:-0.781261 
1 1:-0.975666 2:-0.833205 
1 1:-0.912738 2:-0.781261 
1 1:-0.975666 2:-0.833205 
1 1:-0.912738 2:-0.781261 
1 1:-0.975666 2:-0.833205 
1 1:-0.912738 2:-0.781261 
1 1:-0.975666 2:-0.833205 
1 1:-0.912738 2:-0.781261 
1 1:-0.975666 2:-0.833205 
1 1:-0.912738 2:-0.781261 
1 1:-0.975666 2:-0.833205 
1 1:-0.912738 2:-0.781261 
1 1:-0.975666 2:-0.833205 
1 1:-0.912738 2:-0.781261 
1 1:-0.975666 2:-0.833205 
1 1:-0.912738 2:-0.781261 
1 1:-0.975666 2:-0.833205 
1 1:-0.912738 2:-0.781261 
1 1:-0.975666 2:-0.833205 
1 1:-0.912738 2:-0.781261 
1 1:-0.975666 2:-0.833205 
1 1:-0.912738 2:-0.781261 
1 1:-0.975666 2:-0.833205 
1 1:-0.912738 2:-0.781261 
1 1:-0.975666 2:-0.833205 
1 1:-0.912738 2:-0.781261 
1 1:-0.975666 2:-0.833205 
1 1:-0.912738 2:-0.781261 
1 1:-0.975666 2:-0.833205 
1 1:-0.912738 2:-0.781261 
1 1:-0.975666 2:-0.833205 
1 1:-0.912738 2:-0.781261 
1 1:-0.975666 2:-0.833205 
1 1:-0.912738 2:-0.781261 
1 1:-0.975666 2:-0.833205 
1 1:-0.912738 2:-0.781261 
1 1:-0.975666 2:-0.833205 
1 1:-0.912738 2:-0.781261 
1 1:-0.975666 2:-0.833205 
1 1:-0.912738 2:-0.781261 
1 1:-0.975666 2:-0.833205 
1 1:-0.912738 2:-0.781261 
1 1:-0.975666 2:-0.833205 
1 1:-0.912738 2:-0.781261 
1 1:-0.975666 2:-0.833205 
1 1:-0.912738 2:-0.781261 
1 1:-0.975666 2:-0.833205 
1 1:-0.912738 2:-0.781261 
1 1:-0.975666 2:-0.833205 
1 1:-0.912738 2:-0.781261 
1 1:-0.975666 2:-0.833205 
1 1:-0.912738 2:-0.781261 
1 1:-0.975666 2:-0.833205 
1 1:-0.912738 2:-0.781261 
1 1:-0.975666 2:-0.833205 
1 1:-0.912738 2:-0.781261 
1 1:-0.975666 2:-0.833205 
1 1:-0.912738 2:-0.781261 
1 1:-0.975666 2:-0.833205 
1 1:-0.912738 2:-0.781261 
1 1:-0.975666 2:-0.833205 
1 1:-0.912738 2:-0.781261 
1 1:-0.975666 2:-0.833205 
1 1:-0.912738 2:-0.781261 
1 1:-0.975666 2:-0.833205 
1 1:-0.912738 2:-0.781261 
1 1:-0.975666 2:-0.833205 
1 1:-0.912738 2:-0.781261 
1 1:-0.975666 2:-0.833205 
1 1:-0.912738 2:-0.781261 
1 1:-0.975666 2:-0.833205 
1 1:-0.912738 2:-0.781261 
1 1:-0.975666 2:-0.833205 
1 1:-0.912738 2:-0.781261 
1 1:-0.975666 2:-0.833205 
1 1:-0.912738 2:-0.781261 
1 1:-0.975666 2:-0.833205 
1 1:-0.912738 2:-0.781261 
1 1:-0.975666 2:-0.833205 
1 1:-0.912738 2:-0.781261 
1 1:-0.975666 2:-0.833205 
1 1:-0.912738 2:-0.781261 
1 1:-0.975666 2:-0.833205 
1 1:-0.912738 2:-0.781261 
1 1:-0.975666 2:-0.833205 
1 1:-0.912738 2:-0.781261 
1 1:-0.975666 2:-0.833205 
1 1:-0.912738 2:-0.781261 
1 1:-0.975666 2:-0.833205 
1 1:-0.912738 2:-0.781261 
1 1:-0.975666 2:-0.833205 
1 1:-0.912738 2:-0.781261 
1 1:-0.975666 2:-0.833205 
1 1:-0.912738 2:-0.781261 
1 1:-0.975666 2:-0.833205 
1 1:-0.912738 2:-0.781261 
1 1:-0.975666 2:-0.833205 
1 1:-0.912738 2:-0.781261 
1 1:-0.975666 2:-0.833205 
1 1:-0.912738 2:-0.781261 
1 1:-0.975666 2:-0.833205 
1 1:-0.912738 2:-0.781261 
1 1:-0.975666 2:-0.833205 
1 1:-0.912738 2:-0.781261 
1 1:-0.975666 2:-0.833205 
1 1:-0.912738 2:-0.781261 
1 1:-0.975666 2:-0.833205 
1 1:-0.912738 2:-0.781261 
1 1:-0.975666 2:-0.833205 
1 1:-0.912738 2:-0.781261 
1 1:-0.975666 2:-0.833205 
1 1:-0.912738 2:-0.781261 
1 1:-0.975666 2:-0.833205 
1 1:-0.912738 2:-0.781261 
1 1:-0.975666 2:-0.833205 
1 1:-0.912738 2:-0.781261 
1 1:-0.975666 2:-0.833205 
1 1:-0.912738 2:-0.781261 
1 1:-0.975666 2:-0.833205 
1 1:-0.912738 2:-0.781261 
1 1:-0.975666 2:-0.833205 
1 1:-0.912738 2:-0.781261 
1 1:-0.975666 2:-0.833205 
1 1:-0.912738 2:-0.781261 
1 1:-0.975666 2:-0.833205 
1 1:-0.912738 2:-0.781261 
1 1:-0.975666 2:-0.833205 
1 1:-0.912738 2:-0.781261 
1 1:-0.880747 2:-0.783049 
1 1:-0.902329 2:-0.676217 
1 1:-0.797357 2:-0.848789 
1 1:-0.880747 2:-0.783049 
1 1:-0.902329 2:-0.676217 
1 1:-0.797357 2:-0.848789 
1 1:-0.880747 2:-0.783049 
1 1:-0.902329 2:-0.676217 
1 1:-0.797357 2:-0.848789 
1 1:-0.880747 2:-0.783049 
1 1:-0.902329 2:-0.676217 
1 1:-0.797357 2:-0.848789 
1 1:-0.880747 2:-0.783049 
1 1:-0.902329 2:-0.676217 
1 1:-0.797357 2:-0.848789 
1 1:-0.880747 2:-0.783049 
1 1:-0.902329 2:-0.676217 
1 1:-0.797357 2:-0.848789 
1 1:-0.880747 2:-0.783049 
1 1:-0.902329 2:-0.676217 
1 1:-0.797357 2:-0.848789 
1 1:-0.880747 2:-0.783049 
1 1:-0.902329 2:-0.676217 
1 1:-0.797357 2:-0.848789 
1 1:-0.880747 2:-0.783049 
1 1:-0.902329 2:-0.676217 
1 1:-0.797357 2:-0.848789 
1 1:-0.880747 2:-0.783049 
1 1:-0.902329 2:-0.676217 
1 1:-0.797357 2:-0.848789 
1 1:-0.880747 2:-0.783049 
1 1:-0.902329 2:-0.676217 
1 1:-0.797357 2:-0.848789 
1 1:-0.880747 2:-0.783049 
1 1:-0.902329 2:-0.676217 
1 1:-0.797357 2:-0.848789 
1 1:-0.880747 2:-0.783049 
1 1:-0.902329 2:-0.676217 
1 1:-0.797357 2:-0.848789 
1 1:-0.880747 2:-0.783049 
1 1:-0.902329 2:-0.676217 
1 1:-0.797357 2:-0.848789 
1 1:-0.880747 2:-0.783049 
1 1:-0.902329 2:-0.676217 
1 1:-0.797357 2:-0.848789 
1 1:-0.880747 2:-0.783049 
1 1:-0.902329 2:-0.676217 
1 1:-0.797357 2:-0.848789 
1 1:-0.880747 2:-0.783049 
1 1:-0.902329 2:-0.676217 
1 1:-0.797357 2:-0.848789 
1 1:-0.880747 2:-0.783049 
1 1:-0.902329 2:-0.676217 
1 1:-0.797357 2:-0.848789 
1 1:-0.880747 2:-0.783049 
1 1:-0.902329 2:-0.676217 
1 1:-0.797357 2:-0.848789 
1 1:-0.880747 2:-0.783049 
1 1:-0.902329 2:-0.676217 
1 1:-0.797357 2:-0.848789 
1 1:-0.880747 2:-0.783049 
1 1:-0.902329 2:-0.676217 
1 1:-0.797357 2:-0.848789 
1 1:-0.880747 2:-0.783049 
1 1:-0.902329 2:-0.676217 
1 1:-0.797357 2:-0.848789 
1 1:-0.880747 2:-0.783049 
1 1:-0.902329 2:-0.676217 
1 1:-0.797357 2:-0.848789 
1 1:-0.880747 2:-0.783049 
1 1:-0.902329 2:-0.676217 
1 1:-0.797357 2:-0.848789 
1 1:-0.880747 2:-0.783049 
1 1:-0.902329 2:-0.676217 
1 1:-0.797357 2:-0.848789 
1 1:-0.880747 2:-0.783049 
1 1:-0.902329 2:-0.676217 
1 1:-0.797357 2:-0.848789 
1 1:-0.880747 2:-0.783049 
1 1:-0.902329 2:-0.676217 
1 1:-0.797357 2:-0.848789 
1 1:-0.880747 2:-0.783049 
1 1:-0.902329 2:-0.676217 
1 1:-0.797357 2:-0.848789 
1 1:-0.880747 2:-0.783049 
1 1:-0.902329 2:-0.676217 
1 1:-0.797357 2:-0.848789 
1 1:-0.880747 2:-0.783049 
1 1:-0.902329 2:-0.676217 
1 1:-0.797357 2:-0.848789 
1 1:-0.880747 2:-0.783049 
1 1:-0.902329 2:-0.676217 
1 1:-0.797357 2:-0.848789 
1 1:-0.880747 2:-0.783049 
1 1:-0.902329 2:-0.676217 
1 1:-0.797357 2:-0.848789 
1 1:-0.880747 2:-0.783049 
1 1:-0.902329 2:-0.676217 
1 1:-0.797357 2:-0.848789 
1 1:-0.880747 2:-0.783049 
1 1:-0.902329 2:-0.676217 
1 1:-0.797357 2:-0.848789 
1 1:-0.880747 2:-0.783049 
1 1:-0.902329 2:-0.676217 
1 1:-0.797357 2:-0.848789 
1 1:-0.880747 2:-0.783049 
1 1:-0.902329 2:-0.676217 
1 1:-0.797357 2:-0.848789 
1 1:-0.880747 2:-0.783049 
1 1:-0.902329 2:-0.676217 
1 1:-0.797357 2:-0.848789 
1 1:-0.880747 2:-0.783049 
1 1:-0.902329 2:-0.676217 
1 1:-0.797357 2:-0.848789 
1 1:-0.880747 2:-0.783049 
1 1:-0.902329 2:-0.676217 
1 1:-0.797357 2:-0.848789 
1 1:-0.880747 2:-0.783049 
1 1:-0.902329 2:-0.676217 
1 1:-0.797357 2:-0.848789 
1 1:-0.880747 2:-0.783049 
1 1:-0.902329 2:-0.676217 
1 1:-0.797357 2:-0.848789 
1 1:-0.880747 2:-0.783049 
1 1:-0.902329 2:-0.676217 
1 1:-0.797357 2:-0.848789 
1 1:-0.880747 2:-0.783049 
1 1:-0.902329 2:-0.676217 
1 1:-0.797357 2:-0.848789 
1 1:-0.880747 2:-0.783049 
1 1:-0.902329 2:-0.676217 
1 1:-0.797357 2:-0.848789 
1 1:-0.880747 2:-0.783049 
1 1:-0.902329 2:-0.676217 
1 1:-0.797357 2:-0.848789 
1 1:-0.880747 2:-0.783049 
1 1:-0.902329 2:-0.676217 
1 1:-0.797357 2:-0.848789 
1 1:-0.880747 2:-0.783049 
1 1:-0.902329 2:-0.676217 
1 1:-0.797357 2:-0.848789 
1 1:-0.880747 2:-0.783049 
1 1:-0.902329 2:-0.676217 
1 1:-0.797357 2:-0.848789 
1 1:-0.880747 2:-0.783049 
1 1:-0.902329 2:-0.676217 
1 1:-0.797357 2:-0.848789 
1 1:-0.880747 2:-0.783049 
1 1:-0.902329 2:-0.676217 
1 1:-0.797357 2:-0.848789 
1 1:-0.880747 2:-0.783049 
1 1:-0.902329 2:-0.676217 
1 1:-0.797357 2:-0.848789 
1 1:-0.880747 2:-0.783049 
1 1:-0.902329 2:-0.676217 
1 1:-0.797357 2:-0.848789 
1 1:-0.880747 2:-0.783049 
1 1:-0.902329 2:-0.676217 
1 1:-0.797357 2:-0.848789 
1 1:-0.880747 2:-0.783049 
1 1:-0.902329 2:-0.676217 
1 1:-0.797357 2:-0.848789 
1 1:-0.880747 2:-0.783049 
1 1:-0.902329 2:-0.676217 
1 1:-0.797357 2:-0.848789 
1 1:-0.880747 2:-0.783049 
1 1:-0.902329 2:-0.676217 
1 1:-0.797357 2:-0.848789 
1 1:-0.880747 2:-0.783049 
1 1:-0.902329 2:-0.676217 
1 1:-0.797357 2:-0.848789 
1 1:-0.880747 2:-0.783049 
1 1:-0.902329 2:-0.676217 
1 1:-0.797357 2:-0.848789 
1 1:-0.880747 2:-0.783049 
1 1:-0.902329 2:-0.676217 
1 1:-0.797357 2:-0.848789 
1 1:-0.880747 2:-0.783049 
1 1:-0.902329 2:-0.676217 
1 1:-0.797357 2:-0.848789 
1 1:-0.880747 2:-0.783049 
1 1:-0.902329 2:-0.676217 
1 1:-0.797357 2:-0.848789 
1 1:-0.880747 2:-0.783049 
1 1:-0.902329 2:-0.676217 
1 1:-0.797357 2:-0.848789 
1 1:-0.880747 2:-0.783049 
1 1:-0.902329 2:-0.676217 
1 1:-0.797357 2:-0.848789 
1 1:-0.880747 2:-0.783049 
1 1:-0.902329 2:-0.676217 
1 1:-0.797357 2:-0.848789 
1 1:-0.880747 2:-0.783049 
1 1:-0.902329 2:-0.676217 
1 1:-0.797357 2:-0.848789 
1 1:-0.880747 2:-0.783049 
1 1:-0.902329 2:-0.676217 
1 1:-0.797357 2:-0.848789 
1 1:-0.880747 2:-0.783049 
1 1:-0.902329 2:-0.676217 
1 1:-0.797357 2:-0.848789 
1 1:-0.880747 2:-0.783049 
1 1:-0.902329 2:-0.676217 
1 1:-0.797357 2:-0.848789 
1 1:-0.880747 2:-0.783049 
1 1:-0.902329 2:-0.676217 
1 1:-0.797357 2:-0.848789 
1 1:-0.880747 2:-0.783049 
1 1:-0.902329 2:-0.676217 
1 1:-0.797357 2:-0.848789 
1 1:-0.880747 2:-0.783049 
1 1:-0.902329 2:-0.676217 
1 1:-0.797357 2:-0.848789 
1 1:-0.880747 2:-0.783049 
1 1:-0.902329 2:-0.676217 
1 1:-0.797357 2:-0.848789 
1 1:-0.880747 2:-0.783049 
1 1:-0.902329 2:-0.676217 
1 1:-0.797357 2:-0.848789 
1 1:-0.880747 2:-0.783049 
1 1:-0.902329 2:-0.676217 
1 1:-0.797357 2:-0.848789 
1 1:-0.880747 2:-0.783049 
1 1:-0.902329 2:-0.676217 
1 1:-0.797357 2:-0.848789 
1 1:-0.880747 2:-0.783049 
1 1:-0.902329 2:-0.676217 
1 1:-0.797357 2:-0.848789 
1 1:-0.880747 2:-0.783049 
1 1:-0.902329 2:-0.676217 
1 1:-0.797357 2:-0.848789 
1 1:-0.880747 2:-0.783049 
1 1:-0.902329 2:-0.676217 
1 1:-0.797357 2:-0.848789 
1 1:-0.880747 2:-0.783049 
1 1:-0.902329 2:-0.676217 
1 1:-0.797357 2:-0.848789 
1 1:-0.880747 2:-0.783049 
1 1:-0.902329 2:-0.676217 
1 1:-0.797357 2:-0.848789 
1 1:-0.880747 2:-0.783049 
1 1:-0.902329 2:-0.676217 
1 1:-0.797357 2:-0.848789 
1 1:-0.880747 2:-0.783049 
1 1:-0.902329 2:-0.676217 
1 1:-0.797357 2:-0.848789 
1 1:-0.880747 2:-0.783049 
1 1:-0.902329 2:-0.676217 
1 1:-0.797357 2:-0.848789 
1 1:-0.880747 2:-0.783049 
1 1:-0.902329 2:-0.676217 
1 1:-0.797357 2:-0.848789 
1 1:-0.880747 2:-0.783049 
1 1:-0.902329 2:-0.676217 
1 1:-0.797357 2:-0.848789 
1 1:-0.880747 2:-0.783049 
1 1:-0.902329 2:-0.676217 
1 1:-0.797357 2:-0.848789 
1 1:-0.880747 2:-0.783049 
1 1:-0.902329 2:-0.676217 
1 1:-0.797357 2:-0.848789 
1 1:-0.880747 2:-0.783049 
1 1:-0.902329 2:-0.676217 
1 1:-0.797357 2:-0.848789 
1 1:-0.880747 2:-0.783049 
1 1:-0.902329 2:-0.676217 
1 1:-0.797357 2:-0.848789 
1 1:-0.880747 2:-0.783049 
1 1:-0.902329 2:-0.676217 
1 1:-0.797357 2:-0.848789 
1 1:-0.880747 2:-0.783049 
1 1:-0.902329 2:-0.676217 
1 1:-0.797357 2:-0.848789 
1 1:-0.880747 2:-0.783049 
1 1:-0.902329 2:-0.676217 
1 1:-0.797357 2:-0.848789 
1 1:-0.880747 2:-0.783049 
1 1:-0.902329 2:-0.676217 
1 1:-0.797357 2:-0.848789 
1 1:-0.880747 2:-0.783049 
1 1:-0.902329 2:-0.676217 
1 1:-0.797357 2:-0.848789 
1 1:-0.880747 2:-0.783049 
1 1:-0.902329 2:-0.676217 
1 1:-0.797357 2:-0.848789 
1 1:-0.880747 2:-0.783049 
1 1:-0.902329 2:-0.676217 
1 1:-0.917886 2:-0.827988 
1 1:-0.892236 2:-0.834261 
1 1:-0.917886 2:-0.827988 
1 1:-0.892236 2:-0.834261 
1 1:-0.917886 2:-0.827988 
1 1:-0.892236 2:-0.834261 
1 1:-0.917886 2:-0.827988 
1 1:-0.892236 2:-0.834261 
1 1:-0.917886 2:-0.827988 
1 1:-0.892236 2:-0.834261 
1 1:-0.917886 2:-0.827988 
1 1:-0.892236 2:-0.834261 
1 1:-0.917886 2:-0.827988 
1 1:-0.892236 2:-0.834261 
1 1:-0.917886 2:-0.827988 
1 1:-0.892236 2:-0.834261 
1 1:-0.917886 2:-0.827988 
1 1:-0.892236 2:-0.834261 
1 1:-0.917886 2:-0.827988 
1 1:-0.892236 2:-0.834261 
1 1:-0.917886 2:-0.827988 
1 1:-0.892236 2:-0.834261 
1 1:-0.917886 2:-0.827988 
1 1:-0.892236 2:-0.834261 
1 1:-0.917886 2:-0.827988 
1 1:-0.892236 2:-0.834261 
1 1:-0.917886 2:-0.827988 
1 1:-0.892236 2:-0.834261 
1 1:-0.917886 2:-0.827988 
1 1:-0.892236 2:-0.834261 
1 1:-0.917886 2:-0.827988 
1 1:-0.892236 2:-0.834261 
1 1:-0.917886 2:-0.827988 
1 1:-0.892236 2:-0.834261 
1 1:-0.917886 2:-0.827988 
1 1:-0.892236 2:-0.834261 
1 1:-0.917886 2:-0.827988 
1 1:-0.892236 2:-0.834261 
1 1:-0.917886 2:-0.827988 
1 1:-0.892236 2:-0.834261 
1 1:-0.917886 2:-0.827988 
1 1:-0.892236 2:-0.834261 
1 1:-0.917886 2:-0.827988 
1 1:-0.892236 2:-0.834261 
1 1:-0.917886 2:-0.827988 
1 1:-0.892236 2:-0.834261 
1 1:-0.917886 2:-0.827988 
1 1:-0.892236 2:-0.834261 
1 1:-0.917886 2:-0.827988 
1 1:-0.892236 2:-0.834261 
1 1:-0.917886 2:-0.827988 
1 1:-0.892236 2:-0.834261 
1 1:-0.917886 2:-0.827988 
1 1:-0.892236 2:-0.834261 
1 1:-0.917886 2:-0.827988 
1 1:-0.892236 2:-0.834261 
1 1:-0.917886 2:-0.827988 
1 1:-0.892236 2:-0.834261 
1 1:-0.917886 2:-0.827988 
1 1:-0.892236 2:-0.834261 
1 1:-0.917886 2:-0.827988 
1 1:-0.892236 2:-0.834261 
1 1:-0.917886 2:-0.827988 
1 1:-0.892236 2:-0.834261 
1 1:-0.917886 2:-0.827988 
1 1:-0.892236 2:-0.834261 
1 1:-0.917886 2:-0.827988 
1 1:-0.892236 2:-0.834261 
1 1:-0.917886 2:-0.827988 
1 1:-0.892236 2:-0.834261 
1 1:-0.917886 2:-0.827988 
1 1:-0.892236 2:-0.834261 
1 1:-0.917886 2:-0.827988 
1 1:-0.892236 2:-0.834261 
1 1:-0.917886 2:-0.827988 
1 1:-0.892236 2:-0.834261 
1 1:-0.917886 2:-0.827988 
1 1:-0.892236 2:-0.834261 
1 1:-0.917886 2:-0.827988 
1 1:-0.892236 2:-0.834261 
1 1:-0.917886 2:-0.827988 
1 1:-0.892236 2:-0.834261 
1 1:-0.917886 2:-0.827988 
1 1:-0.892236 2:-0.834261 
1 1:-0.917886 2:-0.827988 
1 1:-0.892236 2:-0.834261 
1 1:-0.917886 2:-0.827988 
1 1:-0.892236 2:-0.834261 
1 1:-0.917886 2:-0.827988 
1 1:-0.892236 2:-0.834261 
1 1:-0.917886 2:-0.827988 
1 1:-0.892236 2:-0.834261 
1 1:-0.917886 2:-0.827988 
1 1:-0.892236 2:-0.834261 
1 1:-0.917886 2:-0.827988 
1 1:-0.892236 2:-0.834261 
1 1:-0.917886 2:-0.827988 
1 1:-0.892236 2:-0.834261 
1 1:-0.917886 2:-0.827988 
1 1:-0.892236 2:-0.834261 
1 1:-0.917886 2:-0.827988 
1 1:-0.892236 2:-0.834261 
1 1:-0.917886 2:-0.827988 
1 1:-0.892236 2:-0.834261 
1 1:-0.917886 2:-0.827988 
1 1:-0.892236 2:-0.834261 
1 1:-0.917886 2:-0.827988 
1 1:-0.892236 2:-0.834261 
1 1:-0.917886 2:-0.827988 
1 1:-0.892236 2:-0.834261 
1 1:-0.917886 2:-0.827988 
1 1:-0.892236 2:-0.834261 
1 1:-0.917886 2:-0.827988 
1 1:-0.892236 2:-0.834261 
1 1:-0.917886 2:-0.827988 
1 1:-0.892236 2:-0.834261 
1 1:-0.917886 2:-0.827988 
1 1:-0.892236 2:-0.834261 
1 1:-0.917886 2:-0.827988 
1 1:-0.892236 2:-0.834261 
1 1:-0.917886 2:-0.827988 
1 1:-0.892236 2:-0.834261 
1 1:-0.917886 2:-0.827988 
1 1:-0.892236 2:-0.834261 
1 1:-0.917886 2:-0.827988 
1 1:-0.892236 2:-0.834261 
1 1:-0.917886 2:-0.827988 
1 1:-0.892236 2:-0.834261 
1 1:-0.917886 2:-0.827988 
1 1:-0.892236 2:-0.834261 
1 1:-0.917886 2:-0.827988 
1 1:-0.892236 2:-0.834261 
1 1:-0.917886 2:-0.827988 
1 1:-0.892236 2:-0.834261 
1 1:-0.917886 2:-0.827988 
1 1:-0.892236 2:-0.834261 
1 1:-0.917886 2:-0.827988 
1 1:-0.892236 2:-0.834261 
1 1:-0.917886 2:-0.827988 
1 1:-0.892236 2:-0.834261 
1 1:-0.917886 2:-0.827988 
1 1:-0.892236 2:-0.834261 
1 1:-0.917886 2:-0.827988 
1 1:-0.892236 2:-0.834261 
1 1:-0.917886 2:-0.827988 
1 1:-0.892236 2:-0.834261 
1 1:-0.917886 2:-0.827988 
1 1:-0.892236 2:-0.834261 
1 1:-0.917886 2:-0.827988 
1 1:-0.892236 2:-0.834261 
1 1:-0.917886 2:-0.827988 
1 1:-0.892236 2:-0.834261 
1 1:-0.917886 2:-0.827988 
1 1:-0.892236 2:-0.834261 
1 1:-0.917886 2:-0.827988 
1 1:-0.892236 2:-0.834261 
1 1:-0.917886 2:-0.827988 
1 1:-0.892236 2:-0.834261 
1 1:-0.917886 2:-0.827988 
1 1:-0.892236 2:-0.834261 
1 1:-0.917886 2:-0.827988 
1 1:-0.892236 2:-0.834261 
1 1:-0.917886 2:-0.827988 
1 1:-0.892236 2:-0.834261 
1 1:-0.917886 2:-0.827988 
1 1:-0.892236 2:-0.834261 
1 1:-0.917886 2:-0.827988 
1 1:-0.892236 2:-0.834261 
1 1:-0.917886 2:-0.827988 
1 1:-0.892236 2:-0.834261 
1 1:-0.917886 2:-0.827988 
1 1:-0.892236 2:-0.834261 
1 1:-0.917886 2:-0.827988 
1 1:-0.892236 2:-0.834261 
1 1:-0.917886 2:-0.827988 
1 1:-0.892236 2:-0.834261 
1 1:-0.917886 2:-0.827988 
1 1:-0.892236 2:-0.834261 
1 1:-0.917886 2:-0.827988 
1 1:-0.892236 2:-0.834261 
1 1:-0.917886 2:-0.827988 
1 1:-0.892236 2:-0.834261 
1 1:-0.917886 2:-0.827988 
1 1:-0.892236 2:-0.834261 
1 1:-0.917886 2:-0.827988 
1 1:-0.892236 2:-0.834261 
1 1:-0.917886 2:-0.827988 
1 1:-0.892236 2:-0.834261 
1 1:-0.917886 2:-0.827988 
1 1:-0.892236 2:-0.834261 
1 1:-0.917886 2:-0.827988 
1 1:-0.83639 2:-0.765751 
1 1:-0.827308 2:-0.767199 
1 1:-0.83639 2:-0.765751 
1 1:-0.827308 2:-0.767199 
1 1:-0.83639 2:-0.765751 
1 1:-0.827308 2:-0.767199 
1 1:-0.83639 2:-0.765751 
1 1:-0.827308 2:-0.767199 
1 1:-0.83639 2:-0.765751 
1 1:-0.827308 2:-0.767199 
1 1:-0.83639 2:-0.765751 
1 1:-0.827308 2:-0.767199 
1 1:-0.83639 2:-0.765751 
1 1:-0.827308 2:-0.767199 
1 1:-0.83639 2:-0.765751 
1 1:-0.827308 2:-0.767199 
1 1:-0.83639 2:-0.765751 
1 1:-0.827308 2:-0.767199 
1 1:-0.83639 2:-0.765751 
1 1:-0.827308 2:-0.767199 
1 1:-0.83639 2:-0.765751 
1 1:-0.827308 2:-0.767199 
1 1:-0.83639 2:-0.765751 
1 1:-0.827308 2:-0.767199 
1 1:-0.83639 2:-0.765751 
1 1:-0.827308 2:-0.767199 
1 1:-0.83639 2:-0.765751 
1 1:-0.827308 2:-0.767199 
1 1:-0.83639 2:-0.765751 
1 1:-0.827308 2:-0.767199 
1 1:-0.83639 2:-0.765751 
1 1:-0.827308 2:-0.767199 
1 1:-0.83639 2:-0.765751 
1 1:-0.827308 2:-0.767199 
1 1:-0.83639 2:-0.765751 
1 1:-0.827308 2:-0.767199 
1 1:-0.83639 2:-0.765751 
1 1:-0.827308 2:-0.767199 
1 1:-0.83639 2:-0.765751 
1 1:-0.827308 2:-0.767199 
1 1:-0.83639 2:-0.765751 
1 1:-0.827308 2:-0.767199 
1 1:-0.83639 2:-0.765751 
1 1:-0.827308 2:-0.767199 
1 1:-0.83639 2:-0.765751 
1 1:-0.827308 2:-0.767199 
1 1:-0.83639 2:-0.765751 
1 1:-0.827308 2:-0.767199 
1 1:-0.83639 2:-0.765751 
1 1:-0.827308 2:-0.767199 
1 1:-0.83639 2:-0.765751 
1 1:-0.827308 2:-0.767199 
1 1:-0.83639 2:-0.765751 
1 1:-0.827308 2:-0.767199 
1 1:-0.83639 2:-0.765751 
1 1:-0.827308 2:-0.767199 
1 1:-0.83639 2:-0.765751 
1 1:-0.827308 2:-0.767199 
1 1:-0.83639 2:-0.765751 
1 1:-0.827308 2:-0.767199 
1 1:-0.83639 2:-0.765751 
1 1:-0.827308 2:-0.767199 
1 1:-0.83639 2:-0.765751 
1 1:-0.827308 2:-0.767199 
1 1:-0.83639 2:-0.765751 
1 1:-0.827308 2:-0.767199 
1 1:-0.83639 2:-0.765751 
1 1:-0.827308 2:-0.767199 
1 1:-0.83639 2:-0.765751 
1 1:-0.827308 2:-0.767199 
1 1:-0.83639 2:-0.765751 
1 1:-0.827308 2:-0.767199 
1 1:-0.83639 2:-0.765751 
1 1:-0.827308 2:-0.767199 
1 1:-0.83639 2:-0.765751 
1 1:-0.827308 2:-0.767199 
1 1:-0.83639 2:-0.765751 
1 1:-0.827308 2:-0.767199 
1 1:-0.83639 2:-0.765751 
1 1:-0.827308 2:-0.767199 
1 1:-0.83639 2:-0.765751 
1 1:-0.827308 2:-0.767199 
1 1:-0.83639 2:-0.765751 
1 1:-0.827308 2:-0.767199 
1 1:-0.83639 2:-0.765751 
1 1:-0.827308 2:-0.767199 
1 1:-0.83639 2:-0.765751 
1 1:-0.827308 2:-0.767199 
1 1:-0.83639 2:-0.765751 
1 1:-0.827308 2:-0.767199 
1 1:-0.83639 2:-0.765751 
1 1:-0.827308 2:-0.767199 
1 1:-0.83639 2:-0.765751 
1 1:-0.827308 2:-0.767199 
1 1:-0.83639 2:-0.765751 
1 1:-0.827308 2:-0.767199 
1 1:-0.83639 2:-0.765751 
1 1:-0.827308 2:-0.767199 
1 1:-0.83639 2:-0.765751 
1 1:-0.827308 2:-0.767199 
1 1:-0.83639 2:-0.765751 
1 1:-0.827308 2:-0.767199 
1 1:-0.83639 2:-0.765751 
1 1:-0.827308 2:-0.767199 
1 1:-0.83639 2:-0.765751 
1 1:-0.827308 2:-0.767199 
1 1:-0.83639 2:-0.765751 
1 1:-0.827308 2:-0.767199 
1 1:-0.83639 2:-0.765751 
1 1:-0.827308 2:-0.767199 
1 1:-0.83639 2:-0.765751 
1 1:-0.827308 2:-0.767199 
1 1:-0.83639 2:-0.765751 
1 1:-0.827308 2:-0.767199 
1 1:-0.83639 2:-0.765751 
1 1:-0.827308 2:-0.767199 
1 1:-0.83639 2:-0.765751 
1 1:-0.827308 2:-0.767199 
1 1:-0.83639 2:-0.765751 
1 1:-0.827308 2:-0.767199 
1 1:-0.83639 2:-0.765751 
1 1:-0.827308 2:-0.767199 
1 1:-0.83639 2:-0.765751 
1 1:-0.827308 2:-0.767199 
1 1:-0.83639 2:-0.765751 
1 1:-0.827308 2:-0.767199 
1 1:-0.83639 2:-0.765751 
1 1:-0.827308 2:-0.767199 
1 1:-0.83639 2:-0.765751 
1 1:-0.827308 2:-0.767199 
1 1:-0.83639 2:-0.765751 
1 1:-0.827308 2:-0.767199 
1 1:-0.83639 2:-0.765751 
1 1:-0.827308 2:-0.767199 
1 1:-0.83639 2:-0.765751 
1 1:-0.827308 2:-0.767199 
1 1:-0.83639 2:-0.765751 
1 1:-0.827308 2:-0.767199 
1 1:-0.83639 2:-0.765751 
1 1:-0.827308 2:-0.767199 
1 1:-0.83639 2:-0.765751 
1 1:-0.827308 2:-0.767199 
1 1:-0.83639 2:-0.765751 
1 1:-0.827308 2:-0.767199 
1 1:-0.83639 2:-0.765751 
1 1:-0.827308 2:-0.767199 
1 1:-0.83639 2:-0.765751 
1 1:-0.827308 2:-0.767199 
1 1:-0.83639 2:-0.765751 
1 1:-0.827308 2:-0.767199 
1 1:-0.83639 2:-0.765751 
1 1:-0.827308 2:-0.767199 
1 1:-0.83639 2:-0.765751 
1 1:-0.827308 2:-0.767199 
1 1:-0.83639 2:-0.765751 
1 1:-0.827308 2:-0.767199 
1 1:-0.83639 2:-0.765751 
1 1:-0.827308 2:-0.767199 
1 1:-0.83639 2:-0.765751 
1 1:-0.827308 2:-0.767199 
1 1:-0.83639 2:-0.765751 
1 1:-0.827308 2:-0.767199 
1 1:-0.83639 2:-0.765751 
1 1:-0.827308 2:-0.767199 
1 1:-0.83639 2:-0.765751 
1 1:-0.827308 2:-0.767199 
1 1:-0.83639 2:-0.765751 
1 1:-0.827308 2:-0.767199 
1 1:-0.83639 2:-0.765751 
1 1:-0.827308 2:-0.767199 
1 1:-0.83639 2:-0.765751 
1 1:-0.827308 2:-0.767199 
1 1:-0.83639 2:-0.765751 
1 1:-0.827308 2:-0.767199 
1 1:-0.83639 2:-0.765751 
1 1:-0.827308 2:-0.767199 
1 1:-0.83639 2:-0.765751 
1 1:-0.827308 2:-0.767199 
1 1:-0.83639 2:-0.765751 
1 1:-0.827308 2:-0.767199 
1 1:-0.83639 2:-0.765751 
1 1:-0.827308 2:-0.767199 
1 1:-0.83639 2:-0.765751 
1 1:-0.827308 2:-0.767199 
1 1:-0.83639 2:-0.765751 
1 1:-0.827308 2:-0.767199 
1 1:-0.83639 2:-0.765751 
1 1:-0.827308 2:-0.767199 
1 1:-0.83639 2:-0.765751 
1 1:-0.827308 2:-0.767199 
1 1:-0.83639 2:-0.765751 
1 1:-0.827308 2:-0.767199 
1 1:-0.715228 2:-0.755773 
1 1:-0.840876 2:-0.781472 
1 1:-0.715228 2:-0.755773 
1 1:-0.840876 2:-0.781472 
1 1:-0.715228 2:-0.755773 
1 1:-0.840876 2:-0.781472 
1 1:-0.715228 2:-0.755773 
1 1:-0.840876 2:-0.781472 
1 1:-0.715228 2:-0.755773 
1 1:-0.840876 2:-0.781472 
1 1:-0.715228 2:-0.755773 
1 1:-0.840876 2:-0.781472 
1 1:-0.715228 2:-0.755773 
1 1:-0.840876 2:-0.781472 
1 1:-0.715228 2:-0.755773 
1 1:-0.840876 2:-0.781472 
1 1:-0.715228 2:-0.755773 
1 1:-0.840876 2:-0.781472 
1 1:-0.715228 2:-0.755773 
1 1:-0.840876 2:-0.781472 
1 1:-0.715228 2:-0.755773 
1 1:-0.840876 2:-0.781472 
1 1:-0.715228 2:-0.755773 
1 1:-0.840876 2:-0.781472 
1 1:-0.715228 2:-0.755773 
1 1:-0.840876 2:-0.781472 
1 1:-0.715228 2:-0.755773 
1 1:-0.840876 2:-0.781472 
1 1:-0.715228 2:-0.755773 
1 1:-0.840876 2:-0.781472 
1 1:-0.715228 2:-0.755773 
1 1:-0.840876 2:-0.781472 
1 1:-0.715228 2:-0.755773 
1 1:-0.840876 2:-0.781472 
1 1:-0.715228 2:-0.755773 
1 1:-0.840876 2:-0.781472 
1 1:-0.715228 2:-0.755773 
1 1:-0.840876 2:-0.781472 
1 1:-0.715228 2:-0.755773 
1 1:-0.840876 2:-0.781472 
1 1:-0.715228 2:-0.755773 
1 1:-0.840876 2:-0.781472 
1 1:-0.715228 2:-0.755773 
1 1:-0.840876 2:-0.781472 
1 1:-0.715228 2:-0.755773 
1 1:-0.840876 2:-0.781472 
1 1:-0.715228 2:-0.755773 
1 1:-0.840876 2:-0.781472 
1 1:-0.715228 2:-0.755773 
1 1:-0.840876 2:-0.781472 
1 1:-0.715228 2:-0.755773 
1 1:-0.840876 2:-0.781472 
1 1:-0.715228 2:-0.755773 
1 1:-0.840876 2:-0.781472 
1 1:-0.715228 2:-0.755773 
1 1:-0.840876 2:-0.781472 
1 1:-0.715228 2:-0.755773 
1 1:-0.840876 2:-0.781472 
1 1:-0.715228 2:-0.755773 
1 1:-0.840876 2:-0.781472 
1 1:-0.715228 2:-0.755773 
1 1:-0.840876 2:-0.781472 
1 1:-0.715228 2:-0.755773 
1 1:-0.840876 2:-0.781472 
1 1:-0.715228 2:-0.755773 
1 1:-0.840876 2:-0.781472 
1 1:-0.715228 2:-0.755773 
1 1:-0.840876 2:-0.781472 
1 1:-0.715228 2:-0.755773 
1 1:-0.840876 2:-0.781472 
1 1:-0.715228 2:-0.755773 
1 1:-0.840876 2:-0.781472 
1 1:-0.715228 2:-0.755773 
1 1:-0.840876 2:-0.781472 
1 1:-0.715228 2:-0.755773 
1 1:-0.840876 2:-0.781472 
1 1:-0.715228 2:-0.755773 
1 1:-0.840876 2:-0.781472 
1 1:-0.715228 2:-0.755773 
1 1:-0.840876 2:-0.781472 
1 1:-0.715228 2:-0.755773 
1 1:-0.840876 2:-0.781472 
1 1:-0.715228 2:-0.755773 
1 1:-0.840876 2:-0.781472 
1 1:-0.715228 2:-0.755773 
1 1:-0.840876 2:-0.781472 
1 1:-0.715228 2:-0.755773 
1 1:-0.840876 2:-0.781472 
1 1:-0.715228 2:-0.755773 
1 1:-0.840876 2:-0.781472 
1 1:-0.715228 2:-0.755773 
1 1:-0.840876 2:-0.781472 
1 1:-0.715228 2:-0.755773 
1 1:-0.840876 2:-0.781472 
1 1:-0.715228 2:-0.755773 
1 1:-0.840876 2:-0.781472 
1 1:-0.715228 2:-0.755773 
1 1:-0.840876 2:-0.781472 
1 1:-0.715228 2:-0.755773 
1 1:-0.840876 2:-0.781472 
1 1:-0.715228 2:-0.755773 
1 1:-0.840876 2:-0.781472 
1 1:-0.715228 2:-0.755773 
1 1:-0.840876 2:-0.781472 
1 1:-0.715228 2:-0.755773 
1 1:-0.840876 2:-0.781472 
1 1:-0.715228 2:-0.755773 
1 1:-0.840876 2:-0.781472 
1 1:-0.715228 2:-0.755773 
1 1:-0.840876 2:-0.781472 
1 1:-0.715228 2:-0.755773 
1 1:-0.840876 2:-0.781472 
1 1:-0.715228 2:-0.755773 
1 1:-0.840876 2:-0.781472 
1 1:-0.715228 2:-0.755773 
1 1:-0.840876 2:-0.781472 
1 1:-0.715228 2:-0.755773 
1 1:-0.840876 2:-0.781472 
1 1:-0.715228 2:-0.755773 
1 1:-0.840876 2:-0.781472 
1 1:-0.715228 2:-0.755773 
1 1:-0.840876 2:-0.781472 
1 1:-0.715228 2:-0.755773 
1 1:-0.840876 2:-0.781472 
1 1:-0.715228 2:-0.755773 
1 1:-0.840876 2:-0.781472 
1 1:-0.715228 2:-0.755773 
1 1:-0.840876 2:-0.781472 
1 1:-0.715228 2:-0.755773 
1 1:-0.840876 2:-0.781472 
1 1:-0.715228 2:-0.755773 
1 1:-0.840876 2:-0.781472 
1 1:-0.715228 2:-0.755773 
1 1:-0.840876 2:-0.781472 
1 1:-0.715228 2:-0.755773 
1 1:-0.840876 2:-0.781472 
1 1:-0.715228 2:-0.755773 
1 1:-0.840876 2:-0.781472 
1 1:-0.715228 2:-0.755773 
1 1:-0.840876 2:-0.781472 
1 1:-0.715228 2:-0.755773 
1 1:-0.840876 2:-0.781472 
1 1:-0.715228 2:-0.755773 
1 1:-0.840876 2:-0.781472 
1 1:-0.715228 2:-0.755773 
1 1:-0.840876 2:-0.781472 
1 1:-0.715228 2:-0.755773 
1 1:-0.840876 2:-0.781472 
1 1:-0.715228 2:-0.755773 
1 1:-0.840876 2:-0.781472 
1 1:-0.715228 2:-0.755773 
1 1:-0.840876 2:-0.781472 
1 1:-0.715228 2:-0.755773 
1 1:-0.840876 2:-0.781472 
1 1:-0.715228 2:-0.755773 
1 1:-0.840876 2:-0.781472 
1 1:-0.715228 2:-0.755773 
1 1:-0.840876 2:-0.781472 
1 1:-0.715228 2:-0.755773 
1 1:-0.840876 2:-0.781472 
1 1:-0.715228 2:-0.755773 
1 1:-0.840876 2:-0.781472 
1 1:-0.715228 2:-0.755773 
1 1:-0.840876 2:-0.781472 
1 1:-0.715228 2:-0.755773 
1 1:-0.840876 2:-0.781472 
1 1:-0.715228 2:-0.755773 
1 1:-0.840876 2:-0.781472 
1 1:-0.715228 2:-0.755773 
1 1:-0.840876 2:-0.781472 
1 1:-0.715228 2:-0.755773 
1 1:-0.840876 2:-0.781472 
1 1:-0.715228 2:-0.755773 
1 1:-0.840876 2:-0.781472 
1 1:-0.715228 2:-0.755773 
1 1:-0.840876 2:-0.781472 
1 1:-0.715228 2:-0.755773 
1 1:-0.840876 2:-0.781472 
1 1:-0.715228 2:-0.755773 
1 1:-0.840876 2:-0.781472 
1 1:-0.715228 2:-0.755773 
1 1:-0.840876 2:-0.781472 
1 1:-0.715228 2:-0.755773 
1 1:-0.840876 2:-0.781472 
1 1:-0.715228 2:-0.755773 
1 1:-0.840876 2:-0.781472 
1 1:-0.715228 2:-0.755773 
1 1:-0.840876 2:-0.781472 
1 1:-0.715228 2:-0.755773 
1 1:-0.840876 2:-0.781472 
1 1:-0.715228 2:-0.755773 
1 1:-0.865721 2:-0.797889 
1 1:-0.879274 2:-0.838344 
1 1:-0.865721 2:-0.797889 
1 1:-0.879274 2:-0.838344 
1 1:-0.865721 2:-0.797889 
1 1:-0.879274 2:-0.838344 
1 1:-0.865721 2:-0.797889 
1 1:-0.879274 2:-0.838344 
1 1:-0.865721 2:-0.797889 
1 1:-0.879274 2:-0.838344 
1 1:-0.865721 2:-0.797889 
1 1:-0.879274 2:-0.838344 
1 1:-0.865721 2:-0.797889 
1 1:-0.879274 2:-0.838344 
1 1:-0.865721 2:-0.797889 
1 1:-0.879274 2:-0.838344 
1 1:-0.865721 2:-0.797889 
1 1:-0.879274 2:-0.838344 
1 1:-0.865721 2:-0.797889 
1 1:-0.879274 2:-0.838344 
1 1:-0.865721 2:-0.797889 
1 1:-0.879274 2:-0.838344 
1 1:-0.865721 2:-0.797889 
1 1:-0.879274 2:-0.838344 
1 1:-0.865721 2:-0.797889 
1 1:-0.879274 2:-0.838344 
1 1:-0.865721 2:-0.797889 
1 1:-0.879274 2:-0.838344 
1 1:-0.865721 2:-0.797889 
1 1:-0.879274 2:-0.838344 
1 1:-0.865721 2:-0.797889 
1 1:-0.879274 2:-0.838344 
1 1:-0.865721 2:-0.797889 
1 1:-0.879274 2:-0.838344 
1 1:-0.865721 2:-0.797889 
1 1:-0.879274 2:-0.838344 
1 1:-0.865721 2:-0.797889 
1 1:-0.879274 2:-0.838344 
1 1:-0.865721 2:-0.797889 
1 1:-0.879274 2:-0.838344 
1 1:-0.865721 2:-0.797889 
1 1:-0.879274 2:-0.838344 
1 1:-0.865721 2:-0.797889 
1 1:-0.879274 2:-0.838344 
1 1:-0.865721 2:-0.797889 
1 1:-0.879274 2:-0.838344 
1 1:-0.865721 2:-0.797889 
1 1:-0.879274 2:-0.838344 
1 1:-0.865721 2:-0.797889 
1 1:-0.879274 2:-0.838344 
1 1:-0.865721 2:-0.797889 
1 1:-0.879274 2:-0.838344 
1 1:-0.865721 2:-0.797889 
1 1:-0.879274 2:-0.838344 
1 1:-0.865721 2:-0.797889 
1 1:-0.879274 2:-0.838344 
1 1:-0.865721 2:-0.797889 
1 1:-0.879274 2:-0.838344 
1 1:-0.865721 2:-0.797889 
1 1:-0.879274 2:-0.838344 
1 1:-0.865721 2:-0.797889 
1 1:-0.879274 2:-0.838344 
1 1:-0.865721 2:-0.797889 
1 1:-0.879274 2:-0.838344 
1 1:-0.865721 2:-0.797889 
1 1:-0.879274 2:-0.838344 
1 1:-0.865721 2:-0.797889 
1 1:-0.879274 2:-0.838344 
1 1:-0.865721 2:-0.797889 
1 1:-0.879274 2:-0.838344 
1 1:-0.865721 2:-0.797889 
1 1:-0.879274 2:-0.838344 
1 1:-0.865721 2:-0.797889 
1 1:-0.879274 2:-0.838344 
1 1:-0.865721 2:-0.797889 
1 1:-0.879274 2:-0.838344 
1 1:-0.865721 2:-0.797889 
1 1:-0.879274 2:-0.838344 
1 1:-0.865721 2:-0.797889 
1 1:-0.879274 2:-0.838344 
1 1:-0.865721 2:-0.797889 
1 1:-0.879274 2:-0.838344 
1 1:-0.865721 2:-0.797889 
1 1:-0.879274 2:-0.838344 
1 1:-0.865721 2:-0.797889 
1 1:-0.879274 2:-0.838344 
1 1:-0.865721 2:-0.797889 
1 1:-0.879274 2:-0.838344 
1 1:-0.865721 2:-0.797889 
1 1:-0.879274 2:-0.838344 
1 1:-0.865721 2:-0.797889 
1 1:-0.879274 2:-0.838344 
1 1:-0.865721 2:-0.797889 
1 1:-0.879274 2:-0.838344 
1 1:-0.865721 2:-0.797889 
1 1:-0.879274 2:-0.838344 
1 1:-0.865721 2:-0.797889 
1 1:-0.879274 2:-0.838344 
1 1:-0.865721 2:-0.797889 
1 1:-0.879274 2:-0.838344 
1 1:-0.865721 2:-0.797889 
1 1:-0.879274 2:-0.838344 
1 1:-0.865721 2:-0.797889 
1 1:-0.879274 2:-0.838344 
1 1:-0.865721 2:-0.797889 
1 1:-0.879274 2:-0.838344 
1 1:-0.865721 2:-0.797889 
1 1:-0.879274 2:-0.838344 
1 1:-0.865721 2:-0.797889 
1 1:-0.879274 2:-0.838344 
1 1:-0.865721 2:-0.797889 
1 1:-0.879274 2:-0.838344 
1 1:-0.865721 2:-0.797889 
1 1:-0.879274 2:-0.838344 
1 1:-0.865721 2:-0.797889 
1 1:-0.879274 2:-0.838344 
1 1:-0.865721 2:-0.797889 
1 1:-0.879274 2:-0.838344 
1 1:-0.865721 2:-0.797889 
1 1:-0.879274 2:-0.838344 
1 1:-0.865721 2:-0.797889 
1 1:-0.879274 2:-0.838344 
1 1:-0.865721 2:-0.797889 
1 1:-0.879274 2:-0.838344 
1 1:-0.865721 2:-0.797889 
1 1:-0.879274 2:-0.838344 
1 1:-0.865721 2:-0.797889 
1 1:-0.879274 2:-0.838344 
1 1:-0.865721 2:-0.797889 
1 1:-0.879274 2:-0.838344 
1 1:-0.865721 2:-0.797889 
1 1:-0.879274 2:-0.838344 
1 1:-0.865721 2:-0.797889 
1 1:-0.879274 2:-0.838344 
1 1:-0.865721 2:-0.797889 
1 1:-0.879274 2:-0.838344 
1 1:-0.865721 2:-0.797889 
1 1:-0.879274 2:-0.838344 
1 1:-0.865721 2:-0.797889 
1 1:-0.879274 2:-0.838344 
1 1:-0.865721 2:-0.797889 
1 1:-0.879274 2:-0.838344 
1 1:-0.865721 2:-0.797889 
1 1:-0.879274 2:-0.838344 
1 1:-0.865721 2:-0.797889 
1 1:-0.879274 2:-0.838344 
1 1:-0.865721 2:-0.797889 
1 1:-0.879274 2:-0.838344 
1 1:-0.865721 2:-0.797889 
1 1:-0.879274 2:-0.838344 
1 1:-0.865721 2:-0.797889 
1 1:-0.879274 2:-0.838344 
1 1:-0.865721 2:-0.797889 
1 1:-0.879274 2:-0.838344 
1 1:-0.865721 2:-0.797889 
1 1:-0.879274 2:-0.838344 
1 1:-0.865721 2:-0.797889 
1 1:-0.879274 2:-0.838344 
1 1:-0.865721 2:-0.797889 
1 1:-0.879274 2:-0.838344 
1 1:-0.865721 2:-0.797889 
1 1:-0.879274 2:-0.838344 
1 1:-0.865721 2:-0.797889 
1 1:-0.879274 2:-0.838344 
1 1:-0.865721 2:-0.797889 
1 1:-0.879274 2:-0.838344 
1 1:-0.865721 2:-0.797889 
1 1:-0.879274 2:-0.838344 
1 1:-0.865721 2:-0.797889 
1 1:-0.879274 2:-0.838344 
1 1:-0.865721 2:-0.797889 
1 1:-0.879274 2:-0.838344 
1 1:-0.865721 2:-0.797889 
1 1:-0.879274 2:-0.838344 
1 1:-0.865721 2:-0.797889 
1 1:-0.879274 2:-0.838344 
1 1:-0.865721 2:-0.797889 
1 1:-0.879274 2:-0.838344 
1 1:-0.865721 2:-0.797889 
1 1:-0.879274 2:-0.838344 
1 1:-0.865721 2:-0.797889 
1 1:-0.879274 2:-0.838344 
1 1:-0.865721 2:-0.797889 
1 1:-0.879274 2:-0.838344 
1 1:-0.865721 2:-0.797889 
1 1:-0.879274 2:-0.838344 
1 1:-0.999187 2:-0.998708 
1 1:-0.999187 2:-0.998708 
1 1:-0.999187 2:-0.998708 
1 1:-0.999187 2:-0.998708 
1 1:-0.999187 2:-0.998708 
1 1:-0.999187 2:-0.998708 
1 1:-0.999187 2:-0.998708 
1 1:-0.999187 2:-0.998708 
1 1:-0.999187 2:-0.998708 
1 1:-0.999187 2:-0.998708 
1 1:-0.999187 2:-0.998708 
1 1:-0.999187 2:-0.998708 
1 1:-0.999187 2:-0.998708 
1 1:-0.999187 2:-0.998708 
1 1:-0.999187 2:-0.998708 
1 1:-0.999187 2:-0.998708 
1 1:-0.999187 2:-0.998708 
1 1:-0.999187 2:-0.998708 
1 1:-0.999187 2:-0.998708 
1 1:-0.999187 2:-0.998708 
1 1:-0.999187 2:-0.998708 
1 1:-0.999187 2:-0.998708 
1 1:-0.999187 2:-0.998708 
1 1:-0.999187 2:-0.998708 
1 1:-0.999187 2:-0.998708 
1 1:-0.999187 2:-0.998708 
1 1:-0.999187 2:-0.998708 
1 1:-0.999187 2:-0.998708 
1 1:-0.999187 2:-0.998708 
1 1:-0.999187 2:-0.998708 
1 1:-0.999187 2:-0.998708 
1 1:-0.999187 2:-0.998708 
1 1:-0.999187 2:-0.998708 
1 1:-0.999187 2:-0.998708 
1 1:-0.999187 2:-0.998708 
1 1:-0.999187 2:-0.998708 
1 1:-0.999187 2:-0.998708 
1 1:-0.999187 2:-0.998708 
1 1:-0.999187 2:-0.998708 
1 1:-0.999187 2:-0.998708 
1 1:-0.999187 2:-0.998708 
1 1:-0.999187 2:-0.998708 
1 1:-0.999187 2:-0.998708 
1 1:-0.999187 2:-0.998708 
1 1:-0.999187 2:-0.998708 
1 1:-0.999187 2:-0.998708 
1 1:-0.999187 2:-0.998708 
1 1:-0.999187 2:-0.998708 
1 1:-0.999187 2:-0.998708 
1 1:-0.999187 2:-0.998708 
1 1:-0.999187 2:-0.998708 
1 1:-0.999187 2:-0.998708 
1 1:-0.999187 2:-0.998708 
1 1:-0.999187 2:-0.998708 
1 1:-0.999187 2:-0.998708 
1 1:-0.999187 2:-0.998708 
1 1:-0.999187 2:-0.998708 
1 1:-0.999187 2:-0.998708 
1 1:-0.999187 2:-0.998708 
1 1:-0.999187 2:-0.998708 
1 1:-0.999187 2:-0.998708 
1 1:-0.999187 2:-0.998708 
1 1:-0.999187 2:-0.998708 
1 1:-0.999187 2:-0.998708 
1 1:-0.999187 2:-0.998708 
1 1:-0.999187 2:-0.998708 
1 1:-0.999187 2:-0.998708 
1 1:-0.999187 2:-0.998708 
1 1:-0.999187 2:-0.998708 
1 1:-0.999187 2:-0.998708 
1 1:-0.999187 2:-0.998708 
1 1:-0.999187 2:-0.998708 
1 1:-0.999187 2:-0.998708 
1 1:-0.999187 2:-0.998708 
1 1:-0.999187 2:-0.998708 
1 1:-0.999187 2:-0.998708 
1 1:-0.999187 2:-0.998708 
1 1:-0.999187 2:-0.998708 
1 1:-0.999187 2:-0.998708 
1 1:-0.999187 2:-0.998708 
1 1:-0.999187 2:-0.998708 
1 1:-0.999187 2:-0.998708 
1 1:-0.999187 2:-0.998708 
1 1:-0.999187 2:-0.998708 
1 1:-0.999187 2:-0.998708 
1 1:-0.999187 2:-0.998708 
1 1:-0.999187 2:-0.998708 
1 1:-0.999187 2:-0.998708 
1 1:-0.999187 2:-0.998708 
1 1:-0.999187 2:-0.998708 
1 1:-0.999187 2:-0.998708 
1 1:-0.999187 2:-0.998708 
1 1:-0.999187 2:-0.998708 
1 1:-0.999187 2:-0.998708 
1 1:-0.739989 2:-0.798274 
1 1:-0.739989 2:-0.798274 
1 1:-0.739989 2:-0.798274 
1 1:-0.739989 2:-0.798274 
1 1:-0.739989 2:-0.798274 
1 1:-0.739989 2:-0.798274 
1 1:-0.710543 2:-0.852416 
1 1:-0.692213 2:-0.795859 
1 1:-0.710543 2:-0.852416 
1 1:-0.692213 2:-0.795859 
1 1:-0.710543 2:-0.852416 
1 1:-0.692213 2:-0.795859 
1 1:-0.710543 2:-0.852416 
1 1:-0.692213 2:-0.795859 
1 1:-0.710543 2:-0.852416 
1 1:-0.692213 2:-0.795859 
1 1:-0.710543 2:-0.852416 
1 1:-0.692213 2:-0.795859 
1 1:-0.710543 2:-0.852416 
1 1:-0.692213 2:-0.795859 
1 1:-0.710543 2:-0.852416 
1 1:-0.692213 2:-0.795859 
1 1:-0.710543 2:-0.852416 
1 1:-0.692213 2:-0.795859 
1 1:-0.710543 2:-0.852416 
1 1:-0.692213 2:-0.795859 
1 1:-0.710543 2:-0.852416 
1 1:-0.692213 2:-0.795859 
1 1:-0.710543 2:-0.852416 
1 1:-0.692213 2:-0.795859 
1 1:-0.710543 2:-0.852416 
1 1:-0.692213 2:-0.795859 
1 1:-0.710543 2:-0.852416 
1 1:-0.692213 2:-0.795859 
1 1:-0.710543 2:-0.852416 
1 1:-0.692213 2:-0.795859 
1 1:-0.710543 2:-0.852416 
1 1:-0.692213 2:-0.795859 
1 1:-0.710543 2:-0.852416 
1 1:-0.692213 2:-0.795859 
1 1:-0.710543 2:-0.852416 
1 1:-0.692213 2:-0.795859 
1 1:-0.710543 2:-0.852416 
1 1:-0.692213 2:-0.795859 
1 1:-0.710543 2:-0.852416 
1 1:-0.692213 2:-0.795859 
1 1:-0.710543 2:-0.852416 
1 1:-0.692213 2:-0.795859 
1 1:-0.710543 2:-0.852416 
1 1:-0.692213 2:-0.795859 
1 1:-0.710543 2:-0.852416 
1 1:-0.692213 2:-0.795859 
1 1:-0.710543 2:-0.852416 
1 1:-0.692213 2:-0.795859 
1 1:-0.710543 2:-0.852416 
1 1:-0.692213 2:-0.795859 
1 1:-0.710543 2:-0.852416 
1 1:-0.692213 2:-0.795859 
1 1:-0.710543 2:-0.852416 
1 1:-0.692213 2:-0.795859 
1 1:-0.710543 2:-0.852416 
1 1:-0.692213 2:-0.795859 
1 1:-0.710543 2:-0.852416 
1 1:-0.692213 2:-0.795859 
1 1:-0.710543 2:-0.852416 
1 1:-0.692213 2:-0.795859 
1 1:-0.710543 2:-0.852416 
1 1:-0.692213 2:-0.795859 
1 1:-0.710543 2:-0.852416 
1 1:-0.692213 2:-0.795859 
1 1:-0.710543 2:-0.852416 
1 1:-0.692213 2:-0.795859 
1 1:-0.710543 2:-0.852416 
1 1:-0.692213 2:-0.795859 
1 1:-0.710543 2:-0.852416 
1 1:-0.692213 2:-0.795859 
1 1:-0.710543 2:-0.852416 
1 1:-0.692213 2:-0.795859 
1 1:-0.710543 2:-0.852416 
1 1:-0.692213 2:-0.795859 
1 1:-0.710543 2:-0.852416 
1 1:-0.692213 2:-0.795859 
1 1:-0.710543 2:-0.852416 
1 1:-0.692213 2:-0.795859 
1 1:-0.710543 2:-0.852416 
1 1:-0.692213 2:-0.795859 
1 1:-0.710543 2:-0.852416 
1 1:-0.692213 2:-0.795859 
1 1:-0.710543 2:-0.852416 
1 1:-0.692213 2:-0.795859 
1 1:-0.710543 2:-0.852416 
1 1:-0.692213 2:-0.795859 
1 1:-0.710543 2:-0.852416 
1 1:-0.692213 2:-0.795859 
1 1:-0.710543 2:-0.852416 
1 1:-0.692213 2:-0.795859 
1 1:-0.710543 2:-0.852416 
1 1:-0.692213 2:-0.795859 
1 1:-0.710543 2:-0.852416 
1 1:-0.692213 2:-0.795859 
1 1:-0.710543 2:-0.852416 
1 1:-0.692213 2:-0.795859 
1 1:-0.710543 2:-0.852416 
1 1:-0.692213 2:-0.795859 
1 1:-0.710543 2:-0.852416 
1 1:-0.692213 2:-0.795859 
1 1:-0.710543 2:-0.852416 
1 1:-0.692213 2:-0.795859 
1 1:-0.710543 2:-0.852416 
1 1:-0.692213 2:-0.795859 
1 1:-0.710543 2:-0.852416 
1 1:-0.692213 2:-0.795859 
1 1:-0.710543 2:-0.852416 
1 1:-0.692213 2:-0.795859 
1 1:-0.710543 2:-0.852416 
1 1:-0.692213 2:-0.795859 
1 1:-0.710543 2:-0.852416 
1 1:-0.692213 2:-0.795859 
1 1:-0.710543 2:-0.852416 
1 1:-0.692213 2:-0.795859 
1 1:-0.710543 2:-0.852416 
1 1:-0.692213 2:-0.795859 
1 1:-0.710543 2:-0.852416 
1 1:-0.692213 2:-0.795859 
1 1:-0.710543 2:-0.852416 
1 1:-0.692213 2:-0.795859 
1 1:-0.710543 2:-0.852416 
1 1:-0.692213 2:-0.795859 
1 1:-0.710543 2:-0.852416 
1 1:-0.692213 2:-0.795859 
1 1:-0.710543 2:-0.852416 
1 1:-0.692213 2:-0.795859 
1 1:-0.710543 2:-0.852416 
1 1:-0.692213 2:-0.795859 
1 1:-0.710543 2:-0.852416 
1 1:-0.692213 2:-0.795859 
1 1:-0.710543 2:-0.852416 
1 1:-0.692213 2:-0.795859 
1 1:-0.710543 2:-0.852416 
1 1:-0.692213 2:-0.795859 
1 1:-0.710543 2:-0.852416 
1 1:-0.692213 2:-0.795859 
1 1:-0.710543 2:-0.852416 
1 1:-0.692213 2:-0.795859 
1 1:-0.710543 2:-0.852416 
1 1:-0.692213 2:-0.795859 
1 1:-0.710543 2:-0.852416 
1 1:-0.692213 2:-0.795859 
1 1:-0.710543 2:-0.852416 
1 1:-0.692213 2:-0.795859 
1 1:-0.710543 2:-0.852416 
1 1:-0.692213 2:-0.795859 
1 1:-0.710543 2:-0.852416 
1 1:-0.692213 2:-0.795859 
1 1:-0.710543 2:-0.852416 
1 1:-0.692213 2:-0.795859 
1 1:-0.710543 2:-0.852416 
1 1:-0.692213 2:-0.795859 
1 1:-0.710543 2:-0.852416 
1 1:-0.692213 2:-0.795859 
1 1:-0.710543 2:-0.852416 
1 1:-0.692213 2:-0.795859 
1 1:-0.710543 2:-0.852416 
1 1:-0.692213 2:-0.795859 
1 1:-0.710543 2:-0.852416 
1 1:-0.692213 2:-0.795859 
1 1:-0.710543 2:-0.852416 
1 1:-0.692213 2:-0.795859 
1 1:-0.710543 2:-0.852416 
1 1:-0.692213 2:-0.795859 
1 1:-0.710543 2:-0.852416 
1 1:-0.692213 2:-0.795859 
1 1:-0.710543 2:-0.852416 
1 1:-0.692213 2:-0.795859 
1 1:-0.710543 2:-0.852416 
1 1:-0.692213 2:-0.795859 
1 1:-0.710543 2:-0.852416 
1 1:-0.692213 2:-0.795859 
1 1:-0.710543 2:-0.852416 
1 1:-0.692213 2:-0.795859 
1 1:-0.710543 2:-0.852416 
1 1:-0.692213 2:-0.795859 
1 1:-0.710543 2:-0.852416 
1 1:-0.692213 2:-0.795859 
1 1:-0.710543 2:-0.852416 
1 1:-0.692213 2:-0.795859 
1 1:-0.710543 2:-0.852416 
1 1:-0.692213 2:-0.795859 
1 1:-0.710543 2:-0.852416 
1 1:-0.692213 2:-0.795859 
1 1:-0.710543 2:-0.852416 
1 1:-0.692213 2:-0.795859 
1 1:-0.710543 2:-0.852416 
1 1:-0.692213 2:-0.795859 
1 1:-0.998348 2:-0.998226 
1 1:-0.998348 2:-0.998226 
1 1:-0.998348 2:-0.998226 
1 1:-0.998348 2:-0.998226 
1 1:-0.998348 2:-0.998226 
1 1:-0.998348 2:-0.998226 
1 1:-0.998348 2:-0.998226 
1 1:-0.998348 2:-0.998226 
1 1:-0.998348 2:-0.998226 
1 1:-0.998348 2:-0.998226 
1 1:-0.998348 2:-0.998226 
1 1:-0.998348 2:-0.998226 
1 1:-0.998348 2:-0.998226 
1 1:-0.998348 2:-0.998226 
1 1:-0.998348 2:-0.998226 
1 1:-0.998348 2:-0.998226 
1 1:-0.998348 2:-0.998226 
1 1:-0.998348 2:-0.998226 
1 1:-0.998348 2:-0.998226 
1 1:-0.998348 2:-0.998226 
1 1:-0.998348 2:-0.998226 
1 1:-0.998348 2:-0.998226 
1 1:-0.998348 2:-0.998226 
1 1:-0.998348 2:-0.998226 
1 1:-0.998348 2:-0.998226 
1 1:-0.998348 2:-0.998226 
1 1:-0.998348 2:-0.998226 
1 1:-0.998348 2:-0.998226 
1 1:-0.998348 2:-0.998226 
1 1:-0.998348 2:-0.998226 
1 1:-0.998348 2:-0.998226 
1 1:-0.998348 2:-0.998226 
1 1:-0.998348 2:-0.998226 
1 1:-0.998348 2:-0.998226 
1 1:-0.998348 2:-0.998226 
1 1:-0.998348 2:-0.998226 
1 1:-0.998348 2:-0.998226 
1 1:-0.998348 2:-0.998226 
1 1:-0.998348 2:-0.998226 
1 1:-0.998348 2:-0.998226 
1 1:-0.998348 2:-0.998226 
1 1:-0.998348 2:-0.998226 
1 1:-0.998348 2:-0.998226 
1 1:-0.998348 2:-0.998226 
1 1:-0.998348 2:-0.998226 
1 1:-0.998348 2:-0.998226 
1 1:-0.998348 2:-0.998226 
1 1:-0.998348 2:-0.998226 
1 1:-0.998348 2:-0.998226 
1 1:-0.998348 2:-0.998226 
1 1:-0.998348 2:-0.998226 
1 1:-0.998348 2:-0.998226 
1 1:-0.998348 2:-0.998226 
1 1:-0.998348 2:-0.998226 
1 1:-0.998348 2:-0.998226 
1 1:-0.998348 2:-0.998226 
1 1:-0.998348 2:-0.998226 
1 1:-0.998348 2:-0.998226 
1 1:-0.998348 2:-0.998226 
1 1:-0.998348 2:-0.998226 
1 1:-0.998348 2:-0.998226 
1 1:-0.998348 2:-0.998226 
1 1:-0.998348 2:-0.998226 
1 1:-0.998348 2:-0.998226 
1 1:-0.998348 2:-0.998226 
1 1:-0.998348 2:-0.998226 
1 1:-0.998348 2:-0.998226 
1 1:-0.998348 2:-0.998226 
1 1:-0.998348 2:-0.998226 
1 1:-0.998348 2:-0.998226 
1 1:-0.998348 2:-0.998226 
1 1:-0.998348 2:-0.998226 
1 1:-0.998348 2:-0.998226 
1 1:-0.998348 2:-0.998226 
1 1:-0.998348 2:-0.998226 
1 1:-0.998348 2:-0.998226 
1 1:-0.998348 2:-0.998226 
1 1:-0.998348 2:-0.998226 
1 1:-0.998348 2:-0.998226 
1 1:-0.998348 2:-0.998226 
1 1:-0.998348 2:-0.998226 
1 1:-0.998348 2:-0.998226 
1 1:-0.998348 2:-0.998226 
1 1:-0.998348 2:-0.998226 
1 1:-0.998348 2:-0.998226 
1 1:-0.998348 2:-0.998226 
1 1:-0.998348 2:-0.998226 
1 1:-0.998348 2:-0.998226 
1 1:-0.998348 2:-0.998226 
1 1:-0.998348 2:-0.998226 
1 1:-0.998348 2:-0.998226 
1 1:-0.998348 2:-0.998226 
1 1:-0.998348 2:-0.998226 
1 1:-0.920793 2:-0.792269 
1 1:-0.878648 2:-0.829859 
1 1:-0.880039 2:-0.831544 
1 1:-0.920793 2:-0.792269 
1 1:-0.878648 2:-0.829859 
1 1:-0.880039 2:-0.831544 
1 1:-0.920793 2:-0.792269 
1 1:-0.878648 2:-0.829859 
1 1:-0.880039 2:-0.831544 
1 1:-0.920793 2:-0.792269 
1 1:-0.878648 2:-0.829859 
1 1:-0.880039 2:-0.831544 
1 1:-0.920793 2:-0.792269 
1 1:-0.878648 2:-0.829859 
1 1:-0.880039 2:-0.831544 
1 1:-0.920793 2:-0.792269 
1 1:-0.878648 2:-0.829859 
1 1:-0.880039 2:-0.831544 
1 1:-0.920793 2:-0.792269 
1 1:-0.878648 2:-0.829859 
1 1:-0.880039 2:-0.831544 
1 1:-0.920793 2:-0.792269 
1 1:-0.878648 2:-0.829859 
1 1:-0.880039 2:-0.831544 
1 1:-0.920793 2:-0.792269 
1 1:-0.878648 2:-0.829859 
1 1:-0.880039 2:-0.831544 
1 1:-0.920793 2:-0.792269 
1 1:-0.878648 2:-0.829859 
1 1:-0.880039 2:-0.831544 
1 1:-0.920793 2:-0.792269 
1 1:-0.878648 2:-0.829859 
1 1:-0.880039 2:-0.831544 
1 1:-0.920793 2:-0.792269 
1 1:-0.878648 2:-0.829859 
1 1:-0.880039 2:-0.831544 
1 1:-0.920793 2:-0.792269 
1 1:-0.878648 2:-0.829859 
1 1:-0.880039 2:-0.831544 
1 1:-0.920793 2:-0.792269 
1 1:-0.878648 2:-0.829859 
1 1:-0.880039 2:-0.831544 
1 1:-0.920793 2:-0.792269 
1 1:-0.878648 2:-0.829859 
1 1:-0.880039 2:-0.831544 
1 1:-0.920793 2:-0.792269 
1 1:-0.878648 2:-0.829859 
1 1:-0.880039 2:-0.831544 
1 1:-0.920793 2:-0.792269 
1 1:-0.878648 2:-0.829859 
1 1:-0.880039 2:-0.831544 
1 1:-0.920793 2:-0.792269 
1 1:-0.878648 2:-0.829859 
1 1:-0.880039 2:-0.831544 
1 1:-0.920793 2:-0.792269 
1 1:-0.878648 2:-0.829859 
1 1:-0.880039 2:-0.831544 
1 1:-0.920793 2:-0.792269 
1 1:-0.878648 2:-0.829859 
1 1:-0.880039 2:-0.831544 
1 1:-0.920793 2:-0.792269 
1 1:-0.878648 2:-0.829859 
1 1:-0.880039 2:-0.831544 
1 1:-0.920793 2:-0.792269 
1 1:-0.878648 2:-0.829859 
1 1:-0.880039 2:-0.831544 
1 1:-0.920793 2:-0.792269 
1 1:-0.878648 2:-0.829859 
1 1:-0.880039 2:-0.831544 
1 1:-0.920793 2:-0.792269 
1 1:-0.878648 2:-0.829859 
1 1:-0.880039 2:-0.831544 
1 1:-0.920793 2:-0.792269 
1 1:-0.878648 2:-0.829859 
1 1:-0.880039 2:-0.831544 
1 1:-0.920793 2:-0.792269 
1 1:-0.878648 2:-0.829859 
1 1:-0.880039 2:-0.831544 
1 1:-0.920793 2:-0.792269 
1 1:-0.878648 2:-0.829859 
1 1:-0.880039 2:-0.831544 
1 1:-0.920793 2:-0.792269 
1 1:-0.878648 2:-0.829859 
1 1:-0.880039 2:-0.831544 
1 1:-0.920793 2:-0.792269 
1 1:-0.878648 2:-0.829859 
1 1:-0.880039 2:-0.831544 
1 1:-0.920793 2:-0.792269 
1 1:-0.878648 2:-0.829859 
1 1:-0.880039 2:-0.831544 
1 1:-0.920793 2:-0.792269 
1 1:-0.878648 2:-0.829859 
1 1:-0.880039 2:-0.831544 
1 1:-0.920793 2:-0.792269 
1 1:-0.878648 2:-0.829859 
1 1:-0.880039 2:-0.831544 
1 1:-0.920793 2:-0.792269 
1 1:-0.878648 2:-0.829859 
1 1:-0.880039 2:-0.831544 
1 1:-0.920793 2:-0.792269 
1 1:-0.878648 2:-0.829859 
1 1:-0.880039 2:-0.831544 
1 1:-0.920793 2:-0.792269 
1 1:-0.878648 2:-0.829859 
1 1:-0.880039 2:-0.831544 
1 1:-0.920793 2:-0.792269 
1 1:-0.878648 2:-0.829859 
1 1:-0.880039 2:-0.831544 
1 1:-0.920793 2:-0.792269 
1 1:-0.878648 2:-0.829859 
1 1:-0.880039 2:-0.831544 
1 1:-0.920793 2:-0.792269 
1 1:-0.878648 2:-0.829859 
1 1:-0.880039 2:-0.831544 
1 1:-0.920793 2:-0.792269 
1 1:-0.878648 2:-0.829859 
1 1:-0.880039 2:-0.831544 
1 1:-0.920793 2:-0.792269 
1 1:-0.878648 2:-0.829859 
1 1:-0.880039 2:-0.831544 
1 1:-0.920793 2:-0.792269 
1 1:-0.878648 2:-0.829859 
1 1:-0.880039 2:-0.831544 
1 1:-0.920793 2:-0.792269 
1 1:-0.878648 2:-0.829859 
1 1:-0.880039 2:-0.831544 
1 1:-0.920793 2:-0.792269 
1 1:-0.878648 2:-0.829859 
1 1:-0.880039 2:-0.831544 
1 1:-0.920793 2:-0.792269 
1 1:-0.878648 2:-0.829859 
1 1:-0.880039 2:-0.831544 
1 1:-0.920793 2:-0.792269 
1 1:-0.878648 2:-0.829859 
1 1:-0.880039 2:-0.831544 
1 1:-0.920793 2:-0.792269 
1 1:-0.878648 2:-0.829859 
1 1:-0.880039 2:-0.831544 
1 1:-0.920793 2:-0.792269 
1 1:-0.878648 2:-0.829859 
1 1:-0.880039 2:-0.831544 
1 1:-0.920793 2:-0.792269 
1 1:-0.878648 2:-0.829859 
1 1:-0.880039 2:-0.831544 
1 1:-0.920793 2:-0.792269 
1 1:-0.878648 2:-0.829859 
1 1:-0.880039 2:-0.831544 
1 1:-0.920793 2:-0.792269 
1 1:-0.878648 2:-0.829859 
1 1:-0.880039 2:-0.831544 
1 1:-0.920793 2:-0.792269 
1 1:-0.878648 2:-0.829859 
1 1:-0.880039 2:-0.831544 
1 1:-0.920793 2:-0.792269 
1 1:-0.878648 2:-0.829859 
1 1:-0.880039 2:-0.831544 
1 1:-0.920793 2:-0.792269 
1 1:-0.878648 2:-0.829859 
1 1:-0.880039 2:-0.831544 
1 1:-0.920793 2:-0.792269 
1 1:-0.878648 2:-0.829859 
1 1:-0.880039 2:-0.831544 
1 1:-0.920793 2:-0.792269 
1 1:-0.878648 2:-0.829859 
1 1:-0.880039 2:-0.831544 
1 1:-0.920793 2:-0.792269 
1 1:-0.878648 2:-0.829859 
1 1:-0.880039 2:-0.831544 
1 1:-0.920793 2:-0.792269 
1 1:-0.878648 2:-0.829859 
1 1:-0.880039 2:-0.831544 
1 1:-0.920793 2:-0.792269 
1 1:-0.878648 2:-0.829859 
1 1:-0.880039 2:-0.831544 
1 1:-0.920793 2:-0.792269 
1 1:-0.878648 2:-0.829859 
1 1:-0.880039 2:-0.831544 
1 1:-0.920793 2:-0.792269 
1 1:-0.878648 2:-0.829859 
1 1:-0.880039 2:-0.831544 
1 1:-0.920793 2:-0.792269 
1 1:-0.878648 2:-0.829859 
1 1:-0.880039 2:-0.831544 
1 1:-0.920793 2:-0.792269 
1 1:-0.878648 2:-0.829859 
1 1:-0.880039 2:-0.831544 
1 1:-0.920793 2:-0.792269 
1 1:-0.878648 2:-0.829859 
1 1:-0.880039 2:-0.831544 
1 1:-0.920793 2:-0.792269 
1 1:-0.878648 2:-0.829859 
1 1:-0.880039 2:-0.831544 
1 1:-0.920793 2:-0.792269 
1 1:-0.878648 2:-0.829859 
1 1:-0.880039 2:-0.831544 
1 1:-0.920793 2:-0.792269 
1 1:-0.878648 2:-0.829859 
1 1:-0.880039 2:-0.831544 
1 1:-0.920793 2:-0.792269 
1 1:-0.878648 2:-0.829859 
1 1:-0.880039 2:-0.831544 
1 1:-0.920793 2:-0.792269 
1 1:-0.878648 2:-0.829859 
1 1:-0.880039 2:-0.831544 
1 1:-0.920793 2:-0.792269 
1 1:-0.878648 2:-0.829859 
1 1:-0.880039 2:-0.831544 
1 1:-0.920793 2:-0.792269 
1 1:-0.878648 2:-0.829859 
1 1:-0.880039 2:-0.831544 
1 1:-0.920793 2:-0.792269 
1 1:-0.878648 2:-0.829859 
1 1:-0.880039 2:-0.831544 
1 1:-0.920793 2:-0.792269 
1 1:-0.878648 2:-0.829859 
1 1:-0.880039 2:-0.831544 
1 1:-0.920793 2:-0.792269 
1 1:-0.878648 2:-0.829859 
1 1:-0.880039 2:-0.831544 
1 1:-0.920793 2:-0.792269 
1 1:-0.878648 2:-0.829859 
1 1:-0.880039 2:-0.831544 
1 1:-0.920793 2:-0.792269 
1 1:-0.878648 2:-0.829859 
1 1:-0.880039 2:-0.831544 
1 1:-0.920793 2:-0.792269 
1 1:-0.878648 2:-0.829859 
1 1:-0.880039 2:-0.831544 
1 1:-0.920793 2:-0.792269 
1 1:-0.878648 2:-0.829859 
1 1:-0.880039 2:-0.831544 
1 1:-0.920793 2:-0.792269 
1 1:-0.878648 2:-0.829859 
1 1:-0.880039 2:-0.831544 
1 1:-0.920793 2:-0.792269 
1 1:-0.878648 2:-0.829859 
1 1:-0.880039 2:-0.831544 
1 1:-0.920793 2:-0.792269 
1 1:-0.878648 2:-0.829859 
1 1:-0.880039 2:-0.831544 
1 1:-0.920793 2:-0.792269 
1 1:-0.878648 2:-0.829859 
1 1:-0.880039 2:-0.831544 
1 1:-0.920793 2:-0.792269 
1 1:-0.878648 2:-0.829859 
1 1:-0.880039 2:-0.831544 
1 1:-0.920793 2:-0.792269 
1 1:-0.878648 2:-0.829859 
1 1:-0.880039 2:-0.831544 
1 1:-0.920793 2:-0.792269 
1 1:-0.878648 2:-0.829859 
1 1:-0.880039 2:-0.831544 
1 1:-0.920793 2:-0.792269 
1 1:-0.878648 2:-0.829859 
1 1:-0.880039 2:-0.831544 
1 1:-0.920793 2:-0.792269 
1 1:-0.878648 2:-0.829859 
1 1:-0.880039 2:-0.831544 
1 1:-0.920793 2:-0.792269 
1 1:-0.878648 2:-0.829859 
1 1:-0.880039 2:-0.831544 
1 1:-0.920793 2:-0.792269 
1 1:-0.878648 2:-0.829859 
1 1:-0.880039 2:-0.831544 
1 1:-0.917219 2:-0.81292 
1 1:-0.852287 2:-0.801578 
1 1:-0.893038 2:-0.822299 
1 1:-0.917219 2:-0.81292 
1 1:-0.852287 2:-0.801578 
1 1:-0.893038 2:-0.822299 
1 1:-0.917219 2:-0.81292 
1 1:-0.852287 2:-0.801578 
1 1:-0.893038 2:-0.822299 
1 1:-0.917219 2:-0.81292 
1 1:-0.852287 2:-0.801578 
1 1:-0.893038 2:-0.822299 
1 1:-0.917219 2:-0.81292 
1 1:-0.852287 2:-0.801578 
1 1:-0.893038 2:-0.822299 
1 1:-0.917219 2:-0.81292 
1 1:-0.852287 2:-0.801578 
1 1:-0.893038 2:-0.822299 
1 1:-0.917219 2:-0.81292 
1 1:-0.852287 2:-0.801578 
1 1:-0.893038 2:-0.822299 
1 1:-0.917219 2:-0.81292 
1 1:-0.852287 2:-0.801578 
1 1:-0.893038 2:-0.822299 
1 1:-0.917219 2:-0.81292 
1 1:-0.852287 2:-0.801578 
1 1:-0.893038 2:-0.822299 
1 1:-0.917219 2:-0.81292 
1 1:-0.852287 2:-0.801578 
1 1:-0.893038 2:-0.822299 
1 1:-0.917219 2:-0.81292 
1 1:-0.852287 2:-0.801578 
1 1:-0.893038 2:-0.822299 
1 1:-0.917219 2:-0.81292 
1 1:-0.852287 2:-0.801578 
1 1:-0.893038 2:-0.822299 
1 1:-0.917219 2:-0.81292 
1 1:-0.852287 2:-0.801578 
1 1:-0.893038 2:-0.822299 
1 1:-0.917219 2:-0.81292 
1 1:-0.852287 2:-0.801578 
1 1:-0.893038 2:-0.822299 
1 1:-0.917219 2:-0.81292 
1 1:-0.852287 2:-0.801578 
1 1:-0.893038 2:-0.822299 
1 1:-0.917219 2:-0.81292 
1 1:-0.852287 2:-0.801578 
1 1:-0.893038 2:-0.822299 
1 1:-0.917219 2:-0.81292 
1 1:-0.852287 2:-0.801578 
1 1:-0.893038 2:-0.822299 
1 1:-0.917219 2:-0.81292 
1 1:-0.852287 2:-0.801578 
1 1:-0.893038 2:-0.822299 
1 1:-0.917219 2:-0.81292 
1 1:-0.852287 2:-0.801578 
1 1:-0.893038 2:-0.822299 
1 1:-0.917219 2:-0.81292 
1 1:-0.852287 2:-0.801578 
1 1:-0.893038 2:-0.822299 
1 1:-0.917219 2:-0.81292 
1 1:-0.852287 2:-0.801578 
1 1:-0.893038 2:-0.822299 
1 1:-0.917219 2:-0.81292 
1 1:-0.852287 2:-0.801578 
1 1:-0.893038 2:-0.822299 
1 1:-0.917219 2:-0.81292 
1 1:-0.852287 2:-0.801578 
1 1:-0.893038 2:-0.822299 
1 1:-0.917219 2:-0.81292 
1 1:-0.852287 2:-0.801578 
1 1:-0.893038 2:-0.822299 
1 1:-0.917219 2:-0.81292 
1 1:-0.852287 2:-0.801578 
1 1:-0.893038 2:-0.822299 
1 1:-0.917219 2:-0.81292 
1 1:-0.852287 2:-0.801578 
1 1:-0.893038 2:-0.822299 
1 1:-0.917219 2:-0.81292 
1 1:-0.852287 2:-0.801578 
1 1:-0.893038 2:-0.822299 
1 1:-0.917219 2:-0.81292 
1 1:-0.852287 2:-0.801578 
1 1:-0.893038 2:-0.822299 
1 1:-0.917219 2:-0.81292 
1 1:-0.852287 2:-0.801578 
1 1:-0.893038 2:-0.822299 
1 1:-0.917219 2:-0.81292 
1 1:-0.852287 2:-0.801578 
1 1:-0.893038 2:-0.822299 
1 1:-0.917219 2:-0.81292 
1 1:-0.852287 2:-0.801578 
1 1:-0.893038 2:-0.822299 
1 1:-0.917219 2:-0.81292 
1 1:-0.852287 2:-0.801578 
1 1:-0.893038 2:-0.822299 
1 1:-0.917219 2:-0.81292 
1 1:-0.852287 2:-0.801578 
1 1:-0.893038 2:-0.822299 
1 1:-0.917219 2:-0.81292 
1 1:-0.852287 2:-0.801578 
1 1:-0.893038 2:-0.822299 
1 1:-0.917219 2:-0.81292 
1 1:-0.852287 2:-0.801578 
1 1:-0.893038 2:-0.822299 
1 1:-0.917219 2:-0.81292 
1 1:-0.852287 2:-0.801578 
1 1:-0.893038 2:-0.822299 
1 1:-0.917219 2:-0.81292 
1 1:-0.852287 2:-0.801578 
1 1:-0.893038 2:-0.822299 
1 1:-0.917219 2:-0.81292 
1 1:-0.852287 2:-0.801578 
1 1:-0.893038 2:-0.822299 
1 1:-0.917219 2:-0.81292 
1 1:-0.852287 2:-0.801578 
1 1:-0.893038 2:-0.822299 
1 1:-0.917219 2:-0.81292 
1 1:-0.852287 2:-0.801578 
1 1:-0.893038 2:-0.822299 
1 1:-0.917219 2:-0.81292 
1 1:-0.852287 2:-0.801578 
1 1:-0.893038 2:-0.822299 
1 1:-0.917219 2:-0.81292 
1 1:-0.852287 2:-0.801578 
1 1:-0.893038 2:-0.822299 
1 1:-0.917219 2:-0.81292 
1 1:-0.852287 2:-0.801578 
1 1:-0.893038 2:-0.822299 
1 1:-0.917219 2:-0.81292 
1 1:-0.852287 2:-0.801578 
1 1:-0.893038 2:-0.822299 
1 1:-0.917219 2:-0.81292 
1 1:-0.852287 2:-0.801578 
1 1:-0.893038 2:-0.822299 
1 1:-0.917219 2:-0.81292 
1 1:-0.852287 2:-0.801578 
1 1:-0.893038 2:-0.822299 
1 1:-0.917219 2:-0.81292 
1 1:-0.852287 2:-0.801578 
1 1:-0.893038 2:-0.822299 
1 1:-0.917219 2:-0.81292 
1 1:-0.852287 2:-0.801578 
1 1:-0.893038 2:-0.822299 
1 1:-0.917219 2:-0.81292 
1 1:-0.852287 2:-0.801578 
1 1:-0.893038 2:-0.822299 
1 1:-0.917219 2:-0.81292 
1 1:-0.852287 2:-0.801578 
1 1:-0.893038 2:-0.822299 
1 1:-0.917219 2:-0.81292 
1 1:-0.852287 2:-0.801578 
1 1:-0.893038 2:-0.822299 
1 1:-0.917219 2:-0.81292 
1 1:-0.852287 2:-0.801578 
1 1:-0.893038 2:-0.822299 
1 1:-0.917219 2:-0.81292 
1 1:-0.852287 2:-0.801578 
1 1:-0.893038 2:-0.822299 
1 1:-0.917219 2:-0.81292 
1 1:-0.852287 2:-0.801578 
1 1:-0.893038 2:-0.822299 
1 1:-0.917219 2:-0.81292 
1 1:-0.852287 2:-0.801578 
1 1:-0.893038 2:-0.822299 
1 1:-0.917219 2:-0.81292 
1 1:-0.852287 2:-0.801578 
1 1:-0.893038 2:-0.822299 
1 1:-0.917219 2:-0.81292 
1 1:-0.852287 2:-0.801578 
1 1:-0.893038 2:-0.822299 
1 1:-0.917219 2:-0.81292 
1 1:-0.852287 2:-0.801578 
1 1:-0.893038 2:-0.822299 
1 1:-0.917219 2:-0.81292 
1 1:-0.852287 2:-0.801578 
1 1:-0.893038 2:-0.822299 
1 1:-0.917219 2:-0.81292 
1 1:-0.852287 2:-0.801578 
1 1:-0.893038 2:-0.822299 
1 1:-0.917219 2:-0.81292 
1 1:-0.852287 2:-0.801578 
1 1:-0.893038 2:-0.822299 
1 1:-0.917219 2:-0.81292 
1 1:-0.852287 2:-0.801578 
1 1:-0.893038 2:-0.822299 
1 1:-0.917219 2:-0.81292 
1 1:-0.852287 2:-0.801578 
1 1:-0.893038 2:-0.822299 
1 1:-0.917219 2:-0.81292 
1 1:-0.852287 2:-0.801578 
1 1:-0.893038 2:-0.822299 
1 1:-0.917219 2:-0.81292 
1 1:-0.852287 2:-0.801578 
1 1:-0.893038 2:-0.822299 
1 1:-0.917219 2:-0.81292 
1 1:-0.852287 2:-0.801578 
1 1:-0.893038 2:-0.822299 
1 1:-0.917219 2:-0.81292 
1 1:-0.852287 2:-0.801578 
1 1:-0.893038 2:-0.822299 
1 1:-0.917219 2:-0.81292 
1 1:-0.852287 2:-0.801578 
1 1:-0.893038 2:-0.822299 
1 1:-0.917219 2:-0.81292 
1 1:-0.852287 2:-0.801578 
1 1:-0.893038 2:-0.822299 
1 1:-0.917219 2:-0.81292 
1 1:-0.852287 2:-0.801578 
1 1:-0.893038 2:-0.822299 
1 1:-0.917219 2:-0.81292 
1 1:-0.852287 2:-0.801578 
1 1:-0.893038 2:-0.822299 
1 1:-0.917219 2:-0.81292 
1 1:-0.852287 2:-0.801578 
1 1:-0.893038 2:-0.822299 
1 1:-0.917219 2:-0.81292 
1 1:-0.852287 2:-0.801578 
1 1:-0.893038 2:-0.822299 
1 1:-0.917219 2:-0.81292 
1 1:-0.852287 2:-0.801578 
1 1:-0.893038 2:-0.822299 
1 1:-0.917219 2:-0.81292 
1 1:-0.852287 2:-0.801578 
1 1:-0.893038 2:-0.822299 
1 1:-0.917219 2:-0.81292 
1 1:-0.852287 2:-0.801578 
1 1:-0.893038 2:-0.822299 
1 1:-0.917219 2:-0.81292 
1 1:-0.852287 2:-0.801578 
1 1:-0.893038 2:-0.822299 
1 1:-0.917219 2:-0.81292 
1 1:-0.852287 2:-0.801578 
1 1:-0.893038 2:-0.822299 
1 1:-0.917219 2:-0.81292 
1 1:-0.852287 2:-0.801578 
1 1:-0.893038 2:-0.822299 
1 1:-0.917219 2:-0.81292 
1 1:-0.852287 2:-0.801578 
1 1:-0.893038 2:-0.822299 
1 1:-0.917219 2:-0.81292 
1 1:-0.852287 2:-0.801578 
1 1:-0.893038 2:-0.822299 
1 1:-0.917219 2:-0.81292 
1 1:-0.852287 2:-0.801578 
1 1:-0.893038 2:-0.822299 
1 1:-0.917219 2:-0.81292 
1 1:-0.852287 2:-0.801578 
1 1:-0.893038 2:-0.822299 
1 1:-0.917219 2:-0.81292 
1 1:-0.852287 2:-0.801578 
1 1:-0.893038 2:-0.822299 
1 1:-0.917219 2:-0.81292 
1 1:-0.852287 2:-0.801578 
1 1:-0.893038 2:-0.822299 
1 1:-0.917219 2:-0.81292 
1 1:-0.852287 2:-0.801578 
1 1:-0.893038 2:-0.822299 
1 1:-0.917219 2:-0.81292 
1 1:-0.852287 2:-0.801578 
1 1:-0.893038 2:-0.822299 
1 1:-0.917219 2:-0.81292 
1 1:-0.852287 2:-0.801578 
1 1:-0.893038 2:-0.822299 
1 1:-0.917219 2:-0.81292 
1 1:-0.852287 2:-0.801578 
1 1:-0.893038 2:-0.822299 
1 1:-0.917219 2:-0.81292 
1 1:-0.852287 2:-0.801578 
1 1:-0.893038 2:-0.822299 
1 1:-0.917219 2:-0.81292 
1 1:-0.852287 2:-0.801578 
1 1:-0.893038 2:-0.822299 
1 1:-0.917219 2:-0.81292 
1 1:-0.852287 2:-0.801578 
1 1:-0.893038 2:-0.822299 
1 1:-0.917219 2:-0.81292 
1 1:-0.852287 2:-0.801578 
1 1:-0.893038 2:-0.822299 
1 1:-0.917219 2:-0.81292 
1 1:-0.852287 2:-0.801578 
1 1:-0.893038 2:-0.822299 
1 1:-0.917219 2:-0.81292 
1 1:-0.852287 2:-0.801578 
1 1:-0.893038 2:-0.822299 
1 1:-0.917219 2:-0.81292 
1 1:-0.852287 2:-0.801578 
1 1:-0.893038 2:-0.822299 
1 1:-0.858349 2:-0.826724 
1 1:-0.814266 2:-0.835084 
1 1:-0.876986 2:-0.783914 
1 1:-0.858349 2:-0.826724 
1 1:-0.814266 2:-0.835084 
1 1:-0.876986 2:-0.783914 
1 1:-0.858349 2:-0.826724 
1 1:-0.814266 2:-0.835084 
1 1:-0.876986 2:-0.783914 
1 1:-0.858349 2:-0.826724 
1 1:-0.814266 2:-0.835084 
1 1:-0.876986 2:-0.783914 
1 1:-0.858349 2:-0.826724 
1 1:-0.814266 2:-0.835084 
1 1:-0.876986 2:-0.783914 
1 1:-0.858349 2:-0.826724 
1 1:-0.814266 2:-0.835084 
1 1:-0.876986 2:-0.783914 
1 1:-0.858349 2:-0.826724 
1 1:-0.814266 2:-0.835084 
1 1:-0.876986 2:-0.783914 
1 1:-0.858349 2:-0.826724 
1 1:-0.814266 2:-0.835084 
1 1:-0.876986 2:-0.783914 
1 1:-0.858349 2:-0.826724 
1 1:-0.814266 2:-0.835084 
1 1:-0.876986 2:-0.783914 
1 1:-0.858349 2:-0.826724 
1 1:-0.814266 2:-0.835084 
1 1:-0.876986 2:-0.783914 
1 1:-0.858349 2:-0.826724 
1 1:-0.814266 2:-0.835084 
1 1:-0.876986 2:-0.783914 
1 1:-0.858349 2:-0.826724 
1 1:-0.814266 2:-0.835084 
1 1:-0.876986 2:-0.783914 
1 1:-0.858349 2:-0.826724 
1 1:-0.814266 2:-0.835084 
1 1:-0.876986 2:-0.783914 
1 1:-0.858349 2:-0.826724 
1 1:-0.814266 2:-0.835084 
1 1:-0.876986 2:-0.783914 
1 1:-0.858349 2:-0.826724 
1 1:-0.814266 2:-0.835084 
1 1:-0.876986 2:-0.783914 
1 1:-0.858349 2:-0.826724 
1 1:-0.814266 2:-0.835084 
1 1:-0.876986 2:-0.783914 
1 1:-0.858349 2:-0.826724 
1 1:-0.814266 2:-0.835084 
1 1:-0.876986 2:-0.783914 
1 1:-0.858349 2:-0.826724 
1 1:-0.814266 2:-0.835084 
1 1:-0.876986 2:-0.783914 
1 1:-0.858349 2:-0.826724 
1 1:-0.814266 2:-0.835084 
1 1:-0.876986 2:-0.783914 
1 1:-0.858349 2:-0.826724 
1 1:-0.814266 2:-0.835084 
1 1:-0.876986 2:-0.783914 
1 1:-0.858349 2:-0.826724 
1 1:-0.814266 2:-0.835084 
1 1:-0.876986 2:-0.783914 
1 1:-0.858349 2:-0.826724 
1 1:-0.814266 2:-0.835084 
1 1:-0.876986 2:-0.783914 
1 1:-0.858349 2:-0.826724 
1 1:-0.814266 2:-0.835084 
1 1:-0.876986 2:-0.783914 
1 1:-0.858349 2:-0.826724 
1 1:-0.814266 2:-0.835084 
1 1:-0.876986 2:-0.783914 
1 1:-0.858349 2:-0.826724 
1 1:-0.814266 2:-0.835084 
1 1:-0.876986 2:-0.783914 
1 1:-0.858349 2:-0.826724 
1 1:-0.814266 2:-0.835084 
1 1:-0.876986 2:-0.783914 
1 1:-0.858349 2:-0.826724 
1 1:-0.814266 2:-0.835084 
1 1:-0.876986 2:-0.783914 
1 1:-0.858349 2:-0.826724 
1 1:-0.814266 2:-0.835084 
1 1:-0.876986 2:-0.783914 
1 1:-0.858349 2:-0.826724 
1 1:-0.814266 2:-0.835084 
1 1:-0.876986 2:-0.783914 
1 1:-0.858349 2:-0.826724 
1 1:-0.814266 2:-0.835084 
1 1:-0.876986 2:-0.783914 
1 1:-0.858349 2:-0.826724 
1 1:-0.814266 2:-0.835084 
1 1:-0.876986 2:-0.783914 
1 1:-0.858349 2:-0.826724 
1 1:-0.814266 2:-0.835084 
1 1:-0.876986 2:-0.783914 
1 1:-0.858349 2:-0.826724 
1 1:-0.814266 2:-0.835084 
1 1:-0.876986 2:-0.783914 
1 1:-0.858349 2:-0.826724 
1 1:-0.814266 2:-0.835084 
1 1:-0.876986 2:-0.783914 
1 1:-0.858349 2:-0.826724 
1 1:-0.814266 2:-0.835084 
1 1:-0.876986 2:-0.783914 
1 1:-0.858349 2:-0.826724 
1 1:-0.814266 2:-0.835084 
1 1:-0.876986 2:-0.783914 
1 1:-0.858349 2:-0.826724 
1 1:-0.814266 2:-0.835084 
1 1:-0.876986 2:-0.783914 
1 1:-0.858349 2:-0.826724 
1 1:-0.814266 2:-0.835084 
1 1:-0.876986 2:-0.783914 
1 1:-0.858349 2:-0.826724 
1 1:-0.814266 2:-0.835084 
1 1:-0.876986 2:-0.783914 
1 1:-0.858349 2:-0.826724 
1 1:-0.814266 2:-0.835084 
1 1:-0.876986 2:-0.783914 
1 1:-0.858349 2:-0.826724 
1 1:-0.814266 2:-0.835084 
1 1:-0.876986 2:-0.783914 
1 1:-0.858349 2:-0.826724 
1 1:-0.814266 2:-0.835084 
1 1:-0.876986 2:-0.783914 
1 1:-0.858349 2:-0.826724 
1 1:-0.814266 2:-0.835084 
1 1:-0.876986 2:-0.783914 
1 1:-0.858349 2:-0.826724 
1 1:-0.814266 2:-0.835084 
1 1:-0.876986 2:-0.783914 
1 1:-0.858349 2:-0.826724 
1 1:-0.814266 2:-0.835084 
1 1:-0.876986 2:-0.783914 
1 1:-0.858349 2:-0.826724 
1 1:-0.814266 2:-0.835084 
1 1:-0.876986 2:-0.783914 
1 1:-0.858349 2:-0.826724 
1 1:-0.814266 2:-0.835084 
1 1:-0.876986 2:-0.783914 
1 1:-0.858349 2:-0.826724 
1 1:-0.814266 2:-0.835084 
1 1:-0.876986 2:-0.783914 
1 1:-0.858349 2:-0.826724 
1 1:-0.814266 2:-0.835084 
1 1:-0.876986 2:-0.783914 
1 1:-0.858349 2:-0.826724 
1 1:-0.814266 2:-0.835084 
1 1:-0.876986 2:-0.783914 
1 1:-0.858349 2:-0.826724 
1 1:-0.814266 2:-0.835084 
1 1:-0.876986 2:-0.783914 
1 1:-0.858349 2:-0.826724 
1 1:-0.814266 2:-0.835084 
1 1:-0.876986 2:-0.783914 
1 1:-0.858349 2:-0.826724 
1 1:-0.814266 2:-0.835084 
1 1:-0.876986 2:-0.783914 
1 1:-0.858349 2:-0.826724 
1 1:-0.814266 2:-0.835084 
1 1:-0.876986 2:-0.783914 
1 1:-0.858349 2:-0.826724 
1 1:-0.814266 2:-0.835084 
1 1:-0.876986 2:-0.783914 
1 1:-0.858349 2:-0.826724 
1 1:-0.814266 2:-0.835084 
1 1:-0.876986 2:-0.783914 
1 1:-0.858349 2:-0.826724 
1 1:-0.814266 2:-0.835084 
1 1:-0.876986 2:-0.783914 
1 1:-0.858349 2:-0.826724 
1 1:-0.814266 2:-0.835084 
1 1:-0.876986 2:-0.783914 
1 1:-0.858349 2:-0.826724 
1 1:-0.814266 2:-0.835084 
1 1:-0.876986 2:-0.783914 
1 1:-0.858349 2:-0.826724 
1 1:-0.814266 2:-0.835084 
1 1:-0.876986 2:-0.783914 
1 1:-0.858349 2:-0.826724 
1 1:-0.814266 2:-0.835084 
1 1:-0.876986 2:-0.783914 
1 1:-0.858349 2:-0.826724 
1 1:-0.814266 2:-0.835084 
1 1:-0.876986 2:-0.783914 
1 1:-0.858349 2:-0.826724 
1 1:-0.814266 2:-0.835084 
1 1:-0.876986 2:-0.783914 
1 1:-0.858349 2:-0.826724 
1 1:-0.814266 2:-0.835084 
1 1:-0.876986 2:-0.783914 
1 1:-0.858349 2:-0.826724 
1 1:-0.814266 2:-0.835084 
1 1:-0.876986 2:-0.783914 
1 1:-0.858349 2:-0.826724 
1 1:-0.814266 2:-0.835084 
1 1:-0.876986 2:-0.783914 
1 1:-0.858349 2:-0.826724 
1 1:-0.814266 2:-0.835084 
1 1:-0.876986 2:-0.783914 
1 1:-0.858349 2:-0.826724 
1 1:-0.814266 2:-0.835084 
1 1:-0.876986 2:-0.783914 
1 1:-0.858349 2:-0.826724 
1 1:-0.814266 2:-0.835084 
1 1:-0.876986 2:-0.783914 
1 1:-0.858349 2:-0.826724 
1 1:-0.814266 2:-0.835084 
1 1:-0.876986 2:-0.783914 
1 1:-0.858349 2:-0.826724 
1 1:-0.814266 2:-0.835084 
1 1:-0.876986 2:-0.783914 
1 1:-0.858349 2:-0.826724 
1 1:-0.814266 2:-0.835084 
1 1:-0.876986 2:-0.783914 
1 1:-0.858349 2:-0.826724 
1 1:-0.814266 2:-0.835084 
1 1:-0.876986 2:-0.783914 
1 1:-0.858349 2:-0.826724 
1 1:-0.814266 2:-0.835084 
1 1:-0.876986 2:-0.783914 
1 1:-0.858349 2:-0.826724 
1 1:-0.814266 2:-0.835084 
1 1:-0.876986 2:-0.783914 
1 1:-0.858349 2:-0.826724 
1 1:-0.814266 2:-0.835084 
1 1:-0.876986 2:-0.783914 
1 1:-0.858349 2:-0.826724 
1 1:-0.814266 2:-0.835084 
1 1:-0.876986 2:-0.783914 
1 1:-0.858349 2:-0.826724 
1 1:-0.814266 2:-0.835084 
1 1:-0.876986 2:-0.783914 
1 1:-0.858349 2:-0.826724 
1 1:-0.814266 2:-0.835084 
1 1:-0.876986 2:-0.783914 
1 1:-0.858349 2:-0.826724 
1 1:-0.814266 2:-0.835084 
1 1:-0.876986 2:-0.783914 
1 1:-0.858349 2:-0.826724 
1 1:-0.814266 2:-0.835084 
1 1:-0.876986 2:-0.783914 
1 1:-0.858349 2:-0.826724 
1 1:-0.814266 2:-0.835084 
1 1:-0.876986 2:-0.783914 
1 1:-0.858349 2:-0.826724 
1 1:-0.814266 2:-0.835084 
1 1:-0.876986 2:-0.783914 
1 1:-0.858349 2:-0.826724 
1 1:-0.814266 2:-0.835084 
1 1:-0.876986 2:-0.783914 
1 1:-0.858349 2:-0.826724 
1 1:-0.814266 2:-0.835084 
1 1:-0.876986 2:-0.783914 
1 1:-0.858349 2:-0.826724 
1 1:-0.814266 2:-0.835084 
1 1:-0.876986 2:-0.783914 
1 1:-0.858349 2:-0.826724 
1 1:-0.814266 2:-0.835084 
1 1:-0.876986 2:-0.783914 
1 1:-0.858349 2:-0.826724 
1 1:-0.814266 2:-0.835084 
1 1:-0.876986 2:-0.783914 
1 1:-0.858349 2:-0.826724 
1 1:-0.814266 2:-0.835084 
1 1:-0.876986 2:-0.783914 
1 1:-0.858349 2:-0.826724 
1 1:-0.814266 2:-0.835084 
1 1:-0.876986 2:-0.783914 
1 1:-0.858349 2:-0.826724 
1 1:-0.814266 2:-0.835084 
1 1:-0.876986 2:-0.783914 
1 1:-0.998249 2:-0.998528 
1 1:-0.998249 2:-0.998528 
1 1:-0.998249 2:-0.998528 
1 1:-0.998249 2:-0.998528 
1 1:-0.998249 2:-0.998528 
1 1:-0.998249 2:-0.998528 
1 1:-0.998249 2:-0.998528 
1 1:-0.998249 2:-0.998528 
1 1:-0.998249 2:-0.998528 
1 1:-0.998249 2:-0.998528 
1 1:-0.998249 2:-0.998528 
1 1:-0.998249 2:-0.998528 
1 1:-0.998249 2:-0.998528 
1 1:-0.998249 2:-0.998528 
1 1:-0.998249 2:-0.998528 
1 1:-0.998249 2:-0.998528 
1 1:-0.998249 2:-0.998528 
1 1:-0.998249 2:-0.998528 
1 1:-0.998249 2:-0.998528 
1 1:-0.998249 2:-0.998528 
1 1:-0.998249 2:-0.998528 
1 1:-0.998249 2:-0.998528 
1 1:-0.998249 2:-0.998528 
1 1:-0.998249 2:-0.998528 
1 1:-0.998249 2:-0.998528 
1 1:-0.998249 2:-0.998528 
1 1:-0.998249 2:-0.998528 
1 1:-0.998249 2:-0.998528 
1 1:-0.998249 2:-0.998528 
1 1:-0.998249 2:-0.998528 
1 1:-0.998249 2:-0.998528 
1 1:-0.998249 2:-0.998528 
1 1:-0.998249 2:-0.998528 
1 1:-0.998249 2:-0.998528 
1 1:-0.998249 2:-0.998528 
1 1:-0.998249 2:-0.998528 
1 1:-0.998249 2:-0.998528 
1 1:-0.998249 2:-0.998528 
1 1:-0.998249 2:-0.998528 
1 1:-0.998249 2:-0.998528 
1 1:-0.998249 2:-0.998528 
1 1:-0.998249 2:-0.998528 
1 1:-0.998249 2:-0.998528 
1 1:-0.998249 2:-0.998528 
1 1:-0.998249 2:-0.998528 
1 1:-0.998249 2:-0.998528 
1 1:-0.998249 2:-0.998528 
1 1:-0.998249 2:-0.998528 
1 1:-0.998249 2:-0.998528 
1 1:-0.998249 2:-0.998528 
1 1:-0.998249 2:-0.998528 
1 1:-0.998249 2:-0.998528 
1 1:-0.998249 2:-0.998528 
1 1:-0.998249 2:-0.998528 
1 1:-0.998249 2:-0.998528 
1 1:-0.998249 2:-0.998528 
1 1:-0.998249 2:-0.998528 
1 1:-0.998249 2:-0.998528 
1 1:-0.998249 2:-0.998528 
1 1:-0.998249 2:-0.998528 
1 1:-0.998249 2:-0.998528 
1 1:-0.998249 2:-0.998528 
1 1:-0.998249 2:-0.998528 
1 1:-0.998249 2:-0.998528 
1 1:-0.998249 2:-0.998528 
1 1:-0.998249 2:-0.998528 
1 1:-0.998249 2:-0.998528 
1 1:-0.998249 2:-0.998528 
1 1:-0.998249 2:-0.998528 
1 1:-0.998249 2:-0.998528 
1 1:-0.998249 2:-0.998528 
1 1:-0.998249 2:-0.998528 
1 1:-0.998249 2:-0.998528 
1 1:-0.998249 2:-0.998528 
1 1:-0.998249 2:-0.998528 
1 1:-0.998249 2:-0.998528 
1 1:-0.998249 2:-0.998528 
1 1:-0.998249 2:-0.998528 
1 1:-0.998249 2:-0.998528 
1 1:-0.998249 2:-0.998528 
1 1:-0.998249 2:-0.998528 
1 1:-0.998249 2:-0.998528 
1 1:-0.998249 2:-0.998528 
1 1:-0.998249 2:-0.998528 
1 1:-0.998249 2:-0.998528 
1 1:-0.998249 2:-0.998528 
1 1:-0.998249 2:-0.998528 
1 1:-0.998249 2:-0.998528 
1 1:-0.998249 2:-0.998528 
1 1:-1 2:-0.996281 
1 1:-1 2:-0.996281 
1 1:-1 2:-0.996281 
1 1:-1 2:-0.996281 
1 1:-1 2:-0.996281 
1 1:-1 2:-0.996281 
1 1:-1 2:-0.996281 
1 1:-1 2:-0.996281 
1 1:-1 2:-0.996281 
1 1:-1 2:-0.996281 
1 1:-1 2:-0.996281 
1 1:-1 2:-0.996281 
1 1:-1 2:-0.996281 
1 1:-1 2:-0.996281 
1 1:-1 2:-0.996281 
1 1:-1 2:-0.996281 
1 1:-1 2:-0.996281 
1 1:-1 2:-0.996281 
1 1:-1 2:-0.996281 
1 1:-1 2:-0.996281 
1 1:-1 2:-0.996281 
1 1:-1 2:-0.996281 
1 1:-1 2:-0.996281 
1 1:-1 2:-0.996281 
1 1:-1 2:-0.996281 
1 1:-1 2:-0.996281 
1 1:-1 2:-0.996281 
1 1:-1 2:-0.996281 
1 1:-1 2:-0.996281 
1 1:-1 2:-0.996281 
1 1:-1 2:-0.996281 
1 1:-1 2:-0.996281 
1 1:-1 2:-0.996281 
1 1:-1 2:-0.996281 
1 1:-1 2:-0.996281 
1 1:-1 2:-0.996281 
1 1:-1 2:-0.996281 
1 1:-1 2:-0.996281 
1 1:-1 2:-0.996281 
1 1:-1 2:-0.996281 
1 1:-1 2:-0.996281 
1 1:-1 2:-0.996281 
1 1:-1 2:-0.996281 
1 1:-1 2:-0.996281 
1 1:-1 2:-0.996281 
1 1:-1 2:-0.996281 
1 1:-1 2:-0.996281 
1 1:-1 2:-0.996281 
1 1:-1 2:-0.996281 
1 1:-1 2:-0.996281 
1 1:-1 2:-0.996281 
1 1:-1 2:-0.996281 
1 1:-1 2:-0.996281 
1 1:-1 2:-0.996281 
0.5581109608383547 1:-1 2:-0.996281 
0.4942501478085637 1:-1 2:-0.996281 
1 1:-1 2:-0.996281 
1 1:-1 2:-0.996281 
1 1:-1 2:-0.996281 
1 1:-0.923257 2:-0.822034 
1 1:-0.923257 2:-0.822034 
1 1:-0.923257 2:-0.822034 
1 1:-0.923257 2:-0.822034 
1 1:-0.923257 2:-0.822034 
1 1:-0.923257 2:-0.822034 
1 1:-0.923257 2:-0.822034 
1 1:-0.923257 2:-0.822034 
1 1:-0.923257 2:-0.822034 
1 1:-0.923257 2:-0.822034 
1 1:-0.923257 2:-0.822034 
1 1:-0.923257 2:-0.822034 
1 1:-0.923257 2:-0.822034 
1 1:-0.923257 2:-0.822034 
1 1:-0.923257 2:-0.822034 
1 1:-0.923257 2:-0.822034 
1 1:-0.923257 2:-0.822034 
1 1:-0.923257 2:-0.822034 
1 1:-0.923257 2:-0.822034 
1 1:-0.923257 2:-0.822034 
1 1:-0.923257 2:-0.822034 
1 1:-0.923257 2:-0.822034 
1 1:-0.923257 2:-0.822034 
1 1:-0.923257 2:-0.822034 
1 1:-0.923257 2:-0.822034 
1 1:-0.923257 2:-0.822034 
1 1:-0.923257 2:-0.822034 
1 1:-0.923257 2:-0.822034 
1 1:-0.923257 2:-0.822034 
1 1:-0.923257 2:-0.822034 
1 1:-0.923257 2:-0.822034 
1 1:-0.923257 2:-0.822034 
1 1:-0.923257 2:-0.822034 
1 1:-0.923257 2:-0.822034 
1 1:-0.923257 2:-0.822034 
1 1:-0.923257 2:-0.822034 
1 1:-0.923257 2:-0.822034 
1 1:-0.923257 2:-0.822034 
1 1:-0.923257 2:-0.822034 
1 1:-0.923257 2:-0.822034 
1 1:-0.923257 2:-0.822034 
1 1:-0.923257 2:-0.822034 
1 1:-0.923257 2:-0.822034 
1 1:-0.923257 2:-0.822034 
1 1:-0.923257 2:-0.822034 
1 1:-0.923257 2:-0.822034 
1 1:-0.923257 2:-0.822034 
1 1:-0.923257 2:-0.822034 
1 1:-0.923257 2:-0.822034 
1 1:-0.923257 2:-0.822034 
1 1:-0.923257 2:-0.822034 
1 1:-0.923257 2:-0.822034 
1 1:-0.923257 2:-0.822034 
1 1:-0.923257 2:-0.822034 
1 1:-0.923257 2:-0.822034 
1 1:-0.923257 2:-0.822034 
1 1:-0.923257 2:-0.822034 
1 1:-0.923257 2:-0.822034 
1 1:-0.923257 2:-0.822034 
1 1:-0.923257 2:-0.822034 
1 1:-0.923257 2:-0.822034 
1 1:-0.923257 2:-0.822034 
1 1:-0.923257 2:-0.822034 
1 1:-0.923257 2:-0.822034 
1 1:-0.923257 2:-0.822034 
1 1:-0.923257 2:-0.822034 
1 1:-0.923257 2:-0.822034 
1 1:-0.923257 2:-0.822034 
1 1:-0.923257 2:-0.822034 
1 1:-0.923257 2:-0.822034 
1 1:-0.923257 2:-0.822034 
1 1:-0.923257 2:-0.822034 
1 1:-0.923257 2:-0.822034 
1 1:-0.923257 2:-0.822034 
1 1:-0.923257 2:-0.822034 
1 1:-0.923257 2:-0.822034 
1 1:-0.923257 2:-0.822034 
1 1:-0.923257 2:-0.822034 
1 1:-0.923257 2:-0.822034 
1 1:-0.923257 2:-0.822034 
1 1:-0.923257 2:-0.822034 
1 1:-0.923257 2:-0.822034 
1 1:-0.923257 2:-0.822034 
1 1:-0.923257 2:-0.822034 
1 1:-0.923257 2:-0.822034 
1 1:-0.923257 2:-0.822034 
1 1:-0.923257 2:-0.822034 
1 1:-0.923257 2:-0.822034 
1 1:-0.923257 2:-0.822034 
1 1:-0.923257 2:-0.822034 
1 1:-0.923257 2:-0.822034 
1 1:-0.998649 2:-0.997959 
1 1:-0.998649 2:-0.997959 
1 1:-0.998649 2:-0.997959 
1 1:-0.998649 2:-0.997959 
1 1:-0.998649 2:-0.997959 
1 1:-0.998649 2:-0.997959 
1 1:-0.998649 2:-0.997959 
1 1:-0.998649 2:-0.997959 
1 1:-0.998649 2:-0.997959 
1 1:-0.998649 2:-0.997959 
1 1:-0.998649 2:-0.997959 
1 1:-0.998649 2:-0.997959 
1 1:-0.998649 2:-0.997959 
1 1:-0.998649 2:-0.997959 
1 1:-0.998649 2:-0.997959 
1 1:-0.998649 2:-0.997959 
1 1:-0.998649 2:-0.997959 
1 1:-0.998649 2:-0.997959 
1 1:-0.998649 2:-0.997959 
1 1:-0.998649 2:-0.997959 
1 1:-0.998649 2:-0.997959 
1 1:-0.998649 2:-0.997959 
1 1:-0.998649 2:-0.997959 
1 1:-0.998649 2:-0.997959 
1 1:-0.998649 2:-0.997959 
1 1:-0.998649 2:-0.997959 
1 1:-0.998649 2:-0.997959 
1 1:-0.998649 2:-0.997959 
1 1:-0.998649 2:-0.997959 
1 1:-0.998649 2:-0.997959 
1 1:-0.998649 2:-0.997959 
1 1:-0.998649 2:-0.997959 
1 1:-0.998649 2:-0.997959 
1 1:-0.998649 2:-0.997959 
1 1:-0.998649 2:-0.997959 
1 1:-0.998649 2:-0.997959 
1 1:-0.998649 2:-0.997959 
1 1:-0.998649 2:-0.997959 
1 1:-0.998649 2:-0.997959 
1 1:-0.998649 2:-0.997959 
1 1:-0.998649 2:-0.997959 
1 1:-0.998649 2:-0.997959 
1 1:-0.998649 2:-0.997959 
1 1:-0.998649 2:-0.997959 
1 1:-0.998649 2:-0.997959 
1 1:-0.998649 2:-0.997959 
1 1:-0.998649 2:-0.997959 
1 1:-0.998649 2:-0.997959 
1 1:-0.998649 2:-0.997959 
1 1:-0.998649 2:-0.997959 
1 1:-0.998649 2:-0.997959 
1 1:-0.998649 2:-0.997959 
1 1:-0.998649 2:-0.997959 
1 1:-0.998649 2:-0.997959 
1 1:-0.998649 2:-0.997959 
1 1:-0.998649 2:-0.997959 
1 1:-0.998649 2:-0.997959 
1 1:-0.998649 2:-0.997959 
1 1:-0.998649 2:-0.997959 
1 1:-0.998649 2:-0.997959 
1 1:-0.998649 2:-0.997959 
1 1:-0.998649 2:-0.997959 
1 1:-0.998649 2:-0.997959 
1 1:-0.998649 2:-0.997959 
1 1:-0.998649 2:-0.997959 
1 1:-0.998649 2:-0.997959 
1 1:-0.998649 2:-0.997959 
1 1:-0.998649 2:-0.997959 
1 1:-0.998649 2:-0.997959 
1 1:-0.998649 2:-0.997959 
1 1:-0.998649 2:-0.997959 
1 1:-0.998649 2:-0.997959 
1 1:-0.998649 2:-0.997959 
1 1:-0.998649 2:-0.997959 
1 1:-0.998649 2:-0.997959 
1 1:-0.998649 2:-0.997959 
1 1:-0.998649 2:-0.997959 
1 1:-0.998649 2:-0.997959 
1 1:-0.998649 2:-0.997959 
1 1:-0.998649 2:-0.997959 
1 1:-0.998649 2:-0.997959 
1 1:-0.998649 2:-0.997959 
1 1:-0.998649 2:-0.997959 
1 1:-0.998649 2:-0.997959 
1 1:-0.998649 2:-0.997959 
1 1:-0.998649 2:-0.997959 
1 1:-0.998649 2:-0.997959 
1 1:-0.998649 2:-0.997959 
1 1:-0.998649 2:-0.997959 
1 1:-0.998649 2:-0.997959 
1 1:-0.998649 2:-0.997959 
1 1:-0.998649 2:-0.997959 
1 1:-0.996938 2:-0.999217 
1 1:-0.996938 2:-0.999217 
1 1:-0.996938 2:-0.999217 
1 1:-0.996938 2:-0.999217 
1 1:-0.996938 2:-0.999217 
1 1:-0.996938 2:-0.999217 
1 1:-0.996938 2:-0.999217 
1 1:-0.996938 2:-0.999217 
1 1:-0.996938 2:-0.999217 
1 1:-0.996938 2:-0.999217 
1 1:-0.996938 2:-0.999217 
1 1:-0.996938 2:-0.999217 
1 1:-0.996938 2:-0.999217 
1 1:-0.996938 2:-0.999217 
1 1:-0.996938 2:-0.999217 
1 1:-0.996938 2:-0.999217 
1 1:-0.996938 2:-0.999217 
1 1:-0.996938 2:-0.999217 
1 1:-0.996938 2:-0.999217 
1 1:-0.996938 2:-0.999217 
1 1:-0.996938 2:-0.999217 
1 1:-0.996938 2:-0.999217 
1 1:-0.996938 2:-0.999217 
1 1:-0.996938 2:-0.999217 
1 1:-0.996938 2:-0.999217 
1 1:-0.996938 2:-0.999217 
1 1:-0.996938 2:-0.999217 
1 1:-0.996938 2:-0.999217 
1 1:-0.996938 2:-0.999217 
1 1:-0.996938 2:-0.999217 
1 1:-0.996938 2:-0.999217 
1 1:-0.996938 2:-0.999217 
1 1:-0.996938 2:-0.999217 
1 1:-0.996938 2:-0.999217 
1 1:-0.996938 2:-0.999217 
1 1:-0.996938 2:-0.999217 
1 1:-0.996938 2:-0.999217 
1 1:-0.996938 2:-0.999217 
1 1:-0.996938 2:-0.999217 
1 1:-0.996938 2:-0.999217 
1 1:-0.996938 2:-0.999217 
1 1:-0.996938 2:-0.999217 
1 1:-0.996938 2:-0.999217 
1 1:-0.996938 2:-0.999217 
1 1:-0.996938 2:-0.999217 
1 1:-0.996938 2:-0.999217 
1 1:-0.996938 2:-0.999217 
1 1:-0.996938 2:-0.999217 
1 1:-0.996938 2:-0.999217 
1 1:-0.996938 2:-0.999217 
1 1:-0.996938 2:-0.999217 
1 1:-0.996938 2:-0.999217 
1 1:-0.996938 2:-0.999217 
1 1:-0.996938 2:-0.999217 
1 1:-0.996938 2:-0.999217 
1 1:-0.996938 2:-0.999217 
1 1:-0.996938 2:-0.999217 
1 1:-0.996938 2:-0.999217 
1 1:-0.996938 2:-0.999217 
1 1:-0.996938 2:-0.999217 
1 1:-0.996938 2:-0.999217 
1 1:-0.996938 2:-0.999217 
1 1:-0.996938 2:-0.999217 
1 1:-0.996938 2:-0.999217 
1 1:-0.996938 2:-0.999217 
1 1:-0.996938 2:-0.999217 
1 1:-0.996938 2:-0.999217 
1 1:-0.996938 2:-0.999217 
1 1:-0.996938 2:-0.999217 
1 1:-0.996938 2:-0.999217 
1 1:-0.996938 2:-0.999217 
1 1:-0.996938 2:-0.999217 
1 1:-0.996938 2:-0.999217 
1 1:-0.996938 2:-0.999217 
1 1:-0.996938 2:-0.999217 
1 1:-0.996938 2:-0.999217 
1 1:-0.996938 2:-0.999217 
1 1:-0.996938 2:-0.999217 
1 1:-0.996938 2:-0.999217 
1 1:-0.996938 2:-0.999217 
1 1:-0.996938 2:-0.999217 
1 1:-0.996938 2:-0.999217 
1 1:-0.996938 2:-0.999217 
1 1:-0.996938 2:-0.999217 
1 1:-0.996938 2:-0.999217 
1 1:-0.996938 2:-0.999217 
1 1:-0.996938 2:-0.999217 
1 1:-0.996938 2:-0.999217 
1 1:-0.996938 2:-0.999217 
1 1:-0.996938 2:-0.999217 
1 1:-0.996938 2:-0.999217 
1 1:-0.996938 2:-0.999217 
1 1:-0.996938 2:-0.999217 
1 1:-0.996938 2:-0.999217 
1 1:-0.996938 2:-0.999217 
1 1:-0.996938 2:-0.999217 
1 1:-0.919842 2:-0.836807 
1 1:-0.919842 2:-0.836807 
1 1:-0.919842 2:-0.836807 
1 1:-0.919842 2:-0.836807 
1 1:-0.919842 2:-0.836807 
1 1:-0.919842 2:-0.836807 
1 1:-0.919842 2:-0.836807 
1 1:-0.919842 2:-0.836807 
1 1:-0.919842 2:-0.836807 
1 1:-0.919842 2:-0.836807 
1 1:-0.919842 2:-0.836807 
1 1:-0.919842 2:-0.836807 
1 1:-0.919842 2:-0.836807 
1 1:-0.919842 2:-0.836807 
1 1:-0.919842 2:-0.836807 
1 1:-0.919842 2:-0.836807 
1 1:-0.919842 2:-0.836807 
1 1:-0.919842 2:-0.836807 
1 1:-0.919842 2:-0.836807 
1 1:-0.919842 2:-0.836807 
1 1:-0.919842 2:-0.836807 
1 1:-0.919842 2:-0.836807 
1 1:-0.919842 2:-0.836807 
1 1:-0.919842 2:-0.836807 
1 1:-0.919842 2:-0.836807 
1 1:-0.919842 2:-0.836807 
1 1:-0.919842 2:-0.836807 
1 1:-0.919842 2:-0.836807 
1 1:-0.919842 2:-0.836807 
1 1:-0.919842 2:-0.836807 
1 1:-0.919842 2:-0.836807 
1 1:-0.919842 2:-0.836807 
1 1:-0.919842 2:-0.836807 
1 1:-0.919842 2:-0.836807 
1 1:-0.919842 2:-0.836807 
1 1:-0.919842 2:-0.836807 
1 1:-0.919842 2:-0.836807 
1 1:-0.919842 2:-0.836807 
1 1:-0.919842 2:-0.836807 
1 1:-0.919842 2:-0.836807 
1 1:-0.919842 2:-0.836807 
1 1:-0.919842 2:-0.836807 
1 1:-0.919842 2:-0.836807 
1 1:-0.919842 2:-0.836807 
1 1:-0.919842 2:-0.836807 
1 1:-0.919842 2:-0.836807 
1 1:-0.919842 2:-0.836807 
1 1:-0.919842 2:-0.836807 
1 1:-0.919842 2:-0.836807 
1 1:-0.919842 2:-0.836807 
1 1:-0.919842 2:-0.836807 
1 1:-0.919842 2:-0.836807 
1 1:-0.919842 2:-0.836807 
1 1:-0.919842 2:-0.836807 
1 1:-0.919842 2:-0.836807 
1 1:-0.919842 2:-0.836807 
1 1:-0.919842 2:-0.836807 
1 1:-0.919842 2:-0.836807 
1 1:-0.919842 2:-0.836807 
1 1:-0.919842 2:-0.836807 
1 1:-0.919842 2:-0.836807 
1 1:-0.919842 2:-0.836807 
1 1:-0.919842 2:-0.836807 
1 1:-0.919842 2:-0.836807 
1 1:-0.919842 2:-0.836807 
1 1:-0.919842 2:-0.836807 
1 1:-0.919842 2:-0.836807 
1 1:-0.919842 2:-0.836807 
1 1:-0.919842 2:-0.836807 
1 1:-0.919842 2:-0.836807 
1 1:-0.919842 2:-0.836807 
